protein,0,1,2,3,4,5,6,7,8,9,10,11,12,13,14,15,16,17,18,19,20,21,22,23,24,25,26,27,28,29,30,31,32,33,34,35,36,37,38,39,40,41,42,43,44,45,46,47,48,49,50,51,52,53,54,55,56,57,58,59,60,61,62,63,64,65,66,67,68,69,70,71,72,73,74,75,76,77,78,79,80,81,82,83,84,85,86,87,88,89,90,91,92,93,94,95
Q00535,-0.00733433,-0.020519571,-0.021774083,0.021895915,-0.028561784,-0.02656979,0.00961696,0.03040007,0.016078098,-0.00080901396,-0.017612876,0.011316229,0.0112311095,-0.03906366,-0.03586262,-0.04978331,0.013922283,0.0071159927,-0.04901345,0.020311747,-0.0372181,0.03745847,-0.006293583,0.013162437,-0.037812367,-0.0065423353,-0.045528814,-0.033697642,-0.044213034,-0.010095702,0.015274351,-0.007054896,0.039935708,-0.021666417,0.057395156,0.04098807,0.02343739,0.008084937,0.019472394,-0.109213285,-0.008656839,0.003907411,0.067102395,0.037547253,0.04999546,0.0010526257,-0.006622271,-0.12271799,0.015917426,0.03660624,-0.040775042,0.052556556,-0.023538783,0.04336249,-0.035735972,0.07803154,-0.02714175,0.054281063,-0.025287455,0.062305614,-0.02871178,-0.007997242,-0.07435338,0.0035936695,-0.034839943,0.013094532,-0.07688997,0.03585072,-0.010136041,0.007647091,-0.05363875,0.03506532,-0.007355249,0.017328544,-0.032646984,0.0509491,-0.050949335,0.008264216,0.07111444,-0.0076652807,0.03076444,-0.014627598,0.016145835,-0.022079103,0.01932774,-0.010754341,0.02934774,0.012103476,0.00067928736,0.051358763,0.03239188,0.046470013,0.07431622,0.0045309025,-0.0067646867,0.05842331
P10636,-0.12100639,-0.31033593,-0.03595513,-0.018580053,0.11830686,0.0062479074,-0.38614002,0.03679696,0.056199312,0.057710744,-0.38009483,0.0036367278,0.36146414,-0.3836992,-0.08622188,-0.040857427,0.3727371,-0.28825697,0.23687294,-0.027210666,0.14504658,0.12561728,-0.22654143,0.109656274,-0.04485363,0.015652897,-0.061226197,-0.0032911932,0.15991652,-0.301769,0.11514449,0.43186152,-0.1441556,-0.021403095,-0.45934817,0.018077107,0.19607195,0.15739933,0.21116129,0.12629168,-0.17813021,0.3971319,0.46229905,-0.13046503,0.28029603,0.037023023,-0.50892437,0.16471925,-0.06704351,0.015160127,0.048680525,0.36286524,0.14298116,0.29470348,-0.13790059,0.04931292,-0.0062072105,0.500478,-0.2438654,0.104070686,-0.21621722,-0.4801169,0.15485051,-0.25243667,0.15761225,0.3054922,-0.11596875,0.31620634,-0.133282,0.29249704,0.08099061,0.3739999,0.028572338,-0.5975445,-0.11496308,0.06600636,0.060282692,0.17722802,0.43031517,-0.10937312,0.06876632,-0.21430713,0.22521104,0.027796565,0.25587726,-0.45094952,0.17363176,-0.17783608,0.32485545,0.16911308,-1.0290599,-0.16233657,0.6020063,0.3829918,-0.19232678,-0.018133128
Q16620,0.05620305,-0.028404282,-0.08760616,-0.06033257,-0.006462516,-0.2562695,0.005446082,0.033929575,-0.022475244,-0.010806234,0.022277026,0.06749165,-0.05799107,0.1870738,0.025655713,-0.008316126,0.002256645,-0.07255222,-0.07757308,-0.035759315,-0.071393676,-0.04298481,-0.036834925,-0.053611606,-0.014112834,-0.040463604,0.0056845373,-0.0024046302,0.04785671,-0.031010602,0.05359057,0.02637916,0.06778364,-0.018083615,-0.0085391225,0.05903812,-0.0010425632,0.00505968,0.00015440623,-0.04546327,-0.013638646,0.079888396,-0.0008700416,0.09017098,0.04397913,0.030867638,0.0991645,-0.029377358,-0.08926322,0.06023297,-0.0072435057,-0.002057627,0.018683955,0.073304124,0.02408422,-0.031471167,0.02133972,-0.0037177787,0.04935974,-0.00766018,-0.043785073,-0.0005215237,0.012413233,0.118524164,-0.004244046,0.010637984,-0.22796439,0.030029597,0.015302457,0.050572537,0.051721815,-0.03784752,-0.013470748,-0.026957028,-0.14750172,0.024585987,-0.017154897,-0.03421594,-0.008284889,-0.010597525,0.007390511,0.0012378483,0.01757533,0.024124546,0.03195187,-0.02179368,0.03162522,-0.03213942,0.04510338,0.005669652,0.0872571,-0.04873734,-0.012631054,-0.034326162,-0.015630571,-0.04251396
P22001,0.15637878,-0.07304205,-0.12696768,-0.0050702766,0.024988778,-0.30022478,0.007409671,0.24004543,0.03706079,0.11126442,0.0020182962,0.087628916,-0.50885487,1.2873895,0.025685055,0.022628529,-0.09547829,0.024418544,-0.12653884,-0.047709074,-0.14821613,-0.013051457,-0.32790196,-0.394726,-0.072926894,-0.02403375,0.012076803,-0.042922586,0.073885486,-0.02636365,0.058201257,0.049081527,0.07805661,-0.068407446,0.1312074,0.03238273,0.038250558,-0.049450763,0.03625298,-0.0948172,-0.007411667,0.093438655,-0.014410306,0.48187155,0.13818733,0.071413085,0.24453695,-0.16360421,0.010016042,0.4836385,-0.10067828,0.14091171,0.089921854,0.58888906,0.19680203,-0.11028325,0.013964066,-0.03726818,0.14119805,0.011739024,-0.048154514,0.07931281,0.00201392,-0.13790302,0.05298006,0.1736465,-0.6712377,-0.050120708,0.10242968,0.0062813107,0.6297518,-0.09304335,-0.09459754,0.090333596,-0.12427612,0.012050901,0.10175211,-0.047938433,0.027286787,-0.072029695,-0.039652597,0.010375818,0.22274554,0.015860291,-0.064100385,-0.053299766,-0.05718239,-0.10988097,0.01304014,-0.12134146,0.10497727,-0.06995577,0.10356779,-0.1540622,0.015773522,-0.5283156
Q13315,0.0008067314,-0.017528832,-0.065164395,-0.015516834,-0.0015726829,0.018214285,-0.017949669,0.0142747965,0.0036571752,0.009256453,-0.0072384677,0.030639851,0.043085262,-0.001274382,0.015764693,-0.0013261047,-0.026835267,0.01706169,-0.01985098,0.01901527,-0.015685232,-0.029626492,0.02640124,0.018342244,-0.022312263,0.0028584015,0.020410834,-0.016243663,0.024112375,0.002298584,-0.026458506,0.02700846,-0.043567237,-0.0111490395,-0.024631843,-0.006914313,-0.004144873,-0.009702424,-0.035152584,-0.029353831,0.015774062,0.026986564,-0.019588286,-0.012726755,0.035854172,0.016355604,-0.021825882,0.016952738,-0.03205865,0.014346543,-0.001368177,-0.085925244,-0.013936169,-0.02539708,-0.025405161,-0.008253999,-0.0067596,-0.05878416,-0.036893662,0.023595298,-0.03247454,0.009134629,-0.024060845,0.15525718,-0.0036717583,-0.046366945,0.022974582,0.033787183,0.005654402,-0.04528844,-0.009332279,0.0040533487,0.0012272653,0.023959707,0.043251492,0.05236051,0.0075350143,0.04293331,0.021238817,-0.012832896,-0.0031483138,0.0033896498,0.044263482,0.012607095,0.027552621,-0.01552496,0.012349604,-0.03105415,0.0073995166,0.068774186,-0.044948302,0.049464628,0.019658754,-0.01178273,-0.016699294,0.011090023
P15336,-0.12542374,-0.1609658,0.19130047,-0.028081458,0.043501064,-0.19437318,-0.15751016,0.09314355,0.16365996,0.12751912,-0.2773401,-0.4420781,0.1402588,0.14719547,0.108356066,0.293351,0.0761968,-0.10785558,0.15181796,0.023703916,0.13335672,-0.12981515,0.1002832,-0.08826623,-0.16425334,0.06122954,0.08579615,0.008111344,-0.40246654,-0.121244766,-0.08398699,0.091386996,-0.06696198,-0.21796724,-0.004040116,0.04269104,0.026969878,0.21236597,0.15200502,0.003993821,0.026942398,0.113107055,0.26670447,-0.10465746,-0.11050645,-0.033664,0.23854011,0.069304086,-0.047551766,0.024199609,-0.042344946,-0.2195255,0.19659185,0.1506569,-0.108837806,-0.14706132,-0.024959503,-0.05280741,-0.22007552,0.037564438,0.06711514,-0.017287172,0.11762349,-0.1647273,-0.39509284,0.0033465603,0.24624436,0.1153922,-0.19322476,0.19380574,0.117714286,-0.11101961,0.03586468,0.024695503,0.05183731,-0.1356239,-0.22039306,0.102412455,1.6833918,-0.047269322,0.12515149,-0.12811069,-0.6576843,-0.21037935,0.16580208,-0.07277358,0.12119497,0.093394965,-0.0036854495,0.19861247,0.00085862185,-0.10583481,-0.072663166,0.12709683,-0.109128326,-0.049756747
P78527,-0.017472038,0.018127449,0.0007806899,-0.008609892,-0.005802314,0.006242954,-0.03795339,0.02764306,0.010408246,0.054138266,0.01604694,-0.013323564,0.0030204137,-0.015262844,-0.020778276,0.010392392,8.0977356e-05,-0.035116367,-0.031229265,0.007810346,-0.010059071,0.011510025,0.029905984,-0.0258963,0.0148054045,0.04047969,-0.03729483,0.0060280655,0.03356184,-0.0027386309,-0.0014612711,0.012612789,0.04128287,0.0033585844,-0.016737115,-0.0049703466,-0.03035523,-0.004505194,-0.005987946,-0.042177018,0.0044556786,0.076794155,-0.038797762,0.01258489,0.029730102,-0.013297177,0.001203662,0.04418988,0.0031127625,0.031728983,0.020489408,-0.011637909,-0.018158123,-0.036542844,-0.041539498,-0.03781965,-0.018807322,0.066686735,-0.004161785,0.002276998,-0.020904427,-0.010253055,0.019073913,0.023227038,-0.017878255,-0.05492224,0.043140262,-0.003514621,0.045454234,0.062002547,0.006826405,0.05040509,-0.01720158,-0.013054283,-0.016902752,0.034977205,-0.0028231412,0.003316477,0.016858077,-0.011930489,-0.007658956,0.03460867,0.015621838,0.0017310677,-0.007945285,-0.07592546,0.0054203896,-0.0028895847,-0.003423236,0.052680127,-0.05041102,0.01384055,-0.013195588,0.02738917,-0.0106770685,0.07452152
Q9H9Q4,0.016968995,-0.061753046,0.08000837,-0.10856075,-0.15572584,0.094968446,0.06509584,0.05300613,-0.04528612,0.07821209,0.36065522,-0.6107717,0.00097166916,-0.036682103,0.092777885,0.088006794,0.08861013,0.09809108,0.05161264,0.029975846,-0.07257118,0.1379389,1.1763762,-0.03156068,-0.41896924,0.038598664,-0.092737205,-0.7616323,0.0109968,-0.068040766,0.0756287,0.03634294,0.098832086,0.057206046,-0.24453865,0.022522334,-0.009180181,-0.45072398,-0.066236585,-0.09629693,0.051538277,-0.12952012,-0.14327882,0.08171752,0.10389827,0.019323703,-0.09700273,0.10318487,0.032441482,0.1860623,0.13309465,-0.108249836,-0.040302824,0.09582803,-0.10640019,-0.70086867,-0.07860043,-0.021483388,-0.014497956,0.061375268,-0.09738637,0.078002736,0.097845,-0.0020989268,-0.056224886,-0.1156646,-0.06124053,-0.08609317,-0.19602506,0.00875495,-0.17707439,0.08611864,0.016259551,0.01854641,-0.0041372776,0.21541731,-0.11200201,0.0014538219,0.06168637,0.090427026,0.035731263,-0.05276272,-0.11198979,-0.08506157,0.102310695,-0.09841699,-0.12395525,0.107726395,0.5032526,-0.33849,0.09395909,-0.067685224,0.06041216,0.046724655,0.64483535,0.16603084
Q15831,-0.015925394,-0.044232618,0.010051826,0.06582372,-0.022652628,0.044530842,0.032571737,0.0594877,0.059715103,0.16575475,0.069186926,-0.016195301,0.10030335,-0.0030121547,0.022116853,-0.016427642,-0.022186559,0.014201709,0.030974347,-0.06517839,-0.011104986,-0.072350234,-0.08858054,0.005600113,-0.12893099,-0.025843259,0.042785972,-0.046660256,-0.028197415,-0.08180081,-0.04276446,0.017472923,-0.078710504,0.06699561,-0.081249,-0.01360814,0.05115869,-0.026575895,0.10732716,-0.04127441,-0.06616111,0.010022829,0.00093882246,-0.008852702,-0.051688712,0.0064604003,-0.033353455,0.0870067,-0.017997185,0.050646186,0.04093185,0.044957202,0.0128241945,0.028263958,-0.017016541,0.077287324,0.024887834,0.16538551,0.033378474,0.049096216,0.014120402,-0.09776125,-0.0035036106,-0.15245448,0.04437671,-0.03726687,-0.014368671,0.084120624,-0.06374664,0.05177051,0.13372976,0.07070472,-0.08159451,-0.015042234,-0.04873154,0.035914272,0.026124299,0.021210693,0.08101911,-0.06789045,-0.014803525,-0.0007804438,-0.017073993,0.04962875,0.015343669,-0.0655414,0.02379198,-0.015577885,0.005574164,-0.027484424,-0.029898474,-0.025555734,0.081996016,-0.04463991,-0.0030433263,-0.0739439
P54646,-0.04145247,-0.021164885,-0.02362192,0.018024446,-0.056364983,0.014415741,-0.03790686,0.0838614,0.01511028,0.030598497,0.0030584035,-0.035083935,-0.029359264,0.037100088,-0.00014601617,-0.024672173,0.015464932,0.008442268,0.0086898785,-0.031971782,-0.0007910542,-0.007706548,-0.0022664808,-0.015734624,-0.023782412,-0.019732798,-0.01575856,-0.034781978,-0.0048862575,-0.017090153,0.0025817505,0.040310517,0.01892797,-0.048204,-0.023539461,-0.030821962,0.03398772,-0.04620428,-0.012669412,-0.032468535,-0.04343418,0.02137036,0.037757643,-0.025036288,-0.014823667,-0.04274068,-0.081471756,0.02430717,-0.007072768,0.010042632,0.049811296,-0.0043404754,0.019719344,0.054385956,-0.018241871,0.04664219,0.007960658,0.008977477,-0.012080118,0.023732655,-0.007257867,-0.010388019,-0.037717372,-0.03169112,0.044617206,-0.032108746,-0.029726235,0.017425392,-0.071751796,0.018442348,0.09565817,0.028777508,-0.013708884,-0.014797186,0.010647325,0.03981315,0.010326315,0.019670963,0.049620003,-0.015629105,-0.035345163,-0.05614757,-0.0010027277,-0.027854033,-0.018295253,-0.034601767,-0.01638342,0.0502077,0.011339666,0.01858529,-0.016330007,-0.025679324,0.013038365,0.031965353,0.03517432,-0.047032062
P12931,0.01040569,-0.021594116,0.046079054,-0.06888862,-0.035242904,-0.035200678,0.011034524,-0.038424335,-0.030973678,0.016732264,-0.070579596,-0.0223842,0.0040098582,-0.0035822487,-0.014474636,-0.07014994,0.023029061,-0.010665219,-0.007239882,0.03986741,0.0077041523,0.036036283,-0.022701612,-0.026440848,-0.050762534,-0.012827566,-0.026134623,0.0067463676,0.011847251,0.0048479983,0.037015267,-0.030194303,0.03085114,0.033926435,0.031334586,0.014222732,-0.033188187,-0.01041343,-0.009318058,0.032800402,-0.015329965,-0.003897136,0.023885254,0.00028014396,0.01128977,-0.024823291,0.00035073597,-0.024996964,0.018879784,0.017927919,0.00015126387,0.03396175,0.007952624,0.008908848,-0.03407955,-0.01184036,-0.020770224,0.05274675,0.008593225,-0.0049189194,0.019126646,-0.020486264,-0.01826833,-0.0017126835,-0.010247364,0.0059261573,0.015410765,-0.009715291,-0.0538846,0.052032456,-0.057751574,-0.02990209,-0.013770432,-0.06635261,0.006572811,-0.009899022,0.021516103,-0.007878651,-0.004014745,-0.0066447174,-0.03840259,-0.011017098,0.0053205327,-0.011668991,0.00033831608,-0.0024204592,-0.03151568,0.008823891,-0.009079297,0.1752365,0.06589364,-0.010722145,-0.07177496,0.0032172706,-0.08171931,-0.020198032
Q05193,0.012620601,0.063964,0.04363784,-0.00090532517,0.07952704,-0.109790415,0.14217456,0.10863318,0.005530602,-0.6758792,0.036514066,0.08772726,0.106404915,-1.625893,0.064015135,0.053434208,0.02534361,-0.1169034,-0.022132352,0.21001053,0.041931503,0.037342917,-0.028377729,0.11021025,0.030820137,-0.07831927,-0.11517837,-0.22675724,0.055719685,0.13538618,-0.077492245,-0.12442419,-0.014133101,-0.06959838,0.025059473,0.002050948,-0.027379643,0.06333324,0.053066134,0.08019114,-0.007802883,0.0061577046,0.045060195,-0.07886046,-0.03381304,0.03813014,-0.31023395,0.086133555,0.16070431,0.11842696,-0.040724076,0.031397577,-0.09215175,-0.09430526,-0.092475414,0.13126868,-0.037712544,-0.071552016,-0.031233985,-0.021607446,-0.047761,-0.12319471,0.005569903,0.029085353,0.025269087,0.31656826,-0.0093296105,-0.117700964,0.03912444,-0.0354282,-0.026546143,-0.050049387,0.14400804,0.070132636,-0.026723953,0.43428487,-0.0714718,0.057966117,-0.51531005,-0.03419429,-0.052706238,-0.06222975,-0.05079312,0.1709983,0.0026426665,0.0981511,0.023710566,-0.55272895,0.39840934,0.10590041,0.15726663,-0.019705825,0.039090604,0.07253999,-0.19294074,-0.016992945
P28482,-0.05308798,-0.011588943,0.011199413,0.049997102,-0.030013002,0.075050525,-0.0005404347,0.0758575,-0.0048509864,0.06720389,-0.12120994,-0.049656875,0.039114352,-0.012052978,0.062217265,-0.024750965,-0.02595997,-0.00022308428,-0.04408055,0.053817317,0.056277324,0.04078632,0.021770075,-0.117543,-0.07892359,0.003972138,0.017239334,0.011348867,0.03124618,0.008580474,0.0019291554,0.043079175,-0.010939614,0.08943324,-0.007786585,0.024839835,-0.014594755,0.043335043,0.09784702,-0.05010201,-0.10673814,-0.049069542,0.02902431,-0.021756556,0.04561118,0.035397034,0.06544869,0.055936582,-0.010798016,0.0037983258,0.011220415,-0.027024498,0.026555762,-0.03829695,-0.085507534,0.1527816,-0.021528052,0.012761431,-0.007643741,-0.026858177,-0.03308279,-0.012495557,-0.05980559,-0.03610588,-0.009358862,-0.03459269,0.024350557,0.035702042,-0.029473584,0.0034552016,-0.003006254,-0.009605572,0.06198919,-0.025354447,-0.05652648,-0.0047866977,-0.031149913,0.04755938,0.0894469,-0.012666505,0.097862534,0.018472051,0.02000823,-0.005189197,0.011091477,-0.12097683,-0.018492045,-0.015841875,-0.08665593,0.019694101,-0.035674073,-0.056857917,0.06745428,0.027493836,-0.021158155,0.032977793
P22736,-0.04231412,-0.026598705,-0.0916406,0.0013268787,-0.07096915,0.055982754,-0.055505246,0.12640345,0.030934602,0.116686344,-0.030260706,0.08579786,0.027384266,0.010072341,-0.020562347,-0.03261322,0.007767436,0.056015715,-0.07867492,0.015738526,-0.053241514,0.08450888,-0.04756811,-0.019400492,-0.023334632,-0.089558885,0.0839981,-0.04272942,-0.019683663,0.08095989,-0.044052303,-0.08280026,-0.016034883,-0.00642242,-0.046627194,0.01679382,-0.0042182654,-0.02371624,0.08555707,-0.035177026,0.009858782,-0.016476208,-0.023986477,-0.05812591,0.040303208,0.10274944,-0.022318501,-0.0082448395,-0.08890463,-0.0076877065,0.0008286297,-0.010219485,-0.049919058,-0.066493824,-0.017473098,0.079116926,-0.049172945,-0.030552512,-0.030099602,0.057969116,-0.06751253,0.02404745,-0.07272015,0.0018449147,0.06283291,0.006616484,-0.025652092,-0.014676977,-0.055513587,-0.009067716,-0.08659893,-0.011404202,0.059522524,-0.021270355,0.017244518,0.10152651,0.053845372,0.06855338,0.086746134,-0.021607677,0.026459098,0.0030343663,0.02033892,-0.014217611,0.023297988,-0.03871708,0.034142885,-0.061083686,-0.051602837,-0.04189771,-0.011299855,0.049705416,0.10198824,-0.09574987,0.086013645,0.05147913
Q9NRM7,-0.020815803,0.07019504,-0.0059891785,0.024423586,-0.03291489,0.007144161,0.06644521,0.0067974227,0.011784771,-0.023962688,0.036569286,0.0151478555,0.013956682,0.04460777,-0.010555843,0.049366616,0.014171652,-0.025477216,-0.011565552,-0.04790556,0.04968353,-0.07724265,-0.074845865,0.010442598,-0.14944406,-0.091593936,0.007430948,-0.036356956,-0.101068854,-0.0068298336,0.007425633,-0.008115094,-0.07357062,0.04790103,-0.10520375,-0.0043238597,-0.026583482,0.04016474,0.015237328,-0.039795186,0.03272792,0.08633231,-0.032671448,-0.038951192,-0.017770005,-0.03895067,-0.03940488,0.063351564,-0.012073376,-0.0039037196,0.017703198,-0.16328393,0.061753176,-0.023602553,0.036206745,0.0034215078,-0.05809895,0.0872012,-0.0072118957,0.09571039,0.029276999,-0.05286814,0.03252609,-0.014517788,0.1495338,0.025158465,-0.06507456,0.0018309545,0.048271943,0.0068136365,0.05121445,0.06226278,0.057169467,-0.0066038314,-0.02643835,0.05100628,0.040513396,0.056750055,0.03131726,-0.06361799,0.0040454525,0.019821329,-0.039305475,0.056008134,0.028540442,0.013748776,-0.033015225,-0.044357773,0.007248084,0.086788505,-0.023220863,0.06732637,0.03119986,0.016697116,0.059690762,0.022371856
Q9GZV5,-0.110522956,0.050262455,0.47349897,0.017957514,-0.06005262,-0.030180072,0.29851705,-0.016271057,-0.036327142,-0.021640344,1.0225893,0.017311234,0.13822253,-0.021792276,0.076221295,0.11754623,-0.117134824,0.08104694,-0.041797675,-0.41425842,0.069359265,-0.028462064,-0.19012943,-0.13505112,-0.350061,-0.20994797,0.09174106,0.1190899,-0.53882414,-0.15814354,0.20852296,-0.16383831,-0.10665282,0.42761502,-0.15645747,0.07070322,-0.92052627,0.12957676,0.11894806,-0.13408028,-0.061172206,0.18503495,-0.04529794,-0.14298269,0.17122859,-0.026607824,-0.1304951,0.14898722,0.07311448,-0.07179672,0.013123772,-0.2563869,0.26498434,-0.01783933,0.06749536,0.018831909,-0.1306966,0.7781675,-0.028087685,0.16365181,-0.01661281,0.13728096,0.0075641135,-0.05514789,0.60189533,0.20567238,-0.07990948,-0.023280263,0.17381568,-0.03584577,0.21313107,0.20435473,0.08407594,-0.12779257,-0.15017208,0.17422245,0.16772133,0.17062311,0.15610425,-0.19408748,-0.12778409,0.07013464,-0.24263957,0.16786073,-0.0022555017,-0.012682954,-0.13953686,-0.15816931,0.10430528,0.18661612,-0.16635914,0.10461068,0.15185553,-0.21107589,0.17177786,0.24012859
Q9H0K1,-0.015875604,-0.03381821,-0.0073096873,0.02662134,-0.08958003,-0.043602813,0.05161151,-0.0043978537,-0.024131117,0.013527359,-0.041817814,-0.036051776,0.08231457,0.017853666,-0.05179471,-0.13738982,-0.018170761,0.03581862,0.0924863,0.015326464,-0.014816785,-0.024633322,0.035824057,-0.10418988,-0.06863896,-0.03493424,0.033305515,0.035089716,-0.1042167,-0.03578468,0.069901645,-0.023202138,0.1692078,0.014487621,-0.08308372,0.026478002,-0.010463748,-0.03019027,-0.0031338476,0.049930796,-0.002171851,-0.06332666,0.033334244,0.0071390388,-0.011238434,0.009135147,0.014225498,-0.009999035,0.03187447,0.07098016,0.04996512,0.0059379064,0.006931839,0.11894372,-0.13654666,0.008682508,0.055156626,0.022147495,-0.0006804061,-0.00051046384,0.019616317,-0.036961857,-0.050762624,-0.03936693,0.06377919,-0.09720727,-0.00538518,0.045747332,0.07801589,0.0047663967,-0.029991992,0.035323154,-0.012517097,0.029753314,-0.058022752,-0.013409259,-0.02841043,-0.06824399,-0.06825742,-0.020722106,0.056079432,0.029400105,-0.019108452,0.037619997,0.029282568,-0.06617268,-0.03244457,-0.088906154,-0.09346956,0.030724168,0.035911344,0.0057638385,0.038988978,-0.07086555,0.03061391,-0.043591302
P35568,0.02188908,-0.2534847,-0.070349276,0.25288126,-0.12957841,0.19028614,0.06566426,-0.0054366044,-0.09769824,0.1777602,-0.47176337,-0.20918831,0.4474687,-0.077344604,0.018014489,-0.33250514,0.13052382,0.27008882,-0.019623077,0.22406247,0.012975704,0.31213942,0.3431036,-0.8267758,-0.5158927,-0.07734559,-0.034755565,0.33026412,-0.1217666,-0.079004265,-0.047652025,0.36583793,-0.1865392,0.21280617,-0.60019827,0.13290337,-0.107529074,-0.21215041,0.060287084,0.54438674,-0.32788184,-0.25668502,0.32181796,-0.15919945,0.07233523,0.11856841,0.2659694,0.37877432,0.06388827,0.4379394,0.29770494,-0.23452903,-0.20298983,-0.011358738,-0.26484397,0.1634753,-0.30740112,0.13892852,-0.060132105,-0.3417066,0.1732827,-0.48392296,-0.3326286,-0.3664975,0.1797803,-0.43251324,0.18703185,0.3948447,0.48134655,0.30426687,0.036154296,0.20025769,0.1290793,0.11833268,-0.30608535,0.06533131,-0.19298159,-0.27091098,-0.45884696,-0.13825615,0.22499554,0.045056768,-0.07979377,0.054101724,0.25629142,-0.5428274,0.047339663,-0.2381188,-0.37343308,-0.038458444,-0.067596786,-0.031885695,0.2851733,-0.5849368,-0.1598105,0.25827813
P17252,-0.018536385,-0.022898931,-0.008684126,-0.0021425467,-0.014694579,0.02806156,-0.006256339,-0.010596427,-0.00088124216,-0.01516866,0.017491788,-0.011994489,-0.002322042,0.0072618066,0.01317517,-0.0152658215,0.015849313,-0.007217678,-0.0029750948,-0.009797419,-0.008323492,0.0028730487,-0.017603293,-0.004715729,0.0039416784,-0.015929116,-0.012617146,0.012589621,-0.011608921,-0.018858839,0.06286574,-0.011495676,0.022721639,0.00065100007,0.013966953,0.023083247,-0.0021426287,0.0093437815,-0.005716249,-0.01514771,-0.002978295,0.0013805255,0.021875674,0.02294266,0.008126623,-0.008185525,-0.018918969,0.017264174,-0.024216693,-0.0094546005,-0.01758471,-0.0023818659,0.003370205,-0.0051947297,0.0105449585,0.0046449252,0.0037388194,-0.01276257,0.022570463,-0.0123764975,-0.0015961723,0.0009424486,0.023353407,-0.0003756489,-0.0086039975,-0.0071247285,0.014005811,0.009246962,-0.004677107,-0.034122996,0.019420015,-0.008035363,0.0013763434,0.005163713,0.01772069,0.019256962,-0.024939632,-0.013270962,-0.002690573,-0.0043662065,-0.0267778,0.003998792,-0.014415224,-0.010905562,-0.020384885,0.0049488023,0.022730334,0.0023779161,0.004283153,-0.025698092,0.0077772345,-0.010891435,-0.01852626,0.020872507,0.0064908047,-0.0049273656
P22681,0.03771265,-0.12701747,0.09752776,0.0414536,0.011744987,-0.08425605,-0.01906881,-0.20622472,-0.047417555,0.013100205,-0.04169046,0.12946461,0.09819052,0.04013269,0.036936942,-0.097487204,0.10485135,-0.08167123,-0.053861763,-0.11714767,0.093872786,0.119687535,-0.036253348,-0.03276572,-0.05302535,-0.088168584,-0.12889923,0.06431807,0.11470507,-0.05615801,0.00075716426,0.10595314,-0.04914427,0.003210704,-0.08163554,0.03808814,-0.15564288,-0.06747311,-0.050609935,0.18609223,-0.02138217,0.096555345,-0.012680654,-0.010577642,0.16105637,0.08041429,0.030236552,0.030582748,-0.001980596,-0.025511988,0.0066076987,-0.02774536,-0.12393801,-0.011038275,-0.10085835,-0.043087814,-0.011500153,0.13243319,0.025146676,-0.027436532,-0.017839503,-0.13910225,-0.10215816,0.08285166,-0.11416459,0.074700445,-0.027245142,-0.07206756,-0.1684383,0.11644342,-0.039690703,0.09292728,-0.047651548,0.06006688,-0.0060804565,0.07862425,-0.053447135,0.029972708,0.015666986,0.09602074,-0.0857939,-0.018792622,0.0052793967,0.04434453,-0.0036061518,0.05043502,0.033963945,0.028910179,-0.022981,-0.02205613,0.027429292,-0.0032465586,-0.057680182,-0.04297642,-0.07963509,0.07279101
Q96GD4,0.2334488,0.2877653,0.17020123,-0.0341979,0.23590896,-0.048588764,0.05013983,-0.04032659,0.07879643,-0.10235894,-0.16905451,-0.21311913,-0.06288087,0.35962978,0.12611507,0.16541913,0.0831674,-0.26237425,0.14075685,0.20764327,0.13286653,-0.014068249,0.14443515,0.36933765,-0.10096822,0.077805966,0.3230573,0.092879415,-0.1501926,0.07774711,-0.27039793,-0.04559965,-0.28286803,-0.106611215,-0.3099623,-0.2129013,0.10976065,0.20317149,0.16597043,0.1454136,0.30849814,0.15368304,0.13634667,-0.2604067,-0.08421151,-0.12524922,0.028583234,0.45235422,-0.29972315,0.2354982,0.13115755,-0.37970585,-0.3545692,0.1686367,-0.29163015,-0.09131751,-0.31928352,0.11132702,-0.16168098,0.0025208641,0.09924986,-0.16542709,-0.0065747085,-0.1577845,0.10228975,-0.2839272,0.37754285,0.09168631,0.51523495,-0.032512408,0.51062876,0.0075920024,0.30145612,0.42256656,0.28482857,0.0819308,0.027141618,0.31815392,-0.06563119,0.029621579,0.28264344,0.1964973,-0.08357813,0.29784647,0.083370976,-0.0058949897,0.08228162,0.04809182,-0.39351574,0.326554,0.2085,-0.074985035,-0.14584273,0.08808735,0.10214386,0.14007342
Q17R91,0.13299827,0.1768318,-0.0372126,-0.05463323,0.057538424,0.10588481,0.048160877,-0.0004749374,0.10159646,0.022372084,0.00085048564,-0.13003524,-0.17064758,0.07638123,0.13756016,0.124200724,-1.1748441,-0.47271064,0.062009614,0.12236954,0.0059596114,0.08180508,0.076634094,0.16941446,-0.003399791,-0.016698657,0.16976415,0.06450053,-0.12758067,0.08779586,0.0914206,0.08361831,-0.18097511,-0.0956135,-0.18979964,-0.12826174,0.102777734,0.10280545,0.15342705,0.031487685,-0.7961709,0.13746479,0.024174167,-0.13148767,-0.04245956,-0.11486182,-0.019930264,0.25120974,-0.21737207,0.117524475,-0.63403636,-0.16930544,-0.11211509,0.1038482,-0.5566353,-0.10703289,-0.14055952,0.17659962,-0.17409298,0.07343353,0.012689615,-0.092461266,0.06725854,0.15449066,-0.27165693,-0.111670166,0.23204589,0.07184143,0.24849589,-0.038138036,0.5298215,-0.09380192,0.09350905,0.10741229,0.15524504,-0.2853271,0.049835287,0.06396199,-0.14251173,0.045476727,0.15027748,0.16324395,0.3615107,0.17225651,0.0797242,0.3153797,-0.12507163,-0.09870609,-0.05562339,0.17089419,0.094668,0.19907093,-0.11574268,-0.042967796,0.13306049,0.065272704
Q9H4A3,0.064493224,0.0043626516,0.06434787,0.034099128,-0.02103412,0.020753816,0.040312406,0.12932909,0.004162481,-0.025567384,0.2341275,0.053159293,-0.055901714,-0.10343666,-0.16327211,-0.031154888,-0.04725912,-0.011953748,0.2610031,-0.024099752,0.086229496,-0.043095015,-0.039952796,-0.13024883,0.04762924,0.1117719,-0.03430595,-0.08204548,0.044383142,-0.009249825,0.088023596,0.010678357,0.016692506,-0.030065538,-0.005984576,-0.029446283,0.026487654,0.011140506,0.12027948,0.05659713,0.0023395545,-0.14638302,-0.024140555,-0.10066275,-0.051937893,0.034171958,0.057997793,0.11946555,-0.022451894,0.06361863,0.123316295,0.08437533,0.0030424094,0.02254441,0.07519876,0.10807423,0.006319583,0.0051691243,-0.078088105,0.0658072,0.06016847,0.034506146,0.10396724,0.029632563,0.10747334,0.021769132,-0.11189463,0.008541049,-0.13986954,0.073013425,-0.11773031,-0.026878046,-9.320289e-05,0.028144022,-0.017133944,-0.0058173994,0.14124054,-0.13342226,0.012330136,0.09571009,0.025843356,-0.11710263,-0.020115204,-0.012403936,-0.111187145,-0.05751506,0.021048736,-0.09495882,-0.037137832,-0.0016689711,-0.027759226,0.008020788,-0.012977225,-0.11502138,0.06820328,0.07313993
Q9UEW8,0.068388246,0.015772995,0.040532075,0.020379152,-0.026304496,0.07115368,0.03278737,0.15940008,0.00079658424,-0.039579622,0.0388715,-0.019691821,-0.12442444,-0.013015277,-0.06592705,-0.016971903,0.0003536715,-0.038195573,0.31584305,-0.0048982357,-0.014325715,-0.09624153,-0.027220761,-0.21732649,0.036635935,-0.049615566,0.043393888,-0.13833833,0.08688958,-0.024667125,0.10135011,-0.0034105063,0.03051661,-0.07011778,0.058507163,0.0057378733,0.0009211184,-0.042108625,0.09898201,0.09291096,-0.003804014,-0.17510869,-0.064371414,-0.09082225,-0.0400419,0.034489434,0.08459506,0.16364898,-0.0043415776,0.011235425,0.08917206,0.15414564,0.05711605,0.0881818,0.1533161,0.10194058,0.002021558,0.021170493,-0.09905538,0.06753964,0.035967156,-0.039599244,0.105432734,0.085292734,0.1597886,0.028676739,-0.053677667,0.049343813,-0.035124823,0.0832976,-0.029545592,-0.04996655,0.019640705,0.016600637,-0.014868597,-0.049528427,0.12473147,-0.09942786,-0.030091558,0.1353466,0.04427731,-0.08820191,-0.018172232,0.040584296,-0.110331126,-0.03927848,0.01693566,-0.033119675,0.093138516,-0.027379641,-0.0117183905,-0.0025482776,-0.014841588,-0.13441627,0.12567574,0.063096315
Q16539,-0.03457063,-0.1857229,-0.00883334,0.03375935,0.014221576,0.021493996,-0.07563663,0.016325856,0.007858675,0.18949923,-0.07068261,-0.042843007,0.053476375,-0.026533144,0.032258287,0.018124877,0.06774234,-0.018749556,-0.04611813,0.00027996462,0.047840223,-0.041394625,-0.07847441,-0.1606246,-0.06716293,-0.06444702,0.06477112,0.04529401,-0.011720192,-0.001787895,0.055216327,0.18762363,0.012574564,0.021914419,0.07670593,0.046753112,0.095455736,0.066767365,0.078094006,0.0042443196,0.037389874,0.08813346,0.068769865,0.0026529988,-0.057348683,0.031457733,-0.13023484,0.01862364,0.06528552,0.082041085,0.034453493,0.06481837,0.12224934,0.17138053,-0.1087132,0.050682444,-0.005646081,0.12017911,-0.04823238,0.039892524,-0.0030636063,0.023778694,-0.017119052,-0.100244984,0.018263225,0.011504655,0.06751258,0.09039746,-0.030005341,0.11001489,-0.10850002,-0.045495503,-0.013438218,-0.10378989,-0.036470234,0.12535071,-0.03545877,0.05641656,0.048874285,0.023162123,0.1602522,-0.029646836,0.04962707,-0.21897244,0.15378578,-0.13334374,-0.0075148772,0.044046734,-0.037946876,0.11187621,0.0172336,-0.047863115,-0.013381799,0.05025318,0.04455019,0.009597779
P03372,-0.39480036,0.025937676,0.09766896,0.1820872,-0.30922022,-0.07346811,-0.07982872,-0.040967427,0.38732356,0.13139133,-0.81490403,0.18074273,0.75942117,-0.5365477,0.098113015,-0.1996758,0.23814887,-0.69059503,-0.33808842,0.5933133,-0.014119192,0.049555097,0.124533035,-0.56119287,-0.21023244,-0.14828074,-0.06000104,0.28609374,0.10170256,0.019033737,0.022438282,0.28187558,0.038876552,-0.00058635086,-0.15857355,-0.10980227,-0.24256958,-0.0050234683,0.2387634,0.2244877,0.08511803,0.09797212,0.029379208,0.36335757,-0.2202047,-0.22321492,-0.009308155,0.081659846,-0.2508953,-0.086122714,0.0077006104,0.04335521,0.25025693,0.0165433,-0.070033334,-0.021135408,-0.08371639,0.29030946,-0.058333147,-0.09928025,-0.033021808,0.085611306,0.1109218,-0.2392862,0.2551032,-0.12905739,0.14698838,0.020134501,-0.95346284,0.27820024,-0.073866665,0.38405666,0.14682248,0.09079655,-0.15396588,0.055914048,0.3164631,0.37933403,1.2350612,0.6892155,0.31354228,0.20363821,0.09960706,0.0111467885,0.26875743,-0.22022542,0.2594646,-0.13350964,0.04166544,-0.18857281,0.3544448,-0.0028249868,-0.11044763,-0.022809694,-0.16972655,0.3544436
P45983,0.0052925744,-0.07401263,-0.05798518,-0.02028823,-0.018282888,-0.012906896,-0.05853889,0.09989713,0.047539067,0.097016,-0.09642619,-0.022117723,-0.032954354,-0.020626841,-0.015083772,-0.02068602,0.022995198,0.005475609,-0.060563862,-0.011097467,0.030300928,0.0380774,-0.07564486,-0.07300244,-0.056342166,-0.022027561,0.05159192,-0.034536824,-0.00027730045,0.039139997,-0.051720317,0.07309806,-0.014205793,-0.0080811,-0.0078557385,0.01193519,0.08297331,-0.0033298256,0.05653879,-0.0061871316,-0.04674634,0.06843378,0.033269268,-0.034056343,0.055043686,-0.004541034,0.011472984,-0.0036476175,0.017120773,0.076962,0.002478639,0.013469875,0.048188858,0.06663483,-0.08918125,-0.020076085,-0.037249386,0.024460215,-0.019505488,0.05529106,-0.055413205,0.019056184,-0.033791713,-0.046172276,-0.0017222051,0.010180154,-0.030464591,0.011030203,-0.06346093,0.057636984,-0.013067244,-0.0056324224,0.027414862,-0.009253539,0.008337896,0.062725775,-0.028500801,-0.022455258,0.05306825,0.04909594,0.09104021,0.028285932,0.007437344,-0.047131937,0.08845439,-0.06580972,0.011938708,0.054442313,-0.03747963,0.029975358,-0.06048642,-0.012643833,0.03735833,0.016067553,-0.05438645,0.05718391
P61978,-0.032852743,0.079711765,-0.039026022,0.00017387402,0.013392184,0.029198807,0.01413265,0.016689941,-0.018301448,0.040414367,0.0015408071,0.01884811,0.047019485,0.013140417,0.006815231,-0.007408879,-0.038746867,-0.030278062,-0.049984016,0.06990853,-0.071611755,0.033379313,0.030751469,0.023978846,-0.032394342,-0.01510447,-0.0036794392,-0.035559423,-0.00852664,0.05108154,-0.0383991,0.018853627,0.036335394,-0.026103308,0.041694906,0.041578047,0.0368306,-0.06556615,0.03172387,-0.055177893,-0.00973193,-0.0010531622,0.0065553375,0.027936267,-0.017627878,0.05193745,-0.03170743,-0.0007881728,-0.027604135,0.011040566,0.013826084,0.0312919,0.033066284,-0.04037621,0.029513368,0.04632364,0.017442264,0.08669506,-0.017695492,-0.013276519,-0.029323045,-0.0044955676,-0.056628957,-0.021598194,-0.0040025883,0.02303244,-0.01917491,0.01905628,-0.013396224,0.04553744,-0.08085448,-0.02491608,-0.004466604,0.022382183,-0.03411363,0.028424598,-0.007177205,0.038504165,0.099333115,0.03311421,-0.0073373793,-0.026426272,0.086331874,-0.0009448402,0.0075583896,-0.041667126,-0.018363757,-0.018174518,0.008461469,-0.06088832,-0.031959366,0.009787591,0.095672384,0.036363818,0.0014521478,0.031061027
P68400,0.008540825,-0.0009948986,-0.019385416,0.0110356,0.0017000082,0.109873265,-0.01842113,0.005980735,-0.024749462,0.0020310916,0.009826577,-0.03014698,0.005467426,-0.013689429,0.015560107,0.011251482,-0.023760037,-0.0031575179,-0.002389093,0.0047249864,0.0036426804,0.011212203,0.008756452,0.0023613318,-0.014051642,-0.0015581285,-0.0007899992,-0.020451626,-0.0038107703,-0.0014454173,-0.0051123635,0.008017244,-0.0028545994,-0.0047395756,-0.005415816,0.01021224,-0.006466808,0.013765599,-0.00060930214,-0.022638202,0.015473231,-0.0034034133,-0.0041280105,0.0044127703,-0.026175272,-0.017783007,0.00955605,0.005553738,0.018650625,0.007610227,-0.015614713,0.014796877,0.004465757,-0.012247267,0.0126731135,-0.0017843492,-0.00023959903,-0.02604493,-0.014194502,-0.01717777,-0.013283467,0.0018940286,0.014581554,-0.0030788288,-0.00072605105,-0.018697346,-0.015564413,-0.0020947158,-0.023622269,0.005875066,-0.02342886,0.017773077,-0.016208177,0.01766022,0.026767941,-0.0056777555,-0.011407556,-0.024830122,0.023470154,0.008487988,0.006666799,0.02285336,-0.0018752387,0.0042641596,-0.002669191,-0.0034415028,-0.02668289,0.023975171,-0.00038763112,-0.009891844,-0.021976877,0.0033194225,-0.035539,0.022343073,0.0044418676,0.009608058
P06744,-0.038735837,-0.015442789,-0.057274222,0.05291076,0.09105369,0.103063926,-0.1305126,0.13679136,0.0039276616,0.06461859,0.15490521,-0.13580169,-0.106021754,-0.11260146,0.12729657,-0.018894728,0.055190057,-0.5480316,-0.03999338,-0.08271702,-0.069720075,0.15355638,0.11829447,0.38659438,-0.1029055,-0.054483898,0.0911578,-0.06380027,0.0006070533,-0.33345652,-0.10374757,0.008529335,0.05432567,0.34806985,-0.016348444,-0.021983942,0.07103201,0.122300744,0.1242604,-0.122178055,0.054741874,0.05424923,-0.115871996,0.017554132,-0.05109315,-0.93430316,0.038055267,-0.1515186,-0.047831826,0.3555489,0.09974487,-0.030560888,0.03452732,-0.12899831,0.4508687,0.14722125,-0.19851796,0.54612494,-0.096748725,-0.021888826,-0.06760276,0.081604645,-0.117460966,0.032610655,0.1942814,-0.053129632,0.009029703,0.07064108,-0.38998038,-0.008015204,-0.046643294,0.0043573705,-0.4601861,0.029549573,0.39029956,-0.5105745,0.06433328,0.012257789,-0.00013588494,-0.0211554,0.26995033,0.06576023,0.5027596,-0.42740843,-0.09540454,0.4400859,-0.09506233,0.3677709,-0.010632697,-0.24118286,-0.119336694,-0.07120724,0.06287447,0.036504176,-0.051213667,-0.49721217
P00519,0.04792567,-0.0014422203,0.07077166,-0.03509928,-0.08601245,0.032502305,-0.079290636,-0.01941641,0.030151738,-0.03137835,-0.12774602,0.036437657,0.017475346,0.090619184,0.0196135,-0.10245116,0.09326025,-0.11357123,-0.06873972,-0.055740084,0.04509659,0.092223,-0.05246526,-0.12430363,-0.0997807,0.012412018,-0.03616287,-0.022794632,-0.061914854,0.0066000186,-0.053318456,0.06724133,0.0049651554,0.10514803,0.0326658,0.02617883,-0.006919436,-0.041175034,-0.038558997,0.047141004,0.0218681,-0.021101618,-0.023422323,-0.11194402,0.030253192,-0.014244469,0.004758286,-0.02575518,-0.01503652,-0.17686431,0.018249253,0.025992375,-0.08931163,0.013052794,-0.10103361,0.11930878,-0.08338176,0.15713385,0.0928616,0.104066886,-0.0870818,-0.0011537488,-0.09898663,0.05694526,0.062374886,-0.02249315,0.026736861,-0.011989092,-0.059186485,0.11006373,-0.06440415,-0.0062624267,0.018249424,-0.0033787428,0.04581645,0.013950782,0.008829125,0.068181984,0.1696888,0.0031368798,0.035020404,-0.038328335,-0.019462785,0.007922608,0.058966342,-0.021758549,0.084312916,-0.031698782,-0.11909383,0.018259864,-0.00940895,-0.00030520913,0.031854983,-0.036941424,-0.011194004,0.08991747
Q15118,-0.032212317,-0.08249159,0.124361,-0.017451916,-0.092380725,-0.008587729,0.12373051,-0.0042993072,-0.08188368,0.09714407,0.07253369,0.009958232,0.14198935,-0.015486782,-0.0025738906,-0.038370702,0.10298493,0.013447156,-0.08978601,-0.016677557,0.06389251,0.134814,-0.13587712,-0.15504403,-0.23275897,-0.016963417,-0.02257903,0.04636124,-0.029967904,-0.053454306,0.06379643,0.18524574,-0.087434374,0.08882088,-0.00845712,-0.13120593,0.052649036,-0.07921698,-0.049253706,0.03490919,0.023501283,-0.028996697,-0.1279015,9.719783e-05,0.06775138,0.0667103,-0.010811053,0.0081993835,0.112174585,0.069037534,0.116069555,-0.08879839,-0.0049656164,0.053496916,-0.03357016,-0.022172296,0.016750613,0.0706001,0.07920685,0.055564772,-0.058716472,0.12833992,-0.053403255,-0.04910405,0.0934625,-0.038773824,-0.044796586,-0.05204432,-0.1469118,-0.16932754,0.033650927,0.052095983,0.03341059,-0.047417287,0.015439475,-0.12946963,-0.070468076,-0.17804004,0.07148389,0.035194043,0.022363247,-0.03577939,-0.097966924,0.03311543,-0.013357475,-0.07558525,0.06015028,-0.2323972,-0.049154546,-0.018662171,-0.07115495,-0.16823564,-0.017960755,-0.10597803,-0.020019054,0.007097132
P06493,-0.05319847,-0.11623205,-0.07435904,0.055919778,-0.061762158,0.0026573457,-0.06692944,-0.0060920054,0.10326065,0.07221058,-0.110626645,-0.050609615,-0.06439644,-0.09295687,-0.14798094,0.022193247,-0.045397088,-0.029282326,-0.089517824,0.1538498,0.07805235,-0.0031422437,0.07574879,0.051229868,-0.2475618,0.08448106,0.023266567,0.039339177,-0.0024165304,-0.02304784,-0.09036543,0.10774302,0.009243411,0.04140358,-0.14347938,-0.09279286,0.02433948,0.06970538,0.10758486,-0.07608823,-0.01371622,0.038602736,-0.041759204,-0.007597649,0.05154134,0.039970327,-0.03644133,0.06965095,-0.044873063,-0.021192232,-0.010395684,-0.02741797,0.037292972,0.010866688,-0.054944206,-0.08520008,-0.08783714,0.0294406,-0.06302191,0.008273085,-0.062139295,-0.024234237,-0.12009094,-0.02105256,0.069781326,-0.038455058,-0.09924629,0.18239677,0.04222837,0.004177691,0.0989041,0.063416585,0.07029816,-0.101914376,-0.055488344,0.04466416,-0.008901104,0.075838834,0.11337417,-0.015967,0.12835322,-0.03856279,-0.16635343,0.090775006,0.1538205,-0.03540275,0.059525132,-0.07164434,-0.015348837,0.24195147,-0.066687346,-0.026539164,0.1973866,0.003475726,0.14698876,0.16751324
P50613,-0.019038497,-0.06531926,0.047216948,0.024453951,-0.012162094,0.0740766,0.009794454,0.020239824,0.014152198,0.07067639,-0.06014388,0.046138927,0.04332433,-0.067899115,0.0037299737,-0.017635033,0.058356095,-0.04548061,-0.010751523,0.013059894,-0.018287579,-0.008251091,0.01526491,-0.015559099,0.009973575,0.0064422353,-0.015601621,0.014205635,-0.011555644,-0.016402114,-0.031370573,0.044991855,0.000815108,-0.015953127,0.032948907,-0.022345109,-0.047475684,-0.006530699,0.010838468,-0.02711316,-0.004608894,0.0040470096,0.005728846,0.022237461,0.063889004,-0.027686028,-0.010955421,-0.017382178,-0.051245674,0.0086090285,0.0023759597,0.00069820357,-0.009636038,0.017335625,-0.009671909,-0.0040856935,0.0026113791,0.043170344,-0.033145122,-0.013162196,-0.0047110463,-0.0076641524,-0.006596089,0.06820638,-0.035447568,0.0770025,0.009244972,-0.01750247,0.009357792,0.005560371,-0.017800406,0.0058910474,0.015470729,-0.013576266,-0.010313112,0.017209135,-0.028157791,-0.023794426,-0.0003963092,0.051322993,0.005758118,0.5535127,0.026344804,0.003777201,-0.0370936,-0.005543634,-0.037657503,0.045150302,0.038603798,0.040337127,-0.014042754,0.022214765,0.007549103,0.036911912,-0.012624881,0.037565514
P49841,-0.19464006,0.13928571,-0.2069052,0.061203897,0.04595061,0.18439162,0.16871808,0.1984961,-0.11009571,0.31463578,-0.08604654,0.15431143,0.24586344,0.019994605,-0.08615495,-0.074421234,-0.22193176,-0.10531486,-0.23477289,0.3290041,-0.27999806,0.15991852,0.16372551,0.11813893,-0.1448053,-0.04884647,-0.007992804,-0.15563141,-0.092236206,0.2782077,-0.26823017,0.16644888,0.114790045,-0.068260334,0.08569207,0.19645695,0.2487787,-0.32931522,0.20164935,-0.26600054,0.05676953,-0.0025170974,0.09120981,0.10706647,-0.06572438,0.30079776,-0.1633675,0.052483525,-0.17691042,0.05607627,0.12737271,-0.12748274,0.09294946,-0.22637555,0.067496,0.31167984,0.04148916,0.45919085,-0.1135539,0.0061350586,-0.14680247,-0.099524066,-0.36435628,-0.20444618,0.012801258,0.09786396,-0.16612487,0.13828959,-0.07713849,0.23909025,-0.28556922,-0.14031933,0.031740833,0.02842386,-0.114460975,0.16118857,-0.13126397,0.21890658,0.6093381,0.058973316,-0.043173816,-0.0050086468,0.40405232,0.10630671,0.14293431,-0.22319551,-0.06413594,-0.14470068,-0.09344146,-0.26229617,-0.07012995,0.13069683,0.47005984,0.13674986,-0.015346368,0.16106519
Q02156,-0.04355524,-0.05324716,-0.033302214,0.032899052,-0.053607676,-0.03028946,0.008007622,-0.037364215,-0.18096128,0.03485028,-0.06287933,-0.014425122,0.009842391,-0.011885167,-0.030442866,-0.022940591,0.016426753,-0.049491428,-0.021744898,0.005019321,0.007990217,-0.0007968316,0.014551635,-0.0025730364,-0.030028515,-0.018119069,-0.033892468,-0.010238117,-0.031931072,-0.014184408,0.053925198,-0.0068599973,0.006375312,-0.004625751,0.021272954,0.014371215,0.03232479,-0.07574186,0.059955902,0.016756503,0.026073543,0.011506262,0.020389592,-0.008172239,0.017168904,0.011180459,-0.012501157,-0.028227512,-0.036592614,-0.06328881,0.048680473,0.014459726,-0.17597663,0.015642084,-0.0063773827,-0.0058303066,0.0076665534,0.057942495,-0.0038186917,0.0011717578,0.018700862,-0.01270251,-0.04128829,-0.0295716,-0.011999151,0.030256456,-0.003344032,0.005018325,-0.0012475707,0.023096345,0.009788369,0.032951407,-0.032531414,-0.025950149,0.055692643,-0.0059567387,-0.06559517,-0.03871438,0.003468163,-0.016004924,-0.0068091196,-0.029088046,0.0015654098,-0.023955166,0.034436982,-0.03336496,-0.0031433576,-0.022150239,0.02904409,-0.021185799,-0.016801458,-0.015964404,-0.026616883,0.040143877,-0.042390157,0.031122798
P49137,-0.028872473,-0.033490535,0.024625696,-0.0030831671,0.0020661228,0.034947567,-0.023413831,0.010996059,0.027972875,-0.0127241565,-0.013710981,-0.036548045,0.012033765,-0.022009004,0.0086677745,-0.0004210336,0.041344874,0.027295657,-0.01195882,0.044023294,-0.0024080724,0.0070372685,-0.003950625,-0.0021912456,-0.043340374,-0.01100496,0.014117441,0.026909087,0.015156894,0.030825375,0.003429349,0.026700608,0.013334608,0.018459043,-0.024237195,-0.01921286,0.0068468777,-0.055874966,0.0024449718,0.0120354155,0.020583672,-0.019970143,-0.029780073,-0.0043394472,0.016919125,0.04791893,-0.028946105,-0.019191884,0.030977989,0.0014047358,0.05875934,0.02134717,0.011192093,0.041477576,-0.0125112645,0.008004853,-0.02545583,-0.029865365,0.016538396,-0.031938188,-0.030609543,0.0043068314,0.05621652,0.021011783,0.006808325,-0.016323956,0.0006052807,0.0027149774,-0.046970375,-0.0084069325,-0.015880896,0.0122683365,0.023218388,0.017427333,0.018567076,-0.0117582455,0.01759556,-0.011431348,-0.026816536,0.035261992,0.017399387,0.052401394,0.03157125,0.00810951,0.0103072375,-0.033196263,0.04790055,-0.013791837,-0.00022802157,-0.010354407,0.005519615,-0.0026034482,-0.012151448,0.006349795,-0.026756793,-0.014095526
P07101,0.057458863,0.14701813,-0.031470086,-0.012316367,0.14382319,0.3173545,-0.1528395,0.08475223,0.18440656,-0.016290465,0.076911226,0.020356782,-0.15457213,0.08960157,-0.04288139,0.059421375,-0.45058966,0.0024485015,-0.025332687,0.020316685,-0.055334445,0.012181002,0.03321328,-1.1769615,-0.0073242597,0.029538382,0.040008355,0.09231747,0.016002323,-0.047188736,-0.0009501927,-0.052824493,0.03159039,-0.06346172,0.034013286,0.11445857,0.013069148,0.09476759,-0.061088055,0.014103941,-0.057610806,-0.08692587,-0.40669754,0.04337882,0.06610791,0.17236015,-0.14712828,0.12630218,-0.09372109,0.007954498,-0.05888643,0.07510101,-0.037637573,0.032558423,-0.012174639,0.61454564,-0.39241216,-0.078852415,0.61827403,-0.1595202,0.004481778,0.41065738,0.14098638,-0.114080206,0.09944609,0.24120161,0.072596855,0.025623623,-0.17974101,0.06313729,0.014051778,-0.065641515,-0.053013563,0.03655788,-0.0077180024,-0.13353936,0.05002025,-0.018080685,-0.096591085,-0.0063070585,1.1320385,-0.0006219045,0.1502503,-0.1650626,-0.06379358,0.05642243,0.045144577,0.02969081,0.14265355,0.09621879,-0.30671522,-0.23513806,-0.12710589,0.008525074,-0.024690928,-0.15654163
P08631,0.050593507,-0.05638468,0.051621504,-0.064876385,-0.14525747,-0.024401225,-0.0090940995,-0.033078697,0.018534869,0.0064865276,-0.023306075,0.029059192,-0.0025054826,-0.0013935646,0.15665603,0.013829513,0.05022794,-0.018844541,-0.14457776,-0.038960695,0.023899637,0.0022216286,-0.04387378,-0.05061936,-0.017930675,-0.040505424,-0.06212404,0.03359542,0.023452464,-0.041774455,-0.025362201,0.0546618,0.0003412482,0.019780677,-0.033496294,-0.012790724,-0.0021944954,0.01684819,-0.060509562,0.071115136,-0.07917706,-0.026273917,-0.061013836,-0.00876098,0.04562327,-0.06745893,-0.0371982,-0.07536513,-0.016136924,-0.034595683,-0.034151,0.013407601,-0.09995919,-0.013143615,-0.0812763,-0.055438798,-0.0118390275,0.047620434,-0.035586357,0.009307272,-0.021594336,-0.07806301,-0.03600157,0.035243526,-0.015638588,0.008869369,-0.011728716,-0.034897756,-0.03625277,0.010200248,-0.034948267,0.029177492,-0.019259864,0.009110908,0.029663563,0.04711969,-0.004861519,-0.0416574,0.073299825,0.00664849,0.0031429266,-0.013692903,-0.014129327,0.0094290115,-0.0089708185,0.040248897,-0.02702795,-0.020352585,0.04306681,0.045733333,0.0062473807,-0.024179148,-0.071144536,0.10188659,-0.03281626,0.01622875
P11274,0.027029265,-0.076526955,-0.09285682,0.06360712,-0.16146922,0.009053306,-0.054461487,-0.016216775,0.04389915,0.09479409,0.13134623,0.052604236,0.054802984,-0.026277458,-0.012729899,0.06688692,0.026973074,0.023571974,-0.08535227,0.013721322,0.0110451365,0.044614878,0.04281787,-0.03870527,-0.033018436,-0.014767959,0.043658733,-0.042649873,-0.03633666,0.072131865,-0.051729303,0.037399523,0.17529073,0.038542252,0.008030314,-0.03969765,0.037960272,0.06083231,-0.03208706,-0.051806793,0.026370551,-0.0022790087,0.019983444,-0.09037426,0.15922108,0.056850635,0.2919607,0.008597137,-0.09978833,-0.034969933,-0.017215258,0.054858457,-0.012746723,0.056185752,-0.05740637,0.013759018,-0.16159075,0.039625056,-0.08375716,0.059454914,0.059241384,-0.098449014,-0.039472412,0.06493877,-0.025942044,-0.08007842,-0.098187976,0.020297956,-0.05722961,-0.057044532,0.014759467,-0.08344917,-0.013908283,-0.05623157,0.05891086,0.020286141,0.03346155,0.16213799,0.0073306104,-0.06021661,0.03344106,0.06307179,0.012483379,-0.010310618,-0.039057247,-0.02241817,0.049509075,0.046211507,-0.0017196577,0.00338921,0.027095823,0.05402258,0.038650922,-0.109440915,-0.05407238,0.048456624
P17612,-0.008289241,-0.0047238166,-0.023087583,-0.0023017966,-0.013983439,-0.06354479,0.0105306255,-0.009124672,0.02606056,0.0073695495,0.010044114,-0.009859871,0.023626873,-0.015199076,0.029195245,-0.0044150325,0.0145621225,-0.008014617,-0.018890925,-0.018580884,0.0025378398,-0.0008396176,0.009194401,-0.0076301284,-0.009287633,0.0046106563,-0.02322795,-0.0029041406,-0.016969861,-0.002518421,0.012109398,0.0018790996,-0.0034295071,-0.018833254,0.009397648,0.018166736,0.021894075,-0.0035422863,-0.014693862,0.0005880469,-0.020656887,-0.013020585,0.011320883,0.010321163,-0.011981024,-0.0004923658,0.006472722,-0.00012575692,0.0110395085,0.012355116,0.0046934644,-0.007125656,0.020363897,0.0159577,0.009197201,0.0024797395,0.023428345,-0.030245682,0.0373885,0.0073967674,0.003961836,0.00028779736,8.965564e-05,-0.0075760884,-0.011120369,0.01371239,0.0021002735,0.010770354,-0.034793064,0.01111005,-0.015752858,0.0047453973,0.009288516,0.011831985,-0.011723258,0.009383701,0.000278423,-0.017683288,-0.0063030142,-0.0035313675,-0.003027882,-0.009998824,0.020336132,0.005295057,-0.014866161,-0.011779243,-0.020373825,0.002063559,0.014580258,-0.019399023,0.012006228,-0.006951543,0.01756468,0.0004724168,0.0032541894,-0.01571217
Q9UBL0,-0.0822038,0.05762624,0.009899903,-0.084647894,0.014406035,0.08701828,0.022014674,-0.30488217,0.060625758,-0.40329602,0.059214696,-0.39754704,0.21582563,0.48435333,0.009355432,-0.0561279,-0.03743546,-0.22640607,-0.00054077234,-0.00988779,-0.09478421,0.12358857,-0.0059965756,0.06597932,-0.022434162,-0.6564281,0.107435934,-0.06921303,-0.100482926,0.05489994,0.056992553,-0.029692894,-0.042806637,0.015424682,0.0053370716,0.121987864,0.01033074,-0.010892463,0.037133127,0.12756036,-0.03302581,-0.094668664,-0.034649972,0.28206432,-0.017479073,0.046795845,-0.10430902,-0.08123413,0.020401593,-0.06087984,-0.5692145,-0.04316614,0.026819972,-0.058249902,-0.0351741,0.04167939,-0.0035248317,-0.30850112,-0.02552609,-0.039292052,-0.084562145,0.24890041,-0.6561531,0.044352453,0.08985279,0.004327397,0.03675684,0.041014004,-0.12503089,0.03775481,0.45294434,-0.07343352,-0.06364952,-0.003644091,0.08457338,-0.43173385,0.04318864,0.0062346384,0.17640464,-0.0024065846,0.008774273,0.021166094,-0.09628661,0.056063373,0.07967232,-0.12872174,-0.029560644,0.7945776,1.0888562,0.09253973,-0.09636561,-0.021897117,-0.075331025,-0.07862527,0.09852946,0.049728088
O43524,-0.1045193,-0.17926988,0.06208187,0.07759845,-0.11952195,-0.11610206,0.012167053,0.11095206,0.024138445,0.2162115,0.074300125,-0.10540025,-0.021264631,-0.029416515,-0.48088938,-0.17704123,0.28661942,0.110903904,-0.116851,-0.106288835,0.46799377,0.3870975,-0.32525104,-0.10963618,-0.0473563,0.0469271,-0.18428122,-0.068000354,-0.06560006,-0.08136968,-0.08439336,1.2811254,-0.22047283,0.18570209,0.0066951416,-0.18087369,-0.054844588,-0.08129677,-0.14154443,-0.62370753,0.057313986,0.14012231,0.15358137,-0.2104656,-0.1838276,-0.30002,0.17517918,0.19594283,0.03156426,0.23672651,0.063075095,-0.028836023,-0.035751626,0.17121658,-0.07491605,0.074460655,-0.17884627,0.19740446,1.2212224,0.16949783,-0.004245529,0.15523073,-0.18253314,-0.048866794,0.33277422,0.013775895,-0.14050546,-0.12989965,-0.68292737,-0.04013041,0.30529723,0.12679797,0.032701764,0.14987437,-0.12572941,0.20568591,-0.14489074,0.22623017,0.19451141,0.24448262,-0.022170251,-0.0037332787,-0.05394603,-0.029805886,-0.0025941539,-0.06989672,-0.03922837,-0.13177013,0.06317668,-0.045262154,-0.14534354,-0.16995986,0.101192504,0.06869742,0.0819077,0.19271107
Q13627,-0.031138713,-0.020345436,-0.016540451,-0.033034883,-0.0062307855,-0.004355754,0.021940127,-0.005912206,-0.0019213666,0.051098924,-0.038393058,0.033723902,0.04820076,0.000244803,-0.0038662443,-0.01604655,0.02318379,0.031803157,0.0024260497,0.015879571,0.021573178,0.059694644,-0.03960494,-0.024524372,-0.05090683,-0.0117942775,-0.030185044,-0.006464496,0.034921907,-0.03251634,-0.003344597,0.0298683,-0.04885999,-0.002890555,-0.020842602,-0.0011483999,0.020168738,0.020028833,0.021758698,-0.006259439,0.0018383855,0.057290193,0.035368137,-0.014804391,0.020724898,0.014069943,-0.038602326,0.013463022,0.011429791,-0.04760586,0.011286622,-0.017585626,-0.004574651,0.02279307,-0.025446173,0.045649186,0.0048340736,0.060477577,0.026157804,0.035742395,0.0043294006,0.007801534,-0.0068968693,-0.0017003105,-0.00022851955,-0.0034483944,0.008412148,0.009549711,-0.040396743,0.018134035,-0.0070653884,-0.020772347,0.01934763,-0.032116387,-0.02283214,0.017595313,-0.038141597,-0.00013485776,0.071956165,-0.009432932,-0.02445677,-0.023886869,0.0709015,0.008065825,0.054275576,-0.029749142,-0.007225561,-0.011368452,0.0358795,-0.062668115,-0.017089471,-0.019919368,0.07186131,0.03026805,-0.031654213,0.0030978166
O14965,-0.04210109,0.00440369,0.01606582,0.031384416,-0.029755013,-0.08485546,-0.041183356,0.015173073,0.04802781,-0.058017265,0.05169868,-0.05440174,-0.024342787,-0.0011796935,0.036469325,-0.026274497,-0.001229515,-0.0018753973,-0.0014145139,0.025130257,-0.025765786,-0.021996042,0.034439802,-0.002161295,0.03509158,-0.083680995,0.034152713,0.00917703,-0.03804219,0.039893575,0.0014487297,0.04855135,-0.02179255,-0.03301112,-0.051525325,-0.015641926,-0.019704891,0.07864598,0.10137321,0.022749241,0.09261541,0.032317318,0.036064718,0.011013723,0.08371706,-0.03842864,-0.0264997,0.02732684,-0.05545404,0.0333052,0.10478081,-0.06726213,-0.024235645,0.013150458,-0.042756725,-0.016969893,-0.048727717,0.06727712,0.009069646,-0.004435571,-0.015012324,0.01003075,0.01723701,-0.030338122,-0.0022587301,0.0150867775,0.020946259,-0.038759727,0.020111402,-0.011384478,0.06712174,-8.416588e-05,0.062343743,-0.020580772,-0.012218817,-0.027618093,-0.052459437,0.03379328,0.00036648606,0.017200885,0.055943843,0.06724164,-0.04123051,0.05096784,0.042053048,-0.007612838,-0.013667285,-0.04993592,0.0078403875,-0.045362398,0.01254469,-0.010244399,0.013375126,0.044875436,0.02831666,0.03431248
P24941,-0.0014945869,0.023364294,-0.0058980742,-0.045372304,-0.021122118,-0.010638711,0.039922792,-0.01732843,-0.015887983,0.06233298,0.011930431,-0.016005402,0.02000768,-0.025102813,0.03646241,0.07016203,-0.032130446,-0.028611055,-0.0008093907,0.026929537,0.023437126,0.0229239,0.011992224,0.023234949,0.0032916046,0.039703768,-0.009272246,-0.01131833,0.02177716,-0.008322,0.0028768526,-0.0054315426,0.006823489,-0.027016558,-0.003033149,-0.03049937,0.010250747,0.02846231,0.035845708,-0.04794649,0.03620312,-0.011910977,-0.037147027,0.04314021,0.010549499,-0.0072686197,-0.043093264,-0.036703207,-0.008631692,0.006452437,-0.016297048,0.014589633,-0.019438438,0.021773996,-0.0002133484,-0.04458131,-0.008119936,-0.069538936,0.018925441,0.030785142,0.0029558586,0.04544826,-0.019703437,-0.053297184,-0.051276896,0.017879374,0.012323052,0.050030172,0.012393722,0.005304987,-0.02240539,0.025684582,-0.039184496,-0.015502569,-0.007270791,-0.033078764,-0.024738856,0.01788537,0.069402605,-0.036849808,0.013666168,-0.0010879802,-0.041201893,-0.015768804,-0.031761765,-0.019680118,0.023937756,0.026046641,0.040840365,0.049999543,-0.028561777,-0.004519703,0.03408988,-0.028225468,0.0028975604,0.056176048
Q71UM5,-0.06371568,-0.029543156,0.036560547,-0.049959023,-0.036174547,0.043605223,0.037467856,-0.07896523,-0.0522815,-0.047337,0.04969356,-1.0730989,-0.0052736048,0.012186596,-0.07922899,0.040715557,-0.117396444,0.035000574,-0.045029018,0.6750048,0.0049573705,0.03390939,-0.0358244,-0.013090195,0.09604759,-0.043774538,-0.020791436,-0.06890946,0.0110375155,0.0091134235,0.0913207,0.057906765,0.15426269,-0.038214773,0.09814008,-0.1037103,-0.10711671,1.1276764,-0.14023463,0.056713857,-0.081174046,0.020509962,-0.03062855,0.06814864,-0.12692231,-0.043074522,-0.29087588,-0.28732714,0.08580745,-0.026679404,0.005927753,0.12563655,0.1308569,0.053341508,-0.001188232,0.24248137,-0.08645764,0.00635675,0.088109285,0.44835088,0.07021337,-0.070846,0.11092627,0.011182519,-0.04417676,0.08365707,0.08019791,-0.006476651,-0.08367605,-0.029026216,-0.002694476,0.046038795,-0.17395358,0.11457022,-0.043492656,0.071382254,-0.47713912,-0.058260996,-0.1627522,0.11551604,-0.087243445,0.27769783,0.0031382542,-0.08812097,-0.15079068,0.028568763,-0.086677216,0.09865118,0.076117046,-0.1192082,-0.113624975,-0.006019695,-0.13901334,-0.7577679,-0.13415068,0.015856469
Q13164,-0.21571822,-0.066005826,0.024328541,0.27722365,-0.013309851,-0.0065654176,-0.06381665,-0.1105037,0.63874537,-0.0016416805,-0.13007016,0.015691929,0.051157795,-0.14742997,-0.035654757,0.020556824,-0.003113152,-0.15452196,-0.04879245,0.11866259,0.112647474,-0.08700287,-0.0094172,-0.16514026,-0.067650884,-0.090218596,-0.021731647,0.09416351,0.0727784,-0.08082483,0.0917314,0.22154008,0.18440922,0.07991924,-0.012127335,-0.13301569,-0.04880555,0.03249535,0.089438,-0.10246573,0.017957749,-0.03787032,0.05346716,0.1605797,-0.0020870944,-0.052566238,-0.014674311,-0.14689088,-0.040256362,0.035136122,0.01192836,-0.013576634,0.15205947,0.28878617,-0.16932808,0.03717611,0.050566517,0.16633989,-0.09108797,-0.026635643,-0.05169848,0.081425354,0.030713074,-0.07836551,0.029342655,-0.04047599,-0.012489033,0.031231336,-0.05644047,0.043104757,0.0038915123,0.07343639,0.15739897,0.06939575,-0.054057598,-0.002966938,0.07645779,0.0528392,0.20754248,0.02335852,0.10477449,-0.021420557,-0.09972182,-0.15840378,-0.0029082661,-0.11243133,0.09254014,0.020584999,0.0011046644,-0.014287966,-0.19730477,0.020267926,-0.01748848,0.023761382,0.12648033,0.018152202
Q02078,-0.12786822,-0.06511285,0.12730645,0.30867153,0.07873208,-0.09893768,-0.0047965012,-0.1190175,0.4862503,-0.44630262,-0.10729804,0.10844367,0.10424851,0.09543676,0.008834151,-0.04030735,-0.21088521,-0.07067945,0.041663483,0.10464508,-0.59250885,-0.09694739,-0.08317737,-0.080021486,-0.04283615,-0.8080405,-0.11123737,0.18393527,0.019326737,-0.2360945,0.18849778,-0.005437451,0.6574541,0.04477237,0.3169692,-0.12067113,-0.07410511,0.07305361,0.07240588,-0.5868629,-0.008687753,-0.047642674,0.21366668,0.34673992,0.07949073,0.009943674,-0.18233535,-0.22098938,0.028891217,0.33479208,-0.117744446,-0.3712248,0.3606959,0.683575,-0.18502937,-0.047647104,0.096770026,0.21565981,-0.11576707,-0.0106073115,-0.09010147,0.18246293,0.024999192,0.45950222,0.14872894,0.055867635,0.001336351,0.044695854,0.1102078,0.17571393,0.018598529,-0.4043451,0.20515591,0.064677574,-0.0014369496,-0.12110393,0.097743675,0.009153897,0.1455284,-0.043817896,0.035314213,-0.046131186,-0.046481937,-0.2181038,-0.03129023,-0.014139348,0.3105429,0.10506745,-0.2880153,-0.008970774,-0.23794979,0.28293565,-0.13102712,-0.028704768,0.10271009,0.02119492
P38432,0.40720722,-0.42499855,-0.092230685,0.15014552,0.077462666,-0.052313384,-0.040769413,0.11777198,0.1078121,0.043379176,0.13179898,-0.04887439,-0.10987919,-0.06244167,-0.13780881,-0.10992526,-0.024915347,0.027704325,0.16744265,-0.07347008,0.10627531,-0.57508004,-0.016478026,0.04601506,0.04448507,0.085610606,-0.09183221,0.13623294,-0.0111668045,0.17564994,-0.08730381,-0.030996116,0.12510888,-1.197843,0.37784865,0.14301418,0.07719132,0.025279127,0.029973874,0.014571235,-0.042075396,-0.11637201,-0.21058974,0.044426963,-0.1054754,-0.06514779,0.05229603,-0.29860047,-0.067186914,-0.08529208,0.10380666,0.1261934,0.043319322,-0.36322746,-0.8438159,-0.04347397,-0.058711104,-0.079886064,0.034963533,0.0045678783,-0.67201895,0.13785966,0.1535473,0.016912283,-0.5890405,0.05024665,0.014205733,0.12738122,0.02989238,0.11806542,0.16618483,0.010861636,-0.09496238,0.054162677,-0.028860286,0.24464022,0.02131937,0.13038497,0.14509226,-0.08471005,-0.03530346,0.10962147,-0.08844436,-0.010352402,0.009048916,0.04308909,0.5134565,0.033143878,0.1480984,-0.045983363,0.12425337,-0.20315588,0.0350199,0.06700329,-0.13431667,-0.023812175
Q14896,0.005580928,0.028401064,-0.028844316,-0.022961415,-0.058531553,-0.0050544613,0.08161209,-0.014270295,0.0016427855,0.03501655,0.013542184,0.118573494,0.08793426,-0.013417549,-0.13237506,-0.090732805,-0.09687857,-0.064304136,-0.12743151,0.016250607,-0.10515824,0.032494493,0.016702276,0.07109501,0.71607333,-0.043794688,-0.048749514,-0.0739604,0.053227816,0.11677535,0.0046210606,0.008457581,0.12821376,0.04190675,0.055579044,0.001244323,0.031944253,-0.18181773,-0.029337479,-0.07248689,-0.027638076,0.12286889,0.02991569,-0.022393096,0.009442517,0.06687452,-0.038613994,0.45932308,-0.038202677,0.007735705,0.1468175,0.033509213,0.03498556,-0.1003471,0.79015154,0.03835744,0.04622065,0.13125451,0.09711433,-0.032111745,-0.037282817,-0.082210846,-0.02470742,-0.079710335,-0.020343175,0.09946514,-0.0034469615,-0.12076687,-0.09374792,-0.031119559,-0.17163084,-0.042122513,-0.017016599,-0.04663482,0.017926125,-0.01556068,-0.101295725,0.029608684,0.1134444,0.05517555,0.86647224,0.35752776,0.17164351,-0.16517797,1.3170563,0.062833026,-0.6777026,0.028528899,-0.0054660724,-0.15531309,-0.016740901,-0.013322615,0.048978485,-0.009371141,-0.03802712,0.1504347
O95747,0.046987057,0.038153414,0.06505146,0.032895315,-0.02659572,0.045359075,0.06451181,0.10465772,-0.027926134,-0.03907085,0.073802345,0.00040856618,-0.047679707,0.013985027,-0.15109394,-0.049776085,-0.07437832,-0.04545589,0.1507537,-0.0140561825,-0.035327274,0.031011483,-0.034723498,-0.16649236,0.02306103,-0.031667773,0.03902264,-0.06291068,0.09248156,0.037903782,0.058332738,0.0042545404,0.037666373,-0.025644474,0.028444048,-0.023336655,-0.024375975,-0.038540684,0.04341974,0.060611274,-0.024849491,-0.11431232,-0.031545784,-0.11000554,-0.04245689,0.027884511,0.057689328,0.08837232,-0.011718502,-0.02952095,0.1474203,-0.0020676858,0.049767327,0.07815274,0.008254451,0.110023566,-0.00770515,-0.03124713,-0.07883771,0.056985766,0.0325631,0.06997351,0.106268466,-0.001265548,0.12098548,0.05187478,-0.15477733,-0.00039568127,-0.17196779,0.0974213,-0.046857815,-0.012366166,-0.016783921,0.013934796,0.0057905186,-0.11959266,0.09117231,-0.092884816,-0.008228062,0.06859367,0.021048876,-0.071184315,-0.023108453,0.0354395,-0.16125986,-0.053551886,0.048179694,-0.029904291,0.010514378,0.007509518,-0.027893633,-0.003335747,-0.02770884,-0.12630129,0.06911303,0.053986557
Q9UGP5,-0.031400327,0.14741433,0.054985333,0.10573599,0.19000722,-0.0582556,0.48969352,-0.6603209,-0.08097415,1.4136151,0.010153438,-0.06321171,-0.09400855,0.08707186,-0.0054024784,-0.0066992617,0.08468299,0.032528933,-0.022097563,-0.05556374,0.24871582,-0.13422094,-0.026544359,0.084183134,0.13162625,0.08508663,0.04790711,-0.00659633,0.12698424,-0.0342072,0.018383393,-0.1415124,0.027131174,0.014054859,-0.042039424,0.069960326,-0.10618964,0.2190348,-0.09114032,0.057971288,0.06393859,-0.03966538,0.1360796,-0.13722268,0.021748545,-0.110561445,-0.35829186,-0.14575107,0.15597068,-0.08381024,-0.06578767,-0.02459204,0.17637467,-0.12111228,-0.17839502,-0.16248608,0.11572893,-0.09583897,0.09260775,-0.037478413,0.07051162,0.0860361,0.24369921,0.13843359,-0.1393598,0.01541511,-0.19840068,0.097881526,-0.21438578,0.060092285,0.12706788,0.48171696,-0.0014268183,-0.0166994,0.03102961,-0.059578843,-0.047980975,-0.53476864,-0.18202081,0.06494786,0.3620421,-0.15812135,-0.093015894,0.5743928,-0.14974186,-0.14699939,0.10355802,0.011442075,0.035901234,-0.09169639,-0.05170176,-0.04052307,-0.12892324,-0.0013654807,0.0577523,-0.019075742
P46937,-0.003681168,-0.00806092,0.078867786,0.034692444,-0.04446495,0.019593645,0.1732946,-0.058565546,0.0034609959,-0.026736006,-0.07047982,0.014048484,-0.0029634908,-0.029320093,0.031666916,0.0647951,0.0073292404,-0.044626713,-0.03852318,-0.107417576,-0.00022206614,-0.103393465,-0.12559794,-0.08326297,-0.13446315,-0.3627578,-0.025102943,-0.08561547,-0.1738116,0.10630488,0.0059293434,0.04203046,-0.062363666,0.08534316,-0.17033292,-0.007105195,-0.04007873,-0.05303532,-0.038211457,-0.053533643,-0.023626687,0.33093366,-0.22663319,0.15186402,0.08964448,-0.20169984,-0.042251658,0.09112611,-0.07442983,-0.0122303665,0.2443473,-0.24264273,0.12843373,0.015829094,0.086271375,0.016435413,-0.006034963,0.089299075,0.11763686,0.12898476,0.11495332,-0.031593077,0.11085114,-0.0037955393,0.3377268,-0.081951156,-0.15949275,0.094446056,0.038054615,-0.105095014,0.055200648,0.14759126,-0.111879356,-0.074717775,-0.16125995,0.10591221,0.05018696,0.03528411,-0.04102207,-0.11330486,-0.06794968,-0.03360455,-0.09613517,0.034354243,-0.034867242,0.066167854,-0.082724564,-0.021917732,-0.051839538,0.23118187,-0.04370552,0.1352332,0.014287515,0.037378423,0.18049708,0.026462704
Q9UII2,0.076488234,-0.09091504,-0.04129468,-0.013515845,0.0897255,-0.06003727,1.1379273,0.046060637,0.04124638,-0.18473573,0.061597243,0.103373155,0.064962976,-0.0024253158,0.018341172,0.053759355,0.65241545,-0.007018981,-0.08001189,-0.102595426,0.21816099,0.0079710195,-0.053013608,0.058350775,0.010963776,-0.050680213,-0.054660063,-0.519592,0.41770354,-0.009691735,-0.11379971,0.0067350594,-0.0012065729,-0.087053515,-0.03484863,0.075653434,-0.091259494,0.3733038,-0.045320254,0.12726244,-0.0609326,0.08928454,0.10782046,0.056069113,0.078050725,0.07115584,0.0033588975,0.3998326,0.8377716,-0.1039059,-0.057764158,0.048239518,0.12727195,0.06736461,-0.13937683,-0.03104603,0.0021267754,-0.067006424,0.06869711,-0.0804507,0.04994415,0.0687672,-0.057087284,-0.010127436,0.036495846,-0.2625961,0.114026755,-0.009667096,0.3395133,-0.07108174,-0.06476033,-0.04556367,-0.012991759,-0.13433518,-0.004239441,-0.069316186,0.084073216,-0.03585011,-0.02932376,-0.047687206,-0.105615295,-0.2241391,-0.0027820554,0.009298966,0.798729,0.263584,-0.03427894,0.02870805,0.11488607,-0.16888224,-0.068870895,-0.088838324,-0.07458013,-0.29383743,0.042408835,-0.058284316
Q13371,0.3147948,-0.14332284,0.020016728,0.020815099,1.2745004,0.05003383,-0.10892918,-0.05913294,-0.1179437,-0.092113204,0.44195506,0.2085028,-0.0009833754,0.057489656,0.0479512,-0.05459626,-0.15506881,0.113160565,0.05887493,-0.0069921655,-0.03303635,-0.0366248,-0.12891808,-0.038724598,-0.017852677,-0.037313346,0.302247,-0.09060891,0.1490128,0.065557115,0.030684562,0.025010703,0.20761351,-0.1015791,0.02829746,-0.07417085,-0.046036325,0.10263436,0.012680433,-0.09268962,-0.009328075,0.011512719,0.040907484,0.007849347,0.2745136,0.055242103,0.26167297,-0.033761,0.06368528,0.0774759,-0.014550522,0.05013474,0.028900472,-0.9249755,0.055809673,0.03935652,-0.030388724,-0.09620801,0.052479472,0.07551875,0.00069119694,-0.20782614,-0.10045491,-0.64120084,-0.074263714,-0.035998162,-0.15537089,0.04373753,0.36872187,0.15292123,-0.118931934,0.12308643,-0.119435646,0.0072855055,0.015810845,-0.0141286645,0.03639758,-0.048467197,0.09081563,0.13138649,-0.028055115,-0.5985696,0.07751529,-0.119020045,-0.0017281141,0.37538254,-0.17533037,-0.11853529,0.062798865,0.28688824,0.09698293,-0.011830308,-0.1369885,0.058840778,0.01701531,0.016168445
Q9BZL6,0.020967355,-0.19636177,-0.18960041,0.05772169,-0.041959774,0.07619086,0.082100436,-0.039842125,0.16208056,-0.10197124,0.16254853,0.066431485,0.020362178,0.2141778,0.038721304,-0.037035167,-0.042559385,-0.016600074,-0.10199824,-0.026204145,-0.10171814,-0.13580212,-0.019851286,0.034409456,0.012332656,0.013999397,-0.1142737,0.025310008,-0.17171235,-0.13738617,0.015166904,-0.034676038,-0.011442759,0.05722598,-0.054592274,0.11158383,-3.4936995e-05,0.04887864,-0.043074887,-0.09156143,-0.027992133,-0.115234025,0.2573572,0.03291424,-0.04229048,-0.29833132,-0.12982279,-0.059558973,0.03811799,-0.14751421,0.11989285,0.07814014,-0.17755312,0.04977469,0.041429933,-0.055450536,-0.022263521,0.024508072,-0.046226244,0.12311487,0.07444567,0.12657945,0.07700787,0.00961373,0.11182779,0.05104048,0.07426678,-0.038841512,-0.23526262,0.06365644,0.2677411,-0.048069127,0.014706417,0.09427615,0.12380075,0.057610232,0.045461904,0.15304343,-0.021878313,8.765555e-05,-0.0515599,-0.037438482,-0.08014799,-0.09974643,0.021870507,0.040969156,0.123636164,0.01719502,-0.021173213,0.052075487,-0.18534303,-0.20062271,0.06009752,0.023004,-0.035742596,0.076976515
P27361,-0.05305129,-0.033182193,-0.0056043454,0.03701748,-0.029691324,0.03232938,0.0063473736,0.021575678,0.014127078,0.099301316,-0.08080737,-0.04613861,-0.013672396,-0.06085866,0.0061960416,-0.02373461,0.06342386,-0.034315776,-0.07111294,0.036157347,0.0018318589,0.061813217,0.009045895,-0.10334036,-0.06526805,0.014028415,-0.0060411002,0.016207967,0.0021839845,0.01274102,0.032324,0.096788324,0.031725768,0.07709157,-0.0325922,0.017900031,0.025846671,0.007607688,0.083524495,-0.02819982,-0.05278892,-0.004250235,0.035172235,0.075030364,-0.0044125253,0.020177905,-0.0094956355,0.035358287,0.033882868,0.026987001,0.0191434,0.029822111,-0.013983805,0.008705307,-0.07226865,0.07919973,-0.011825343,0.036759075,0.0036178355,-0.018968925,0.0039783865,0.017653784,-0.017313372,-0.035347633,-0.007255362,-0.032883953,0.022927228,0.054547753,-0.022443008,0.04354986,-0.017080268,0.0024593873,0.0016518799,0.0008420283,0.0035262473,0.004424512,-0.06746658,-0.054835822,0.022355383,-0.03252087,0.09147861,-0.010392147,0.018311273,-0.015552097,0.042622145,-0.11573715,-0.029839754,0.026556982,-0.056635782,0.0063081365,0.01179989,-0.05769934,0.05752269,0.011867559,-0.04897436,0.041985914
Q969V6,0.035260428,0.026251333,-0.050976984,-0.063303545,0.092777245,-0.005937985,-0.30496973,-0.06386243,-0.043499492,-0.24155164,0.10283338,-0.16120845,-0.11267815,-0.38290954,-0.008944487,0.01594648,-0.059785638,-0.0019570852,-0.002923322,0.097047016,-0.022710524,-0.091584496,-0.034549866,0.06677979,0.022731766,0.009420675,0.32630625,0.022012157,0.014438874,0.5661328,0.043388393,-0.13082647,0.08761652,0.049262106,0.026781334,0.028940154,-0.0695462,-0.4292261,0.0045380057,0.12349831,-0.28947568,-0.10419678,-0.07161225,0.11296173,0.07820253,-0.07375958,0.034508843,-0.10557792,0.14486586,0.29525074,0.15748207,0.5987174,-0.011398984,-0.036344998,0.12691045,0.17220582,0.047092013,-0.028063677,0.34808865,-0.00060485164,-0.06293392,0.043261405,0.04404496,0.037670538,-0.14763074,0.057742823,-0.049312122,0.093856834,0.0895248,-0.05342696,0.24274161,0.54949373,1.4477323,0.05659999,0.19893262,-0.05432507,0.024082987,-0.026067894,-0.032575984,0.14378047,0.49761468,-0.029605009,0.12219825,-0.054616008,-0.12520836,0.03762045,-0.017798193,0.123242676,0.079881735,-0.16993523,0.0399133,-0.11169433,-0.12718475,-0.048459854,-0.053315926,-0.04505815
Q16832,-0.1400373,0.0314621,-0.1243666,0.06643499,-0.00441415,0.007036809,0.09570345,0.048683785,-0.007889982,-0.37075078,0.03345172,0.12050032,0.0034065368,-0.3110593,-0.056165103,0.044388585,0.08679289,0.1687255,-0.0022524397,0.028476689,-0.08995471,-0.01795236,0.007571369,-0.09075801,-0.08264797,-0.096780196,0.10030024,-0.10341448,-0.07722962,0.22932714,0.017806586,-0.0072025037,-0.0055662454,0.065202385,-0.09135069,0.048979316,-0.035797853,-0.024287065,0.104142174,-0.103225484,-0.036148567,0.023297364,-0.013350078,0.39596438,0.14660004,0.42235878,-0.054540496,-0.019284876,-0.13003154,0.03919496,-0.01088441,-0.14760144,0.14060366,0.052349012,0.45450255,0.112263076,-0.10882638,-0.07330338,-0.009248514,-1.0583951,0.0033510586,-0.13585748,0.31129876,-0.027633704,0.27010223,-0.046423536,-0.035421167,0.14133821,-0.11820993,-0.0452841,-0.056983337,0.057864733,0.77283907,0.05905769,-0.044186015,0.078721926,0.0067432965,-0.052851666,-0.1907522,0.10361172,-0.06502907,0.31207526,0.12175821,-0.027840413,0.049539495,0.7836469,-0.037625626,-0.28026193,0.019901313,0.031406637,-0.035434823,-0.02525303,-0.86262506,-0.06923359,-0.053528436,0.04544809
Q92547,-0.02163584,-0.021070775,-0.12784606,0.015661908,-0.08957996,0.029753996,-0.043917432,0.13031898,0.061963867,0.078431524,-0.00870544,0.028772712,-0.0055534816,-0.01814848,0.024113335,0.038400117,-0.0020372642,0.034589935,-0.0646664,-0.0033994154,-0.04865628,0.034443513,-0.079152174,-0.008164322,-0.007836587,-0.06528615,0.011612643,-0.010233202,0.024597608,0.08181334,-0.021678533,-0.03263504,-0.058371674,-0.043027095,-0.06560257,-0.013031572,0.010913237,-0.014290426,0.034968536,0.003872035,0.022467578,0.0024702752,-0.044477843,-0.026344402,0.013410252,0.0658514,-0.03745416,-0.008629645,-0.050691977,0.002052849,-0.011754998,-0.011617103,-0.034944862,0.052339632,-0.015013279,0.04035462,-0.05241209,-0.046519183,-0.014539549,0.04246645,-0.03786735,0.021442505,-0.020599391,0.0383296,0.0030328217,-0.008720544,-0.0032382626,0.005217773,-0.0061344346,-0.03896593,-0.010337963,-0.056867544,0.04576791,-0.056316525,0.019597342,0.063277066,0.020047994,0.105733335,0.061610404,-0.06601941,0.05980803,0.0017855371,0.015205999,-0.008513505,0.013697162,-0.019919463,0.03301705,-0.024511797,-0.0212635,-0.0020581582,-0.090830475,0.043354973,0.013159621,-0.06741889,-0.0024414537,0.024386525
O14757,0.016079899,0.02662928,-0.03433962,-0.061363954,-0.0009261129,-0.049274772,-0.05537701,-0.0029061385,0.00046824937,-0.013098735,-0.018648319,-0.0031455422,-0.04819485,-0.045929994,-0.043136474,0.029797565,-0.008164151,-0.053687286,-0.0708197,-0.03544922,0.010020944,-0.026917038,-0.050728384,0.04240668,0.0077567804,-0.054068275,0.010351115,0.012494803,0.008790249,0.014009296,-0.04640154,0.052465163,-0.047422238,-0.0734253,-0.070902266,-0.050848067,-0.037085913,0.03065022,0.021482645,0.0025737903,0.056525074,-0.012641755,0.015884973,0.0135700945,-0.038036577,0.039796535,-0.054668196,0.023436919,-0.006484505,-0.010400959,0.02573165,0.015640028,-0.03262673,-0.01943799,0.006584715,-0.0075144297,-0.047084328,-0.027250834,0.005745293,0.06937522,0.017080922,0.00087995676,0.049879644,0.06310439,-0.015112638,0.08669012,0.04843163,0.026302228,-0.06344635,-0.01959795,0.072576255,0.028040892,0.007011233,0.033340406,-0.016002782,-0.03605615,0.0020462002,0.061520606,-0.0002222844,-0.0318876,0.008481547,-0.0019786141,0.012102479,0.055036798,0.026345808,0.025313472,-0.006235588,-0.027081903,-0.025315365,0.0652578,-0.04697369,0.066980064,0.019287694,0.09780201,0.014040036,0.061725657
Q12789,-0.04739587,-0.022641093,0.0010458638,0.1471817,-0.64080215,-0.1140789,0.03998268,-0.10792505,0.120212585,0.09912474,0.1567979,-0.043430045,-0.03922855,-0.25149116,-0.60113376,-0.0036297424,0.007825503,0.042612396,0.034787584,0.05242639,0.0149482535,0.5243099,0.05434247,0.086817764,0.14622223,0.08435389,-0.07431441,0.12742206,0.014895959,-0.080949515,0.050886396,0.009228556,0.03776347,-0.15174684,0.06848135,-0.13854682,-0.00049407384,-0.037730135,-0.13260064,0.07213187,0.2714351,-0.066804476,0.14959557,0.084434755,-0.25067088,-0.026578771,1.4280728,-0.12960729,-0.245889,0.28190756,-0.052882608,0.01077593,0.08581185,-0.05921443,0.14042483,-0.13215032,-0.01556408,0.061841782,-0.046027064,0.033428486,0.13755374,0.0784353,0.11437665,-0.061421003,0.5948204,0.080289334,0.009828941,0.08477591,0.10124316,-0.1208147,0.040119242,0.028890358,-0.32511583,0.059965648,-0.04188161,-0.068558596,0.10242765,0.39025727,-0.06971446,-0.039466385,0.034914676,0.027927747,0.05163574,0.08217964,-0.026703976,0.08528767,-0.060376987,-0.4257446,0.13653733,-0.1148493,-0.12454923,0.062137853,0.17250592,0.1339638,0.04077131,-0.015867837
O14920,0.049997617,-0.16868667,-0.0069519733,0.033186752,-0.07922441,-0.0014093083,-0.12575313,0.123869784,-0.0663553,-0.016475242,0.13241856,0.043011613,0.0009698311,-0.105053835,-0.08074548,-0.030426377,0.10911897,0.09550232,-0.09034664,0.072620474,-0.022266455,0.13637522,0.03869977,-0.11581612,-0.10113002,0.11159007,-0.102934755,-0.10963786,-0.03882692,0.009413312,0.021239012,0.080145836,-0.06698615,0.09536402,-0.096456505,-0.032940563,-0.117539175,-0.07374225,-0.17494453,-0.027696026,0.19135219,0.049741834,0.0075649074,-0.19018243,-0.025581252,0.03133719,-0.015419104,0.08323541,0.06879437,0.08859071,-0.0010849736,0.014886828,-0.091077,-0.053924944,-0.124828,0.06451824,-0.18544942,0.0618273,-0.0076497104,0.107465036,-0.089150675,-0.023997802,-0.078949,0.0347006,0.11615631,0.088537045,0.0939345,0.025154147,-0.0060411496,0.03217341,-0.12192666,0.058104172,0.037949253,0.030960178,-0.09271491,0.031903613,0.027533073,0.053420853,0.043579888,0.12834464,0.048331294,0.008633609,0.053667597,-0.01888688,0.0052743936,-0.14759676,0.08257529,-0.097182944,0.17309451,-0.067146026,-0.116636954,-0.070344985,0.15131894,0.03716519,-0.02203967,0.026203271
Q99704,0.12288905,-0.23436661,0.29509994,0.16189876,-0.44613895,-0.2518924,0.010479009,0.022665922,0.1782046,-0.23134238,-0.071766086,0.26990682,0.0197335,-0.020556832,0.050240625,0.04274876,0.08714482,-0.19425161,-0.09756295,-0.0945294,0.111980416,0.21030797,-0.16971448,-0.065495186,-0.08657266,-0.1207399,-0.23346455,-0.12939893,-0.0055745402,-0.02101017,-0.57572764,-0.07787213,0.04009464,0.10221423,0.11804755,-0.0036802478,-0.011218155,-0.1315615,-1.2310833,0.17788832,0.091607235,-0.0016141201,-0.12481108,-0.22746521,-0.08868832,-0.057038832,0.17715757,0.15153736,0.09762629,-0.051528417,-0.09111268,0.013736856,-0.09070114,-0.011034156,-0.17924881,0.3252302,-0.13752995,0.2800756,-0.052585855,-0.07345693,-0.9534856,-0.0719322,0.12859479,-0.12140157,0.10174157,0.18936937,0.22005345,-0.08605891,-0.060784142,-0.058409598,-0.66477484,-0.11393141,-0.10322101,-0.06709199,0.19229177,-0.4222959,0.0042072856,-0.07911887,0.20162381,0.032296807,0.0821301,-0.60738057,0.08246073,0.10760963,-0.034707922,0.38011298,0.038631685,-0.14565085,-0.17983171,0.01283029,-0.24932596,-0.10788703,-0.18605939,0.26991764,0.010502452,0.2947994
Q6PGQ7,0.006615133,0.02380582,0.010526145,0.017614152,-0.006317371,-0.023699544,-0.015657602,0.07033934,0.013400544,-0.026599128,-0.043910682,-0.037172597,-0.013674472,0.06631326,0.064508535,-0.043400273,-0.07204102,-0.017151238,0.034272943,0.061956905,0.018192548,-0.020405576,0.088084824,0.07048457,-0.10164285,0.028040757,0.018868392,0.01159035,0.029635053,0.10144704,-0.06635749,0.040388983,-0.052045684,0.00076799653,-0.081999905,-0.0019288184,-0.0077899816,0.04291366,0.040657114,0.013373871,0.035668213,0.0580918,-0.047151536,-0.08336186,-0.080236405,-0.049374994,0.0019767436,0.0780876,0.018488707,0.06794975,-0.07177409,-0.0932156,-0.05602358,-0.02561103,-0.05922399,0.042954456,-0.037959978,0.0031984255,-0.03536411,-0.014952304,0.011664045,-0.055555504,-0.008525251,-0.049365245,0.029628005,-0.011136477,-0.0658281,-0.053985015,0.030660404,-0.00013746438,0.07219329,-0.044620328,0.11735464,-0.02755799,-0.07850839,-0.020118393,-0.048874192,0.028843815,0.056873966,-0.010482407,0.080615066,-0.038488507,-0.0046702963,0.024830157,0.081581876,-0.012563507,0.09166585,-0.09234092,-0.033561166,0.07116145,0.06655773,0.027076786,-0.014603589,-0.05324396,0.0064512007,0.09721715
Q05655,0.017879162,-0.0160344,0.035225946,0.030550733,-0.048480302,-0.018977785,0.028550701,-0.033259295,-0.03737449,-0.010375671,-0.019779699,0.008602125,0.009368844,-0.01605975,0.042165764,-0.035404377,0.05795996,-0.020099243,-0.033207826,-0.02282078,-0.0047983523,0.025391735,0.01096102,-0.047001086,-0.004857695,-0.058585636,0.017945444,0.010808967,0.006971388,0.026519056,0.009263853,0.006248726,-0.004347879,0.056163114,0.0050866883,0.016633274,0.017581811,-0.03319219,0.0446347,0.044207983,-0.021886388,-0.02379225,-0.0036056372,-0.0075662103,0.033594612,-0.017420253,-0.017404772,0.047152422,0.0057935375,-0.030878043,-0.0011579914,-0.021621855,-0.05331077,0.021830885,-0.02179285,-0.09342647,-0.045438122,-0.0010567589,-0.00053524255,0.016980315,0.029713035,-0.023669437,-0.045775086,-0.025182838,-0.07165292,0.029370131,0.024387883,-0.030839987,-0.07114257,0.018235603,-0.032265324,-0.018697541,-0.01791086,-0.01222642,0.0050427057,0.03384799,-0.009980624,-0.045970127,0.016002448,0.042303335,-0.007175418,-0.014987742,0.009887132,-0.029640356,0.0002491672,-0.008685077,-0.0090409005,-0.0327536,0.0022130145,-0.039207686,-0.0046867738,-0.03159622,0.012627808,0.020011641,-0.018851828,0.010128463
P49023,0.092917584,0.0031508876,0.15470622,-0.048449032,-0.09933031,-0.03363332,0.05897554,-0.1439879,-0.06799367,0.0039419625,-0.06694813,0.040734265,-0.023166895,0.079166815,-0.008504858,-0.11336778,-0.017059417,-0.013980924,-0.12108601,-0.008222899,0.08557327,0.19898805,-0.12691145,0.08756147,-0.038901348,0.034224384,-0.1316536,0.00046371148,0.15499517,0.011858187,0.17716777,-0.06076964,0.027531061,0.096926786,-0.049620405,-0.093859464,0.0126479175,-0.17353429,-0.015609801,0.25062072,0.019579707,-0.012607405,-0.06482954,0.050651632,-0.039923973,-0.035209022,0.04869582,0.046887547,0.0021247743,0.07368777,0.007711137,0.013072612,-0.16271116,-0.010553176,-0.26378262,0.119869776,-0.042183705,0.11683813,-0.047209766,-0.09404115,-0.10681173,-0.111495286,-0.0059511145,-0.08176859,0.047294162,0.14926673,-0.03734097,-0.057249404,-0.09507034,0.16688196,0.016993843,-0.15176198,-0.0776297,-0.08385511,0.1791164,0.032212116,-0.0027418886,-0.033358037,-0.0060894634,0.040929098,-0.0075505516,-0.109372556,0.022093445,-0.08295868,-0.020400496,0.20855464,0.00491238,0.18758532,-0.16135825,0.10505477,0.0851928,-0.04613923,-0.24436119,0.021777745,-0.25246403,0.095145814
Q15717,0.18217473,-0.021517057,-0.005111828,-0.10322516,0.03942742,-0.03429609,-0.09826197,0.13281968,-0.30281922,-0.08059414,1.3964591,-0.15382884,0.11784645,-0.053019747,0.06757551,0.010422626,-0.10544994,0.48084658,-0.08457438,-0.21818724,0.0006442594,0.1290084,-0.00032078527,0.019854523,-0.16670585,0.24918199,0.087098934,0.37244344,-0.005643743,-0.521021,-0.5176396,0.03760075,-0.05163174,-0.24211305,0.05602822,-0.067450106,-0.017294733,0.13323574,0.23946615,0.17412895,-0.019554893,0.11770982,-0.030057112,-0.023000713,0.1148213,-0.3636426,-0.20812857,0.041517846,0.016988963,-0.15260895,-0.01094191,0.18953113,0.0760801,0.38628477,-0.16657424,-0.3213208,-0.45426783,0.1028951,-0.12452412,0.01677285,-0.058082856,-0.005115404,0.09827494,-0.08173793,-0.79647917,0.05256798,-0.0589071,0.13586587,-0.13601677,-0.010826577,0.20389092,-0.064776495,-0.022855911,-0.14546254,0.07023307,0.0042620376,-0.041111678,0.08957159,0.18379253,0.040807858,0.0957132,0.05277936,-0.14548191,-0.099862285,-0.014484014,-0.004546374,-0.01853829,0.05919597,-0.03816825,0.17063707,-0.008077089,-0.05429304,0.07093304,0.11392927,-0.03400927,0.13521138
P45985,-0.014227628,-0.09338948,-0.0739824,0.04594501,-0.0019355457,-0.026948962,-0.19412668,0.08942865,0.09048637,0.14799029,-0.15711893,0.04375243,0.0318776,-0.09100308,-0.01388576,-0.010828273,0.08535105,0.042076726,-0.0051668677,0.015214169,0.030491928,0.040343538,-0.10014265,-0.17461345,-0.10527111,-0.12371487,0.116735674,-0.020784982,0.06969875,-0.017257052,-0.06862406,0.1802199,-0.08143581,0.027594632,0.065562665,-0.074852124,0.10576982,0.047228884,0.09958475,-0.04991693,0.021658687,0.09847453,0.18934752,-0.043424904,0.038902503,-0.04863426,0.018405218,-0.035828628,0.03067881,0.04934389,-0.04432847,0.001996076,0.13376753,0.202587,-0.11213262,0.04954455,-0.02627894,0.07455438,-0.14325067,-0.037021704,-0.048529953,-0.01627649,0.04841391,-0.09340056,0.052717824,0.0018142393,-0.04169375,0.074138254,-0.07667905,0.070098445,0.040050812,-0.039322283,0.04643016,0.010497983,-0.03196301,0.04638688,-0.0216453,0.057638243,0.13789016,0.035911515,0.16074602,-0.059990264,0.015825395,-0.18557008,0.12332587,-0.19583742,0.014006857,0.054451004,-0.019477751,0.0505607,-0.17551632,0.077878006,0.13088877,-0.018769734,-0.0143925715,0.04299734
O00141,-0.042333335,-0.11722071,-0.046958935,0.05341875,-0.060190104,0.036872577,-0.048664544,0.040362816,-0.03780193,0.037760906,-0.053333294,-0.029641777,0.07929948,-0.06381818,-0.09628516,-0.053885974,0.051397014,0.021235956,0.00027006664,0.047563247,0.051339734,0.0101484815,-0.012257899,-0.06558439,-0.030053314,-0.0028407986,-0.02029611,-0.03347493,-0.00022080679,-0.10612157,0.0019453246,0.11587614,-0.13220225,0.047527187,0.047707878,-0.08172908,0.12336262,0.03727167,0.016604066,-0.102801025,0.05528294,-0.0004867966,0.097718686,-0.040733088,0.020448476,0.020016646,-0.049835403,0.005780887,0.018930968,0.09951723,0.09909312,-0.03780833,0.061722837,0.011743925,0.004449101,0.11841951,0.037922792,0.025909461,0.06473722,0.075057425,0.032595713,0.010069672,-0.0062173093,0.0024019901,0.05471308,-0.028030043,-0.0586698,0.0046276115,-0.14637396,0.091944285,-0.03550941,-0.003408397,0.041760698,-0.06604958,-0.067199275,0.07778206,0.052702736,-0.03929458,0.09968679,-0.01645642,0.0013971605,-0.017785352,0.14284576,-0.02284884,-0.008638206,-0.12220364,0.008019931,-0.054798473,0.0642468,-0.008250666,-0.25921923,0.015332654,0.06246169,0.0040613106,0.0029599126,0.10577219
Q92542,0.057661824,-0.002348778,-0.10420846,0.07927648,0.017956598,-0.06630694,-0.038491208,0.0049144113,-0.14886941,-0.059772924,-0.037635285,-0.7165076,0.15607114,0.0001997429,-0.0984332,0.05777799,-0.06978768,-0.0030441263,-0.0031599347,0.4335459,0.053473417,-0.11762904,-0.005394774,-0.04953301,0.10677875,0.035575394,-0.006869608,0.057678547,-0.24440597,-0.052513044,-0.05345939,0.09146306,-0.099195264,-0.006264425,0.117348485,-0.06656968,0.2909306,-0.030457757,0.050638836,0.038742967,0.07301485,0.033140033,0.15762125,0.012378482,-0.03300031,-0.42230666,-0.0461727,0.0013885826,-0.0131224,-0.10499392,0.42600426,0.03052586,-0.020414254,0.061984815,-0.0067607663,0.06697734,0.081498876,0.013835461,0.8879374,-0.05876322,0.09896894,-0.04055296,-0.07306296,0.12540446,-0.057498015,-0.079775736,0.016543219,-0.11830163,-0.10567995,0.3587683,-0.02625188,-0.0046629524,0.10757326,-1.1388661,-0.40866572,-0.24149077,-0.16033983,-0.06626074,-0.119023204,-0.075232595,-0.12550367,0.05169,0.3975984,-0.046212714,0.013568711,0.15859137,0.3331315,-0.7192939,-0.10430017,-0.077105284,0.024527634,-0.07207495,0.013885036,-0.1085643,-0.011873534,-0.05085387
P11362,0.14910387,-0.0842671,-0.093362466,-0.016471155,-0.012562219,0.090334475,0.15859187,-0.107769646,-0.06728817,0.0007679132,-0.111104995,0.031154104,-0.048003096,0.104431584,-0.1320832,-0.09288308,0.060517233,-0.024329485,-0.15690728,0.02643439,0.073545456,-0.12426721,-0.23469687,-0.030239036,-0.10863336,0.012452017,-0.09815423,-0.0940188,0.023574408,-0.1116352,0.107003845,-0.035069693,-0.031189766,0.21786971,0.0114787,-0.04793229,0.01563429,-0.023081657,-0.08270161,0.14337097,0.05382997,-0.009950492,-0.14411893,0.032046355,-0.03793054,-0.08146771,0.020773185,0.028389929,0.030534865,0.03836138,9.60936e-05,0.18331893,-0.15849988,-0.049049564,-0.17157064,0.019240098,0.0018587919,0.07941132,-0.06871647,-0.07659574,0.069045894,0.009016939,0.01610329,-0.04557335,0.11345353,0.10630557,-0.0050491006,0.05261151,-0.0674388,0.120172985,0.03631301,0.0014141286,0.017870774,-0.09486696,0.052865066,-0.07291723,-0.13617292,0.045797773,-0.020966828,0.055201434,0.015109923,-0.016722266,-0.15223707,-0.12908104,0.04459872,0.03080024,0.073498875,0.042859923,-0.10963283,0.11822684,-0.00020158445,-0.12814897,-0.13343687,-0.043579057,-0.1591566,-0.12992863
Q13554,0.04433488,-0.00012468857,-0.060955547,0.032966837,-0.039369453,0.059140485,-0.06332133,-0.019150244,0.018776812,0.034054805,-0.0021210094,0.023348484,0.024361385,-0.0479048,-0.025564248,-0.041259542,0.009377937,0.014949195,-0.009772462,0.042941578,-0.023619806,-0.030110465,-0.05200599,-0.05835286,-0.012919196,0.09105302,0.06299574,-0.054665785,-0.031485923,-0.0056101657,0.039223786,0.07763045,-0.041830283,0.02508408,0.073637426,-0.02482161,-0.01724593,-0.0049559684,-0.05305597,0.002955638,0.02248148,-0.01715545,0.0111702075,0.065819815,0.047144502,-0.021498516,-0.013877486,-0.007515638,0.01246858,-0.0068324925,-0.010935061,0.04176977,-0.10121029,0.024874106,-0.037508093,0.008154923,0.008366195,-0.021809783,-0.034726854,0.009946298,-0.0044628847,0.06460049,-0.025541158,-0.036936637,-0.021887923,-0.0674171,-0.011659723,0.04307046,-0.0019279682,-0.014171955,-0.11125393,0.07382884,0.07827653,-0.05268798,-0.021527074,0.050206978,0.026067587,0.054529395,0.011717373,0.026170388,0.01114756,-0.05157681,-0.011240673,-0.052242268,-0.01416119,-0.033204544,0.019780142,-0.04687149,0.045159563,0.035103142,-0.081088945,0.06436718,0.04773256,0.07097855,-0.05654454,0.043590423
P25098,0.023742376,0.002158588,-0.043875337,0.015574398,-0.009467079,0.011935305,-0.023187822,-0.019949375,-0.018936392,-0.031785965,-0.024175316,-0.038635477,0.0042084795,0.02165293,-0.028531509,-0.015349078,0.068706244,-0.050087217,0.054765023,0.03875843,0.03768653,0.077252075,-0.016020834,-0.0042899493,-0.05912801,0.045668025,0.047596265,0.059236463,0.027377525,0.009631611,0.037631787,-0.023653349,0.0054073064,0.06369241,-0.030765431,0.027362686,0.0004923502,0.026824072,0.059584167,-0.0120821595,-0.08033062,0.030595161,-0.027414665,0.009269688,-0.035800025,0.10077566,0.030209666,-0.020284511,0.06901958,-0.08942803,-0.06679763,0.05837457,0.028776364,0.0965042,-0.001802033,0.02651991,-0.007661883,-0.072023064,0.000936044,-0.036794294,0.072927594,0.027283791,-0.021777868,-0.006501483,-0.014429836,0.058067046,0.06515207,-0.03994135,0.01057072,0.11758998,0.004224948,-0.050302494,-0.012324092,-0.0070708096,0.020960726,0.016404338,-0.032032102,-0.060502972,-0.07298968,-0.014174578,-0.08226925,0.011187265,-0.060102973,-0.027923731,0.060940973,-0.022029433,-0.037199758,-0.040633738,-0.008129734,-0.0016389108,0.03487642,-0.0023843092,-0.020228669,-0.027136773,-0.025247797,0.039084885
P41143,0.024660956,-0.47199765,-0.05927072,-0.11869655,0.45058537,0.004043199,-0.098742805,-0.0393374,-0.14150146,-0.13095924,-0.3435883,-0.07583494,0.19920129,-0.17771578,-0.042022754,0.062152006,0.050363358,-0.061714776,-0.06047153,0.06265849,-0.2579319,-0.054814797,0.039661948,0.008602426,0.06851366,0.23859082,-0.025343025,0.10970033,-0.10153308,0.12783161,0.03319589,-0.34180516,0.13723253,0.06252749,0.18375012,0.10461053,0.13575509,-0.27434722,0.25737187,-0.15241182,-0.20456403,-0.11018257,-0.055845898,0.06307355,0.28508353,0.35653865,0.08202839,0.45201325,0.11852315,-0.124393426,-1.3033718,0.015861722,0.007668509,0.20106362,0.1203802,-0.0188122,0.01745643,-0.0818983,0.052282326,-0.10413262,0.06692983,-0.038919725,-0.29323804,-0.65336025,0.12660316,0.08756456,0.44360226,0.0019288335,-0.03362905,-0.026493154,0.04953076,-0.13519,0.32276356,-0.20256269,0.0075160097,0.0356927,-0.30222082,-0.1695645,-0.1306038,-0.12779368,-0.20202689,-0.16290334,-0.056403745,-0.042168185,0.363169,-0.0042088064,-0.05541528,0.053714614,0.09235545,-0.07193486,0.13236159,-0.33832365,-0.11170585,0.07408302,-0.054366983,-0.08146722
Q9UNZ2,-0.18571223,-0.079338744,-0.21772395,-0.048076183,-0.09626256,0.07943394,-0.06027973,-0.007944336,0.037773196,-0.089312114,-0.023516627,-0.07465695,0.065235965,0.053997055,0.6801495,-0.1577569,-0.14946567,-0.19121045,-0.1115644,0.08187833,0.06963167,-0.012127943,0.01763711,0.16261141,0.6228457,0.09633233,0.65892833,0.099916324,0.42009494,-0.60391396,0.056017835,-0.0565903,0.008541925,1.0846503,0.082890935,0.049891874,-0.025236154,-0.005990769,0.014724749,-0.06318523,-0.09951542,0.042205222,0.16717172,0.042149253,-0.05290428,0.06343652,-0.01346881,0.075408004,0.07336591,0.049273774,-0.10377141,0.24377161,0.039709322,0.024428014,-0.09922338,-0.07577837,-0.20634417,0.043191895,0.050754588,-0.013549251,-0.033211436,-0.019052064,0.088111326,0.6986157,0.15699303,0.03468718,0.6213118,0.004656885,0.1653962,-0.15619653,-0.07385258,0.046621487,0.10829369,-0.040448394,-0.10808051,-0.05565443,-0.04729091,0.1208815,-0.23552537,0.026141478,0.06719694,-0.090513736,-0.006538626,0.08888381,0.05825912,0.028927268,-0.0882283,-0.0783578,0.33364803,0.057994094,-0.070607305,-0.0690338,0.0173568,-0.058098212,0.013724486,0.16468962
Q9BR76,-0.08643623,0.03947112,0.056572914,-0.009216601,0.17663187,0.3367027,-0.071918026,-0.51127505,0.25670126,0.052101016,0.014575648,-0.58315986,-0.2271903,0.05132032,-0.027138643,0.021082131,-0.31360075,-0.047802024,0.04366893,-0.10687068,-0.35855088,-0.03516439,-0.11562399,-0.037553176,-0.078862496,0.004664311,0.033197716,-0.039930213,0.05059866,0.0147993965,0.13039276,0.07471316,0.11813518,0.063924566,0.09400641,0.07396665,-0.32000265,-0.16080527,-0.10506564,-0.012849968,-0.076164074,-0.1298403,-0.029245552,0.09119546,-0.13250856,0.08167503,-0.042692907,-0.05746411,-0.3983774,-0.59325606,-0.05802919,-0.07380236,-0.15345532,0.04631137,-0.300847,-0.03657097,0.03896142,0.027672347,-0.002385744,-0.13817766,-0.03290411,0.1326954,0.082014866,-0.07965524,-0.08471437,-1.0846889,-0.0776339,0.02585815,-0.0516272,-0.07017365,-0.02031275,0.09576925,-0.14615785,-0.07671801,0.18926895,0.099560186,0.060418867,0.10706316,-0.06533586,-0.42820898,-0.12499692,0.76384753,0.07732447,0.31880713,-0.056651466,0.5523481,-0.07287618,0.07089662,0.31312537,-0.124181114,0.095406584,0.06373394,0.065443836,0.07985696,-0.0073048063,-0.120328724
Q13535,0.038522035,0.16306366,-0.13398384,-0.20262234,-0.037080847,-0.030107401,-0.12200364,0.07614621,0.076074526,0.31354344,0.05120861,-0.12653543,0.034620225,-0.10926816,0.035049513,0.05446664,0.031507548,0.03472707,0.029145345,-0.016981145,-0.2559516,-0.05721833,0.01228303,-0.013152992,-0.044737116,-0.007606276,0.01838736,0.24547641,0.05865444,0.006419757,-0.06935538,0.070785806,-0.070029944,-0.18184772,-0.048480902,-0.14221251,0.008618828,-0.09073875,-0.08977446,0.016214995,-0.085885696,0.116506726,-0.12435726,-0.044975758,0.027593927,0.06360137,-0.011418505,0.110626265,-0.00045558906,-0.029075542,0.10783324,0.012619255,-0.13115832,-0.072881244,-0.032910537,-0.05351709,-0.10112617,-0.1949909,-0.06699445,9.804704e-05,-0.02329159,0.048683267,0.020662175,0.03979009,0.014210792,-0.088208474,0.053792853,-0.045114998,0.04503177,0.024719369,0.034813732,0.06710855,0.046654724,0.05999576,-0.013738151,-0.0005743125,0.03461988,0.06850973,0.08051977,0.03212823,0.04552051,0.06424618,0.12495081,0.040707882,0.085084714,-0.009913683,0.059907906,-0.04717723,-0.055089146,0.06523287,-0.18235886,0.015103843,-0.017026829,-0.028477365,-0.174858,0.042474672
Q8TAQ2,0.030696586,0.06554618,0.03616311,0.00899235,-0.024582773,-0.042503975,0.10143587,0.18750133,-0.017381825,0.025541492,0.5193126,-0.026152117,0.9780572,-0.053367462,-0.085086174,0.0113454005,0.37202302,-0.036454227,-0.03431544,-0.036510777,-0.14584701,-0.35146776,0.051121227,0.018674439,-0.012995464,0.036625773,0.011154412,0.10635924,0.121131174,0.057281006,-0.3162627,-0.04970998,-0.046845768,-0.076937184,-0.3710583,0.026283871,0.080537,0.03569129,0.0519453,0.21558136,-0.018345159,0.09402218,0.029824479,-0.017496351,-0.050756,0.028249536,0.06591021,-0.037795622,-0.107664965,0.06907532,0.2870193,-0.09889184,0.013921576,-0.047247242,0.42276886,0.1109721,-0.0600844,-0.17287247,-0.015408153,0.030204097,0.57593215,0.051350582,-0.05746222,0.007063751,0.10589694,0.04590257,0.07013623,-0.042760443,0.10312642,0.07139001,-0.12735394,0.036170922,-0.03716738,0.21591777,0.020852566,-0.0034452332,0.042552266,-0.03405825,0.021778716,1.2722708,-0.026975885,0.2744347,0.1121227,-0.022931624,0.20606075,0.09637606,0.103615835,-0.03526195,0.06320756,-0.089364946,-0.2797025,0.03157992,-0.4141332,-0.11234057,-0.11950302,0.020782277
Q14103,-0.06560106,0.04849889,-0.029283475,-0.01422479,0.009071074,0.4226389,-0.029811747,0.14446239,-0.11914296,0.050958566,0.13016877,0.08091804,-0.008441847,-0.049695846,-0.13615389,-0.038865563,-0.1670793,-0.034649562,-0.14389895,0.05293617,-0.116919145,0.035459984,-0.35488477,-0.05504226,0.05188765,0.13055207,0.00612189,-0.10919958,0.002659583,0.08969298,0.059803095,0.06246685,0.14564711,-0.027584428,0.09470116,0.19230913,0.09773561,-0.10431985,-0.045663368,-0.07411982,0.5879245,0.01585402,-0.07934078,0.06890829,-0.038509425,-0.027602334,-0.14096925,0.014594365,-0.024345664,-0.055691943,0.028388565,0.010832843,0.079766855,0.07820962,0.12929119,0.04476785,0.06065973,0.11147256,0.07541625,0.027670505,-0.12436636,-0.28069174,-0.021480436,-0.11265107,0.06472228,0.11206311,0.008474607,0.048725624,-0.07053947,-0.054001693,-0.16726862,-0.86562294,-0.016270477,0.62378037,-0.01187134,0.017649895,-0.0522199,0.04105379,0.12548335,-0.66362596,-0.1471449,-0.10859902,0.36103937,1.3156413,0.010924761,0.023479067,-0.15159638,0.13494465,0.029460212,-0.2857515,0.019093223,-0.0021161821,0.1329675,0.059393343,-0.052837085,-0.0003958478
P42858,0.00812147,-0.060075838,-0.093955755,0.034466587,0.022544459,0.088182144,-0.065396,-0.04686241,-0.05994485,0.015957998,-0.051184826,0.0030161948,0.040088113,-0.045561757,0.042174093,0.014764223,0.10368769,0.08091109,-0.036659718,0.011087366,-0.022506129,0.012943504,0.080815405,-0.03429756,-0.022490688,-0.014591862,-0.020748483,-0.016076759,0.32715434,-0.0439554,-0.027314056,0.044713676,-0.03239786,0.0047216313,0.0784062,-0.022048375,0.0522233,0.053107843,0.049114145,-0.045510136,0.013242245,0.052127548,0.042858537,-0.015859058,0.10047687,0.06731992,-0.043731403,0.01458289,-0.047777258,-0.011644913,0.047648877,0.091920026,-0.045011267,0.024445724,-0.05536169,0.104797915,-0.024968466,0.064798765,-0.025376365,0.04658953,-0.026124004,0.03293269,-0.08399507,-0.052379698,-0.017400887,-0.08487933,0.014159984,0.032357458,-0.048317377,0.028854402,-0.07112062,0.0060054865,0.04498793,-0.007442198,-0.023771627,-0.05862901,0.07537323,-0.07787907,0.021961024,-0.03369616,0.06356145,0.038847473,0.06951512,0.019989334,-0.020471603,-0.0964168,-0.029554265,-0.0037871269,0.07511554,0.018390803,-0.056831878,0.0475465,0.026477886,0.0070732464,-0.037465177,0.028216435
P19784,0.026485804,-0.04713941,0.0051137563,-0.06791441,-0.016311193,0.15703113,-0.11391345,-0.6453153,-0.004565588,-0.05027733,-0.0044567795,0.40797853,-0.10186186,0.06879414,0.4665093,0.006930226,-0.076145425,-0.033085898,-0.47499344,0.6256928,1.1673716,-0.21791026,-0.049956456,0.15475205,0.043035913,0.06339899,0.06733029,-0.03251657,-0.012114358,0.019589113,0.074490875,-0.41166973,0.052377857,-0.059897076,-0.024949722,-0.024913196,0.116532676,0.044117436,-0.05531158,-0.7926013,-0.61705506,0.093106054,0.07380716,0.078571305,-0.13605638,-0.012704568,-0.0433476,0.029315734,0.058402386,-0.09731219,-0.0124076,0.05029596,0.0101576345,-0.05724303,0.14318377,-0.09738441,-0.050551053,0.07389972,0.0685992,0.020789819,-0.11286403,-0.01005133,0.10044322,0.0014972158,0.02584349,-0.21549551,0.20806591,-0.011449313,0.06286357,-0.034985706,0.05670187,-0.06167767,-0.03945518,0.03974754,0.030816242,-0.052293245,0.08476702,0.0046554273,-0.030225163,0.056275755,-0.043764975,0.032067142,0.039280605,0.087408744,0.038337927,0.022992339,0.030800879,-0.04339266,-0.010826753,-0.047041982,-0.02247336,0.5195608,-0.19350256,0.032483846,0.10437983,-0.023466833
P18887,0.24926563,-0.21529385,0.07320448,0.40689123,0.19348352,-0.14304565,-0.03673621,-0.18776089,0.19821952,-0.08694427,0.4114363,-0.083514474,0.11549013,0.26614943,0.3637099,0.20008482,-0.74936324,-0.13233043,-0.089265086,0.09421718,0.0636932,0.12071589,0.09417985,-0.24593547,0.090147026,0.23205847,-0.031834215,-0.20157266,0.0006178349,-0.24785256,-0.037541687,0.22708236,0.7546551,-0.13579611,-0.037467558,-0.12984695,-0.24320567,0.1384128,0.17300567,0.052019518,0.069090284,0.14891295,-0.08058285,0.03927354,-0.09838072,0.44829693,-0.20588994,0.06538085,-0.012680557,0.012459572,-0.0795809,-0.12648647,0.07376401,-0.06905273,-0.039762925,-0.14177306,0.001726886,0.41742444,-0.5330666,-0.031429905,0.067594916,0.06084111,0.2409435,-0.07161689,-0.20809518,0.044614006,0.08381217,0.09380037,-0.25939268,0.26931572,0.07480172,0.05786228,-0.07323404,-0.13354325,0.17414126,0.16171952,0.014641443,0.110827655,0.11103035,-0.0073797316,-0.04544874,0.066689566,-0.16547757,0.15954101,-0.7776141,-0.5533767,0.008004653,-0.46476012,-0.026909359,0.21199293,0.076152466,-0.09248985,0.107686125,-0.009311129,0.13659118,0.08423128
Q15648,-0.046128053,0.26579127,0.25364828,-0.0069434796,-0.0017478088,-0.02254353,0.0067513897,-0.07842153,0.04738591,0.023251098,0.011883894,0.060161583,-0.025189651,-0.1123019,-0.03386976,-0.022960445,0.02473349,0.05239711,-0.020496486,-0.051098756,0.0056218496,-0.048575234,-0.03736318,0.014694103,0.07916021,0.11140257,0.024965603,0.0813518,0.114876404,0.02565857,0.07024528,0.017576389,0.054058097,-0.036320254,-0.030877803,0.058681116,-0.06199317,-0.0095199235,0.001064075,-0.050254963,-0.076594755,-0.08888324,0.066129684,0.06379673,-0.029430605,-0.5325237,0.019026348,-0.056821708,0.13680297,0.90111256,0.14411701,0.037584573,0.10204626,-0.010961717,0.11206513,0.003245396,0.031330116,-0.037866555,0.13192995,0.0035293356,-0.08023264,0.08020824,-0.024140744,0.08723422,-0.10394051,-0.06765012,0.08085935,-0.1013765,0.08127317,-0.087917954,-0.06454611,0.056867596,-0.10018866,0.0034073351,-0.10120892,-0.08523079,0.01731072,-0.3944276,-0.10611772,0.009710831,0.33231196,0.021481808,0.025572767,-0.060756065,-0.09989873,-0.08517733,0.041092392,-0.22996634,-0.7813607,-0.14896049,-0.057461273,1.524761,-0.027507776,0.0629416,0.032657266,-0.043141197
