protein,0,1,2,3,4,5,6,7,8,9,10,11,12,13,14,15,16,17,18,19,20,21,22,23,24,25,26,27,28,29,30,31,32,33,34,35,36,37,38,39,40,41,42,43,44,45,46,47,48,49,50,51,52,53,54,55,56,57,58,59,60,61,62,63,64,65,66,67,68,69,70,71,72,73,74,75,76,77,78,79,80,81,82,83,84,85,86,87,88,89,90,91,92,93,94,95
Q00535,0.0065201307,0.0003014853,0.0052641206,-0.010872432,0.040104136,-0.025920713,0.014510942,-0.034359,0.017622663,0.043017942,0.065956466,0.018562106,0.009307848,0.015964294,-0.00081336376,0.039512746,-0.0047702123,-0.0086208545,0.029623283,0.039301842,0.06616145,0.049417015,-0.00019115393,0.038503557,-0.023962079,0.012127571,0.019283716,-0.026504053,-0.0004236744,-0.00676004,-0.006292312,0.023490595,-0.012685497,-0.023155438,-0.031158049,-0.039202087,-0.058362838,-0.002738975,-0.031801544,0.03509364,0.009624878,-0.15970685,-0.0050729136,0.018986685,-0.0017700946,0.003465459,0.020186154,0.037731007,0.015405345,0.08472542,-0.0077254632,0.033279058,0.027511809,-0.011797297,-0.03936095,-0.010536126,0.014545345,0.030316235,0.022851955,0.06169255,-0.042204317,-0.057262823,-0.013786758,0.013062195,0.023134299,-0.0038961677,0.047859572,-0.005842599,-0.0051347595,0.025410471,0.05211584,0.054170076,-0.06315779,0.004934228,-0.001594558,-0.049331594,-0.0013771952,-0.018537393,0.0011096027,0.0055277087,-0.014790431,-0.019716356,-0.02232942,-0.021736853,-0.011583108,0.025110027,-0.008159204,-0.052280515,0.013233723,-0.024070637,-0.028099868,0.083303005,0.01507126,-0.0024993282,-0.05303132,-0.036760133
P10636,-0.15908895,0.1655563,0.3574471,0.08044916,0.3246083,-0.19381005,0.07379729,-0.5540628,-0.2933972,0.42931256,0.06596377,-0.3924681,-0.112764746,-0.1679145,0.31787482,-0.025703344,-0.010766171,-0.1652404,0.37079188,-0.59854877,0.15452504,-0.16037613,0.24447633,0.4253326,-0.27763018,0.13505884,0.049762182,0.055758096,0.25211516,0.08286208,0.1786781,0.11234106,-0.0548998,0.34034935,-0.055806898,-0.3762721,-0.23600692,-0.21878903,-0.06159595,0.6719443,0.30050004,0.059784498,0.33531705,-0.031404205,0.08247747,0.28480154,-0.14712773,0.3747051,0.2106836,-0.19979358,-0.3838172,0.17497964,0.3045983,-0.15778683,0.008645261,-0.07303085,0.16809212,0.18639572,0.09461008,0.034572836,-0.03441329,-0.15378487,0.17589535,-0.27104023,0.3370752,0.07636111,0.30585256,0.8136334,-0.16697535,0.07020704,-0.12390955,0.3755372,-0.36655986,-0.37110937,-0.2561552,0.02838455,0.076257885,0.16616619,0.21322389,-0.09535035,-0.36751345,-0.20544313,-0.0019933993,-0.31687257,-0.53393906,0.053829093,0.5076221,-0.2032365,-0.29000467,-0.34668207,0.22854672,0.02769218,0.30237174,-0.40897653,0.07040326,-0.0008813393
Q16620,0.023018071,0.00061734946,0.011423074,-0.0020705117,-0.00891745,-0.010475607,-0.18915814,0.041374605,-0.06522072,-0.042420298,0.08289248,0.011969286,0.046182025,0.005932687,-0.013635996,-0.07925908,-0.17276923,0.0557047,0.0933522,-0.0022131489,0.10182985,0.036207296,-3.931884e-06,0.037400156,0.015214086,-0.0056167096,0.05240967,-0.0038968273,0.10646611,-0.021300402,0.0018767535,-0.040305156,-0.016923128,0.013693708,-0.2168846,-0.029243272,0.027847404,0.14875183,-0.1259829,-0.06637149,-0.03807896,0.07997559,-0.023857765,0.016300892,0.007480771,-0.007926994,0.013728742,0.0016594928,-0.002781254,0.013511366,-0.023462294,-0.008370886,-0.012632397,0.06078266,-0.045759097,-0.014171994,0.06644316,-0.062117707,-0.057146158,0.014418744,0.019931814,-0.037261155,0.0032135262,0.060311645,0.013784799,0.012589466,0.06598085,0.060091507,-0.029566305,0.09381155,-0.009097002,-0.0069582867,0.009752314,-0.010484027,0.018515047,0.06314088,-0.012124227,0.030737432,0.018390901,0.1570871,0.035807654,0.02525741,-0.015034498,0.028029185,-0.0028304635,-0.11266593,0.095137484,-0.0046289214,0.026360925,-0.13438812,-0.023881229,-0.05363107,-0.031897645,-0.012237172,-0.012632865,0.048368823
P22001,0.16194762,0.14582516,-0.1650274,-0.2267166,-0.049534302,0.004180824,-0.23382917,0.118144125,-0.8756215,-0.0018824311,0.10852877,-0.10537947,0.168727,-0.06249632,-0.019498242,-0.24487914,-0.77756727,0.088650316,0.31485024,0.044214893,0.44584498,-0.19794235,-0.003471634,0.013233346,-0.027992463,0.0042096586,-0.06462807,-0.02887641,-0.09051512,-0.2023748,-0.10702758,0.11387817,-0.24536322,0.12829915,-0.2757552,0.2351858,-0.03442815,-0.04114005,-0.78866804,-0.11380301,-0.07079831,0.19338706,-0.14145878,-0.0053424523,-0.03120326,-0.028560335,0.12796624,-0.08776521,-0.012384842,0.047748093,-0.026920047,-0.0072839246,-0.056888867,0.14938316,-0.093662106,0.0033032233,0.7509756,0.15918161,0.06202074,0.07679581,0.120367825,0.028746154,0.063517,0.15050258,-0.13235888,0.28255814,0.31654865,0.42282897,-0.20604427,0.07654086,-0.113202,-0.07148466,0.12505579,-0.107757606,0.0074074627,0.38717863,-0.051505417,0.071833275,-0.052796215,0.39928728,0.15194683,0.15040877,-0.016723456,0.046734296,0.054691948,-0.07660445,0.3475143,0.11939177,0.15313758,-0.14240333,-0.07651042,-0.19853075,-0.39283323,-0.13661337,-0.026976665,0.05717864
Q13315,-0.021870673,0.010409008,-0.023772638,0.019155435,0.03160564,-0.005470684,0.018026732,0.02099764,0.049061123,0.017980618,-0.05888697,-0.022411292,0.01542835,0.0077417023,-0.04612002,0.0015565078,-0.03154096,-0.028167376,-0.008919993,0.008856585,-0.0087973615,0.027526483,0.013140795,-0.04461937,0.011465765,0.021090252,0.005516134,0.0015748334,0.046659365,-0.04127668,-0.005331024,-0.013741051,-0.004320581,0.022070695,0.013561789,0.031824283,-0.03371846,0.011911467,0.0037219364,-0.006771754,0.009223088,-0.012130549,-0.0078498665,0.025353465,0.0052504633,-0.003836756,-0.023179071,0.028116774,0.050870996,-0.022222018,0.002875779,-0.016689261,0.029510146,0.009482262,0.013985254,-0.00059106207,-0.018393898,-0.036221437,0.022387747,-0.008652756,-0.023039395,0.002770794,0.00023442216,0.0037360361,0.030730195,0.013252465,-0.048515473,-0.005859566,0.0020569195,0.016358228,-0.019552939,0.010341874,0.012092782,0.014181841,0.0032829398,-0.032488815,0.0025932998,-0.002125709,0.0009389904,-0.022221385,-0.010704446,0.011066934,-0.068593256,0.012295333,0.010393642,-0.0004029884,-0.00087273994,0.013724963,0.00084725104,-0.028513197,-0.0024151753,0.0019356837,0.006350108,-0.010818274,-0.024221545,-0.005806935
P15336,-0.16257562,0.073860325,0.12452505,0.16303676,-0.3519985,-0.05110893,0.043075953,-0.23080952,0.119802915,0.059870854,-0.25059512,-0.028107693,-0.014701386,0.2136212,0.06091148,-0.11149675,-0.05610046,-0.012910176,0.10159805,-0.15510564,0.112025626,-0.010964166,0.4814918,-0.27238354,0.0057418062,0.2504929,-0.14510533,-0.038927373,0.16052258,-0.20586921,-0.03215702,-0.12120552,0.3885661,0.17722076,-0.020911044,-0.010436643,-0.33142287,0.038934056,-0.12481753,0.2886656,0.09115402,-0.008423063,0.22460985,0.066107444,0.41240326,0.08800886,-0.017642852,0.04616558,-0.02588221,0.25905758,-0.28177872,-0.11150838,0.1304541,-0.115056984,-0.2726013,-0.08779779,-0.09176731,0.014687254,-0.006978849,0.30908617,0.7119272,-0.21338437,-0.098294586,0.5898199,-0.012759698,-0.0911193,0.0674277,0.03960276,0.29665154,-0.11542919,0.103204034,0.15021837,-0.10030556,-0.11425571,-0.03359497,0.08681316,0.027030824,0.006923947,0.6730604,-0.12621732,-0.06989365,-0.83140707,0.1148576,-0.06488849,-0.19875835,0.5995823,-0.34912452,-0.018752377,-0.022060532,-0.1930221,0.065217204,-0.20832242,-0.2907411,-0.22971559,-0.5422163,0.122400396
P78527,0.005273637,-0.01571089,0.055388223,0.049594127,0.004850293,-0.04487123,-0.159339,0.041675705,0.0012933495,0.065990984,-0.04907647,0.046860825,-0.0753494,0.060201563,-0.049401414,0.035513636,-0.013977417,0.059025545,0.04753404,-0.012236604,0.03956706,0.01666112,-0.08118477,-0.021556007,0.013378645,0.08111521,0.005149182,0.0084414305,0.023489758,-0.017137265,0.018406369,-0.052262522,-0.017256167,0.009036979,0.00075695856,-0.010080047,-0.010496654,-0.050535902,-0.04608643,0.012120185,-0.0063564754,-0.058040686,-0.030009143,0.033640906,0.008953586,0.051498104,-0.02386696,-0.017942192,-0.0049416195,0.048239257,-0.047391318,-0.041466925,-0.03479414,-0.04004521,0.029716637,0.0076961285,-0.007921134,-0.0427961,0.038488124,0.036931068,0.015270605,0.042775836,-0.028365796,0.013973614,0.016785348,0.052743565,0.0273406,-0.027786516,-0.027261931,-0.030387424,-0.031037437,0.026511729,0.050540563,-0.079571396,0.05775082,-0.012263997,-0.07454942,-0.03573994,-0.0058342903,-0.02121615,-0.053111188,-0.038149618,-0.037224587,0.015974376,0.010606094,0.1667445,-4.6907866e-05,0.01260797,-0.004639704,0.020488326,0.025951045,0.007602625,0.11976265,-0.015154903,-0.010185485,0.014637214
Q9H9Q4,-0.11728341,0.119337566,-0.037655015,0.13345037,-0.00079981185,0.084368624,-0.17076118,0.101629935,-0.11147262,0.30401477,-0.16715607,-0.0655694,-0.18788357,0.4074157,0.07913013,-0.022777118,-0.27566925,0.014837961,-0.06807069,-0.3363961,-0.1483981,0.1723244,-0.11945958,-0.12796648,0.14627902,-0.082921505,0.31418264,0.01839088,0.06268814,-0.046407253,-0.08738331,-0.03723097,-1.1715232,0.1487163,-0.18238917,-0.0670972,0.13575855,-0.04687665,-0.18986419,-0.31661227,0.14900973,-0.1484408,0.07394334,-0.034911387,0.057078596,-0.026945833,0.029369634,-0.23739412,-0.09867376,0.06122182,-0.042974398,-0.044069003,0.057960488,-0.15562025,-0.87287635,-0.032622304,0.1491279,-0.060751837,-0.024283772,0.07332768,-0.06546375,0.12287649,-0.01146638,0.118522935,0.026938755,-0.121490695,0.19229093,0.1344455,-0.25551105,-0.0015036883,-0.11852891,0.08317362,0.008696555,-0.1142058,0.027263608,-0.101037554,0.057141114,-0.06827007,0.06326097,0.39480808,-0.028460642,-0.037781343,0.022096122,-0.10582469,0.812625,0.06341788,-0.03410313,-0.14605968,0.14877725,0.047408868,0.013181865,0.40042293,0.012076642,0.14500281,0.37698823,-0.19758253
Q15831,0.01917961,-0.011145603,0.053436022,-0.01758481,0.075532615,-0.006473035,0.0031815148,-0.1165334,-0.055637166,0.037513606,0.00029177152,-0.08747801,0.014011795,-0.06901764,0.010950965,0.05537856,-0.061919987,0.017082144,0.08238354,-0.08444127,0.022436906,0.04842814,0.030710522,0.0079537155,-0.023009328,-0.018124277,-0.02882703,0.110519804,-0.0058752527,0.078405514,0.025147332,-0.0056949267,0.013150462,-0.030751737,0.004394883,-0.013235423,-0.13474841,-0.07930757,-0.12288823,-0.018948918,0.054230597,0.016049884,0.048491895,0.0191547,0.012820731,0.0615842,-0.07594173,0.038220927,0.038636,-0.043740034,-0.033902526,0.073986806,-0.018167792,-0.011102773,-0.020064538,0.06822772,0.090799674,0.03570833,0.08352513,0.023938034,-0.082417436,0.06839811,0.022862693,-0.046701252,0.0020953852,0.0033298943,0.0030344166,0.13736442,-0.0472019,0.019444507,0.017769434,0.037064835,-0.007831909,0.033010762,0.01864236,-0.026637794,-0.075832784,-0.008882683,-0.027025647,-0.0053407457,-0.046041455,-0.078484096,-0.03644272,-0.0047093434,-0.09454482,-0.031242657,-0.07123626,-0.015863026,-0.06952179,-0.053964637,0.06736425,0.021258293,0.10570161,-0.050043937,0.021019198,0.03028469
P54646,0.09087705,0.0029488956,0.02539654,-0.034404464,0.056134015,-0.029211838,-0.011272669,-0.06215108,-0.07123113,-0.03224539,0.046036817,-0.020036053,0.0038732998,0.07182841,0.04240762,0.012492477,-0.040059306,-4.719427e-05,-0.036428217,0.020917842,0.0072822846,0.014782034,0.046820447,-0.025262896,-0.037609316,-0.019926049,0.050406117,-0.034141812,0.01952187,0.053938784,-0.00072771934,0.023734666,-0.027989225,-0.014430173,-0.052396186,-0.04918034,0.0009332857,0.048188567,-0.05347981,-0.0198147,-0.027591191,0.18340258,0.016403858,-0.03886023,0.012908509,0.009621913,-0.018798333,0.04915324,0.018850228,-0.051410235,-0.029345928,0.021140113,-0.03348102,0.013629633,-0.0013501914,0.032510478,0.024497878,-0.04034752,0.018955931,0.059530534,0.00536588,-0.026881691,-0.034110248,-0.024082929,0.03615355,0.028465264,0.03315426,0.067496434,-0.007552265,0.03828814,0.0065563847,0.078691036,-0.013186785,-0.0061430736,-0.029183347,-0.020138396,0.006128951,0.06201185,-0.042588644,-0.033232745,-0.037285514,-0.0026669132,-0.050186343,0.024741784,-0.0879721,-0.0027972811,-0.047321558,0.0030963717,-0.007632389,-0.04832287,0.038410805,-0.02072543,-0.01449556,0.011534846,-0.014827196,-0.033991117
P12931,-0.03193228,0.009173554,-0.069097176,0.019304432,-0.0037764048,0.035977762,0.016529582,-0.036771335,-0.05848212,0.07620971,-0.015109999,0.044646516,0.026145741,0.030031007,0.047700327,-0.028585106,0.003574151,-0.039810166,-0.020629713,0.02439173,0.012335175,-0.021100365,0.050981835,-0.014368229,-0.013515442,-0.0133022815,-0.00044021202,-0.021540478,0.012087732,0.0076337242,0.008671657,0.041128393,0.033328813,-0.030973108,-0.025511777,-0.05195516,-0.011641784,-0.0118142,0.014098599,-0.0021426587,0.020173088,0.005103085,-0.036248166,0.008654385,0.02663687,0.012616952,0.059279654,0.028447323,-0.027489824,-0.015935436,0.011417074,0.026545187,-0.02191881,-0.007838583,-0.025231173,-0.009406284,0.0036173589,-0.02442609,-0.029957818,-0.0375136,0.033438716,-0.07037346,0.04302124,0.022664363,0.0077605722,0.067122735,0.008640124,-0.0433312,-0.05719577,-0.0005395062,-0.01338714,0.035789426,-0.047442436,-0.020086324,-0.0035580727,-0.048086613,-0.044956427,-0.03801151,0.052297413,0.020652242,0.008984196,0.0020701468,0.0032737113,0.001082088,0.010980876,0.008036924,0.055519305,-0.002187054,-0.0066938736,0.027476221,-0.0016427547,-0.014136585,-0.032586932,0.055783916,-0.0025559282,0.020474987
Q05193,-0.09381295,0.084058225,0.28309008,0.034132946,0.051808577,-0.24379258,0.024654046,-0.047944825,-0.17445038,0.34422734,0.09758853,-0.3465411,-0.010006036,0.17764169,0.015308714,-0.77721673,0.080605835,0.1835616,0.12796827,0.09854307,0.068003595,0.09981403,0.108817756,-0.15399662,0.026206378,-0.016124072,-0.058667626,0.1422732,0.06251763,0.12673311,0.11251475,-0.092848636,-0.33456388,-0.13443428,0.12115495,-0.052077603,-0.14386642,0.014119854,-0.08283373,-0.012539986,-0.05160869,-0.24175145,0.080847755,0.022462133,-0.10912398,-0.024818486,0.08874947,-1.5049573,-0.007769317,-0.40650985,0.11685225,0.114356056,0.03910529,-0.05595064,0.006187315,0.029245244,0.038810775,0.07079758,-0.006467592,0.20129016,0.036201812,0.0053679026,0.026727663,0.22496279,0.041174464,0.09261286,0.06861385,-0.10312873,-0.123072416,0.026973486,-0.106320344,0.04655959,-0.09216368,0.08130074,0.04942525,0.039648715,0.00046020705,-0.22287095,-0.101877764,-0.028332531,-0.044437744,0.25259238,-0.10318571,0.10792214,-0.39389092,0.075461954,-0.171019,-0.034760375,0.57527024,0.009382015,0.035897937,0.094388224,-0.044069357,-0.0010058683,-0.023645049,0.09832463
P28482,-0.016878853,0.07404748,0.009319498,-0.029831527,0.007074552,0.109125495,0.037422255,-0.009921449,-0.0071950965,-0.02521302,-0.11494412,-0.015235756,-0.07937535,-0.027193295,0.044456173,0.05407698,-0.038976002,0.03046873,0.00968218,-0.03534405,0.013897847,0.020136083,0.05101993,0.0075968304,-0.008714381,0.049463056,0.015271137,0.02217515,0.006272426,-0.005497897,0.102002196,-0.08668027,0.10710775,-0.06179909,-0.010338117,0.03979682,-0.002172826,-0.009513776,-0.021960612,-0.027364917,0.05088976,-0.051310755,0.076901,0.056191895,-0.0379967,-0.0045749536,-0.038087033,-0.007271465,-0.032469995,0.11803971,0.029927704,0.046444725,0.0675848,-0.05876426,-0.021121755,-0.015566744,0.022077626,0.05719669,0.013087348,0.027736561,-0.117108524,0.031678826,-0.012550762,-0.06416516,0.069460444,0.09257623,-0.036715463,0.023216357,-0.06754981,-0.06744767,0.050233416,0.04693135,-0.013380978,0.00239716,-0.015431273,0.017839832,-0.017364154,-0.006780917,-0.043282196,-0.020819126,-0.02655122,0.036346443,-0.008032479,-0.05104674,0.054711856,0.060369227,-0.106634796,-0.0017157213,-0.0052281893,-0.102948695,0.04193505,0.048117943,0.05949731,-0.04230903,-0.02072743,0.08471621
P22736,-0.023974506,0.035801474,-0.05269703,0.026630122,-0.010980744,0.037530333,0.0052458867,-0.061237812,-0.0020053827,-0.04072208,-0.042257648,-0.029309822,0.08149001,-0.06416489,-0.05961732,0.0747244,0.0054191095,0.028994966,0.05358413,0.009000818,-0.02187462,0.048956223,0.078495495,-0.021685986,0.0044815205,-0.022677343,-0.067775995,-0.044930335,0.04818092,0.059841894,0.10115189,-0.02750513,-0.033203874,-0.08909667,0.016108826,0.1282047,-0.094628885,-0.009375419,-0.07117892,-0.07639985,-0.07912594,-0.09025796,0.036622483,0.024302859,0.00490802,0.074369416,0.001698969,0.10263859,0.059698362,-0.020330243,-0.043680392,0.084139004,0.017144552,-0.09806188,0.027330045,-0.099840835,0.024536751,-0.020987617,0.06834704,-0.012801681,-0.07002606,-0.0016762099,-0.02357226,-0.08807753,-0.031180473,0.02880532,0.024294151,-0.017903972,-0.08591986,0.035066903,0.030303884,0.013072409,-0.016866317,0.06389338,-0.042847082,-0.11391069,0.04197131,0.0032966414,0.030361775,0.035098158,-0.03390033,-0.0822936,-0.060041074,0.0009491032,0.014629243,-0.019912023,0.017023018,-0.03590787,0.0018674133,-0.037541702,0.019554254,0.070314094,-0.032591175,-0.048230898,-0.040681623,0.016318953
Q9NRM7,-0.06733588,-0.0053525013,-0.020519929,-0.016192326,-0.027902115,0.16408667,-0.068472326,-0.00723457,-0.034782145,-0.007526608,0.05413175,-0.12253411,0.07305085,-0.05571882,0.042427074,0.0702015,-0.017948283,-0.011827512,-0.017397176,-0.07088438,0.007956933,0.0724308,-0.050131124,-0.008514826,0.13862829,-0.015444282,-0.08682279,0.023146668,0.06930019,0.047697395,-0.12055595,0.009898023,0.030475348,-0.0664318,0.01961245,-0.02729421,0.050711222,0.029564943,0.004401529,0.0064500696,-0.011559939,-0.061684098,-0.0557101,0.0031880434,-0.014158288,0.003896488,0.0013250376,0.048814006,-0.011941003,-0.008907186,0.12439895,-0.004311399,-0.030491125,-0.0688615,0.039073527,0.07368229,0.017637214,0.0012998411,-0.016248645,0.047045324,0.007788522,0.044205543,0.01298333,-0.0049434546,0.051014345,0.035169043,-0.04726299,0.023364723,-0.015318696,0.093031004,0.027172212,0.015571481,-0.012406637,0.18946694,0.09024761,-0.045511533,0.016190728,-0.10891139,0.055831794,-0.02301619,0.061776556,-0.024206698,0.049912956,-0.059885416,-0.047662374,-0.008629494,-0.061399724,-0.08291766,0.081743345,-0.02284409,0.020433186,-0.020681694,-0.09854425,-0.05687751,0.122512214,0.06395275
Q9GZV5,0.06945078,-0.29406175,-0.15688194,-0.090936996,0.38034764,0.22473599,-0.17006922,0.17464988,-0.1377652,-0.020820826,0.19925903,-0.8647952,0.054391723,-0.21281864,0.06348106,0.23419783,-0.2891653,-0.053374067,0.042411894,-0.13489766,-0.06772028,-0.060844056,-0.20584658,0.002644381,0.81719077,-0.09182001,-0.29885945,-0.025593884,0.20984593,0.2532353,-0.072359756,-0.43347305,-0.019425226,-0.18846631,-0.058588576,-0.112144366,0.21359695,-0.06824497,0.00063204113,0.17661032,0.0030114162,-0.21805114,-0.05095877,-0.04022985,0.12205066,0.15125981,-0.16054025,0.034819126,0.18415484,0.023207651,0.15567712,0.0005989968,-0.08489707,0.021021293,-0.07179938,0.094706886,-0.086664565,-0.018010812,-0.12854162,0.06127685,0.044252574,0.24888681,-0.2323436,-0.055200014,-0.06610238,0.024656747,-0.13050331,0.15014419,-0.09824421,0.0943342,0.0034379796,0.017526705,0.0839007,0.26856184,0.06353956,-0.106161475,-0.042573597,-0.22303954,0.1178716,0.01673663,0.29050812,0.9122531,0.9226106,-0.1244332,-0.022587659,-0.14187044,-0.11979136,-0.36862457,0.19008476,0.11054461,0.05212648,-0.15489203,-0.042947017,-0.005080427,0.23598662,0.1377681
Q9H0K1,0.020424806,-0.059913766,-0.042446055,0.029714188,0.021682717,0.028264824,-0.00045832153,-0.0009997989,-0.04767493,0.12461168,-0.017614316,-0.00040459557,0.004835756,0.008046594,0.019667095,0.01591841,-0.1914058,0.04236974,-0.072050236,0.10558943,0.023206092,0.016276658,0.005652977,0.020606348,0.0005625533,-0.011248575,0.098388724,0.05886471,0.10945005,0.02742423,0.0008832332,-0.054673616,0.11246946,-0.021216758,-0.034064867,-0.024173753,-0.04382013,-0.0013728385,-0.08353532,-0.029378328,0.04820683,-0.009020733,0.064075395,0.04718301,0.022525102,0.049734443,0.03631506,-0.04035089,-0.054656774,0.09904814,-0.030401235,0.03159437,-0.036945846,0.035938494,-0.002339594,0.06513436,-0.04023036,0.00050069497,0.07679951,0.07922316,-0.011284261,0.087072976,-0.014369145,0.015057235,0.04051663,0.012806784,0.011466283,0.058470834,-0.027884206,0.08861187,0.023196755,-0.05866824,0.088123426,-0.041344598,-0.02655251,0.07136737,0.02017133,-0.2112999,-5.7900426e-05,-0.0642989,-0.051383656,-0.002398694,-0.030254267,0.034100458,0.14786437,-0.092566855,0.023345998,-0.02889802,-0.034255713,-0.026957484,0.050741658,0.01740843,-0.013336825,0.049739834,-0.064539306,0.02453003
P35568,-0.2091901,-0.093155205,-0.064015076,0.19398823,0.15624483,0.25569028,-0.22244658,-0.29126364,-0.42683518,0.24345008,-0.27339688,0.0014226565,-0.025185507,0.14189552,0.24944328,0.13640493,-0.4309094,0.2103764,0.10895689,-0.15062657,0.056928925,0.141467,0.094267495,0.18428811,-0.019462617,-0.05364562,0.21879792,-0.07565994,0.020517513,0.15405945,0.16857435,-0.46322975,1.0906395,-0.19940022,-0.122335576,-0.13216996,-0.48168433,-0.07897715,-0.5200909,-0.15137275,0.43040204,-0.016392896,0.26947507,0.17016746,0.033837847,0.30860442,-0.516334,-0.104536965,-0.33442348,-0.010404383,-0.15977503,0.3600832,-0.14571919,0.107966535,0.10304134,0.24750978,-0.11080501,0.009265458,0.13772547,0.22942877,0.0927578,-0.07557164,-0.24091786,-0.024509162,0.08684471,0.08763547,0.08381663,0.19191416,-0.33735394,0.4486734,0.16218051,-0.20718002,-0.22821122,-0.008806043,0.052293327,0.32069397,-0.16090806,-0.74496496,0.12218586,-0.32511732,-0.003274793,0.03531239,-0.11285769,-0.08459673,0.49378675,-0.53411525,-0.21292678,-0.10475007,-0.43224066,-0.48616233,0.47354615,0.24911979,-0.47294977,0.016024243,-0.28238437,0.24159124
P17252,-0.00195002,-0.0023274974,-0.031560127,0.0155180665,-0.035024185,-0.007899642,-0.0053587393,-0.038405728,-0.029228715,0.025744073,-0.021717504,0.014320257,-0.028031837,-0.0027457876,-0.007151089,-0.009866541,0.0127243735,-0.0017954065,0.019283645,0.009273933,-0.0066048703,0.004640349,-0.009016132,0.010815143,-0.018515287,-0.03820682,-0.00672556,-0.0091044735,0.035159852,0.0070325444,-0.013117048,0.20424956,0.007441994,-0.01103596,-0.030112296,-0.018102257,0.01004651,0.0070600854,0.013051279,0.04173855,-0.0124258725,0.01251714,-0.00058536686,0.01366138,0.037879016,0.018044744,-0.0066641113,-0.0054161376,-0.0074218633,-0.0061168475,-0.0038372334,-0.019148743,0.019665288,0.0057788515,-0.022509193,0.024657555,-0.015905954,-0.004623715,-0.009318933,0.009731542,0.040312566,-0.0023019924,-0.0060533118,7.45435e-05,-0.019740054,-0.007689178,0.01477623,-0.00017017385,-0.02854322,-0.007978821,0.00072086893,0.002849131,0.014023444,-0.0072465157,-0.0030149738,0.006144734,0.021114489,-0.034162782,0.02017521,0.0074115135,0.0070468034,0.0026359146,-0.0029722336,-0.014810293,0.016664166,0.0033867795,-0.013947383,0.0131249,-0.022222973,-0.027860142,0.005442437,0.020720767,-0.027784126,-0.002987283,0.0008270516,0.016081609
P22681,-0.14172006,0.04586157,-0.09332305,0.042644583,0.119433925,-0.12344257,-0.013424323,-0.08395171,-0.105060525,0.0577232,0.021851826,0.13592574,-0.027965525,0.006564315,0.12210371,-0.07371215,-0.03177224,0.015243939,0.03160469,0.03125359,0.1615259,0.17245974,-0.020048942,-0.007820909,-0.027606498,-0.022066562,-0.10679152,0.06300191,0.023896001,0.0013731528,-0.0026073256,0.07005871,0.0009668161,-0.138106,-0.028392507,-0.20868127,0.06428175,-0.0638937,0.058391903,0.063835114,0.037483174,0.041731395,-0.034846574,0.18764678,0.10567685,0.19836208,0.018968733,0.15693976,-0.007595122,-0.011131587,-0.113289885,0.057853714,-0.09274608,0.09760657,-0.121554025,0.03132424,-0.11357362,-0.03229772,-0.010332115,-0.11583965,0.03679791,0.0028539011,-0.07245395,0.040178433,-0.1677364,0.07344802,0.07372407,-0.030780355,-0.048005562,0.014185935,-0.087441914,-0.058552112,-0.013900231,-0.06517396,0.038667716,0.015432671,-0.06576166,-0.03531737,0.14079905,-0.013725809,-0.06914307,0.018117262,0.044666875,0.08167753,0.059815366,0.03279858,-0.025240045,-0.065992504,-0.07102577,0.027946416,0.05972745,-0.03567448,-0.03504461,-0.08113341,-0.0037999745,0.007920335
Q96GD4,-0.21832068,-0.16937913,0.5450686,-0.011498608,0.1910733,0.22721064,-0.09704601,-0.04632765,-0.009313963,-0.00035847528,-0.50789106,-0.2307342,-0.049927287,-0.03887034,0.110508814,-0.13481976,-0.00021274207,0.023083301,-0.1524174,-0.10189677,0.07967071,-0.023114424,-0.18092832,-0.23922192,0.24462098,0.0015728505,-0.42475474,-0.00039646876,0.058408003,0.05732891,-0.4157278,-0.13910206,-0.14612916,0.14981279,0.32829577,0.055544663,0.04613963,0.39878356,-0.017589344,-0.2848088,0.09735857,-0.08380971,-0.10736107,-0.20257053,-0.065401204,-0.26543018,0.1710771,0.022102611,0.049145147,0.18565217,-0.11316022,-0.29167745,-0.14059807,0.06475657,0.13985991,0.20543727,0.0923336,-0.29587033,0.32584524,-0.43489894,-0.16469267,0.0248608,-0.0876003,0.27348354,-0.039421845,0.20617548,-0.12680551,-0.05995454,-0.2510789,-0.18733665,0.19323052,0.2136993,0.18133545,-0.19803391,0.10030872,0.11673585,-0.23616108,-0.24606101,0.12234292,-0.25713828,-0.049862355,-0.10910558,0.1861463,-0.18926561,-0.39747378,0.23699977,-0.09929267,-0.082700625,0.26379663,-0.16008377,0.13206048,0.3553792,0.0431824,-0.34435067,0.121407285,0.084091105
Q17R91,0.0059799096,0.0354961,-0.26361746,0.1017748,0.03508732,0.10821015,-0.11499766,-0.1405151,0.0033159198,0.058742993,-0.17906229,-0.12613086,0.027930858,0.8342324,-0.02673157,-0.08502346,-0.005551892,0.12202352,-0.10137391,-0.07543594,-0.07179326,-0.07689992,0.09167543,0.0483133,0.15501124,0.055453002,-0.16414203,-0.021003436,-0.050529208,-0.3050678,0.114101104,-0.11795653,-0.3904609,0.025969213,0.41185212,0.0002888851,-0.24172121,0.13367419,0.06112009,0.06096569,-0.022824144,0.45875677,0.040268175,-0.3784833,0.97897005,-0.09370714,-0.036952432,-0.05772087,0.11476002,0.093190335,0.022477396,-0.33023357,0.025630254,-0.7568896,0.0492345,0.09434266,0.030281197,-0.09594483,-0.04536021,-0.15530571,-0.36867458,-0.28361183,0.28858486,0.39582363,-0.557744,0.010038794,0.021467159,-0.062095378,-0.13500229,-0.13542368,0.006608512,0.027929138,0.022023855,0.0038477348,-0.23807585,0.041905627,-0.10087527,-0.018149773,-0.049615346,-0.48825353,-0.03271205,0.06976427,0.064499706,-0.034368042,-0.088258795,0.07888675,0.010485571,-0.09315849,0.17857279,-0.06736033,0.009156039,0.11681856,-0.073720805,-0.067350484,-0.07623698,0.022129523
Q9H4A3,0.07517844,0.1277472,-0.09778897,0.034458283,-0.0006444358,0.097742476,0.19745684,-0.056449443,0.20523413,0.064644754,-0.018464688,0.14733212,0.03994778,-0.21224637,0.06751201,-0.011246615,-0.11799681,0.12772399,0.04809509,-0.111147925,-0.027916066,-0.03631026,-0.030516753,0.06476825,0.16362624,-0.043066006,-0.02373051,-0.018681685,-0.047125798,-0.014805836,0.045602027,-0.14129102,0.09713006,0.011388156,-0.026737442,-0.043760967,-0.10345351,-0.015046458,-0.15639558,-0.03843603,0.05479562,-0.06839795,0.00067486917,0.006653755,0.049022328,-0.25477016,0.15840197,0.22437091,0.058700368,-0.029961837,0.044787638,-0.004804689,-0.15511896,0.059088297,0.11073452,0.06316035,0.047011796,0.18846871,0.06733492,0.1378809,-0.056478843,-0.11658037,-0.08083204,0.010212118,0.0067038834,-0.01950674,-0.10276177,0.050796058,0.1700937,0.087862134,0.0023258538,-0.10213212,-0.13240989,-0.10991911,0.042409826,-0.031798583,-0.09244243,0.06608052,-0.29868442,-0.07829099,-0.07150006,-0.039773986,0.11215168,0.049671296,-0.081383884,-0.06696972,-0.012527675,-0.093624145,-0.028683595,0.036287,-0.035930343,0.010619876,0.15089251,0.107739605,0.0555582,0.082493745
Q9UEW8,0.06442669,0.10426137,-0.101346664,0.08967645,0.020284666,-0.074122295,0.19712019,0.067865066,0.25090045,0.0777328,0.0829603,0.1180603,0.12173912,-0.13673303,-0.037355676,0.06893422,-0.059368454,0.08488562,0.086736955,-0.15830643,0.006522167,-0.041889217,-0.0397068,-0.01351585,0.15803617,-0.0318352,-0.012225832,-0.12155946,-0.042077597,-0.056330845,0.009953294,-0.14438732,-0.0481324,0.018647226,-0.009398409,-0.08308213,-0.09185559,-0.032319322,-0.16680339,-0.14048418,0.04937103,0.047306128,-0.008169027,-0.030142099,0.09835532,-0.14418581,0.045798037,0.24141413,0.13645908,-0.04110037,0.10604422,-0.038225852,-0.08466859,-0.08356396,0.034204796,0.040339682,-0.031643525,0.08165334,0.03554424,0.17620863,-0.034896355,-0.14380448,0.03796166,0.03624438,-0.0014518633,0.011500604,-0.12800758,0.01940819,0.26015213,0.08884566,-0.12401621,0.10720237,-0.101217344,-0.21939133,-0.017706746,-0.015814112,0.063020125,0.104887016,-0.18165055,-0.07467277,-0.10083163,-0.0897647,0.08608411,0.047976334,-0.13220003,-0.02504799,0.04631802,-0.17124465,0.11955635,0.059683595,-0.050112296,-0.013460508,0.2456991,0.08169403,0.026801806,0.01486915
Q16539,-0.2265945,0.080739595,0.02444124,-0.055234987,0.09479702,-0.0029012333,0.07883056,-0.24454336,-0.06231767,0.11507812,-0.12261254,-0.06443086,-0.1319448,0.13448279,0.12141092,0.07185778,-0.15034302,0.0006811989,0.029672295,-0.0033667514,0.23005374,0.02541412,0.13416973,-0.03901069,-0.16934688,0.031179065,-0.11688476,0.094836034,0.1465287,0.04025067,0.1339576,0.07314906,-0.017749904,-0.021030338,-0.13234724,-0.13008022,-0.23475014,0.045488726,-0.039273515,0.15771624,0.17093822,-0.0308946,0.24659085,0.017901877,0.022826768,0.1801523,0.048588328,-0.03406709,0.0069229454,0.04769359,-0.30013564,0.1922513,0.103625335,-0.046128813,-0.11164977,-0.16251446,-0.15884481,-0.12673648,0.029962858,0.10205717,0.29107386,0.06802925,0.0066671157,-0.21614465,0.23479365,0.14618278,-0.18833454,0.16226059,-6.408428e-05,0.0034876894,-0.06568147,0.35292813,-0.21881905,0.07714394,-0.07292855,0.13280284,-0.25485092,-0.058587853,-0.041382838,-0.078933105,-0.15712558,-0.123657025,-0.0071463757,-0.07139812,-0.02764528,0.19545779,0.011923633,0.044933148,-0.27687043,-0.11853747,0.20777854,-0.07611022,0.013385307,-0.11697092,-0.033830356,0.03623199
P03372,-0.053074688,0.02477557,-0.020229291,0.19510753,0.03943507,0.15130576,0.039633185,-0.006980772,-0.2761654,0.18848358,0.010832007,0.48221457,-0.033296473,0.057750523,0.03315303,0.13167402,0.008283215,-0.07158965,0.016856147,0.034599714,0.15465221,-0.017076716,0.009508851,-0.011573844,-0.073214926,0.060891833,0.064490125,0.017108621,-0.10963863,-0.05542249,-0.019272871,-0.00057933654,0.13424201,-0.21860689,0.12812638,-0.14208141,-0.23421983,0.0050584916,0.019570017,0.021052603,0.24303694,-0.00049280387,0.19127817,-0.12428331,-0.013721438,-0.030403825,-0.0181656,0.12547962,-0.01346119,0.15533713,-0.019195065,-0.14371298,0.053932894,0.0020739604,0.017911084,0.2933194,0.09025808,0.015367097,-0.12138941,0.04490142,0.14579365,0.24431477,0.28787756,0.19834358,0.03342931,0.0018107832,-0.075434834,0.12873769,-0.018478468,-0.026338411,0.11037287,0.278265,-0.20284167,-0.16685344,0.0639456,0.17454673,-0.22948867,0.0015149298,0.06506174,0.12176263,0.011841946,-0.011879594,-0.13469909,-0.11145319,-0.17023186,-0.024864778,-0.068583235,-0.12818033,-0.34876588,-0.109395504,-0.098810725,0.13044268,-0.062243268,0.2192864,-0.027258575,0.22904798
P45983,-0.03139424,0.030131731,0.020662207,0.05902288,0.06642988,-0.014392786,0.02104394,-0.08530339,-0.07801653,0.017882662,-0.032919914,-4.313451e-05,-0.093132876,-0.048166543,0.054971166,0.08424313,-0.0664638,-0.0245064,-0.028360393,-0.00923159,-0.015565012,-0.0058369534,0.046590105,-0.006291275,0.03769463,-0.014414324,-0.05334314,-0.06948186,0.059692092,0.08729047,0.12710455,-0.07447593,-0.019173115,-0.05736991,-0.050511006,-0.120803095,-0.13621458,-0.06691702,-0.1277247,0.00146993,0.076449804,-0.08044278,0.15152618,0.0792671,0.011848348,0.1512481,0.010908083,-0.0006123286,0.03986643,0.04943243,0.0014523322,0.07059755,0.032893963,-0.057494383,5.3826516e-05,0.004981604,-0.056740902,-0.049910482,0.017875604,0.00020026197,-0.08184937,-0.018366724,-0.032640707,-0.09990122,0.022412015,0.015308923,0.018127289,0.021718238,0.0053577344,0.002039624,0.02256347,0.060216174,-0.12169097,0.056809902,0.0055217273,-0.074102856,-0.059408654,-0.0035657277,0.09231992,-0.037391324,-0.045734495,-0.0710231,0.019524757,0.034267597,-0.004061369,0.0448825,-0.054985836,-0.049472656,-0.086791515,-0.08011674,0.031290907,0.085279,-0.008530706,-0.055341784,-0.0313561,-0.0049679866
P61978,-0.00021491514,-0.009573027,0.04018492,0.016030332,0.055005062,0.04090485,0.034116406,0.015273401,0.019999798,0.014689065,0.015346089,-0.052775495,0.007191739,-0.010811424,-0.01360559,-0.01781202,0.006636997,0.04381574,0.024722321,-0.045847103,-0.0203256,0.049905416,0.08937615,0.0044528004,-0.018100897,-0.000692391,-0.012036646,-0.06451676,-0.021741562,0.043490093,0.07421584,-0.023763562,-0.01880247,-0.04813417,-0.0049827397,-0.022945186,-0.06682152,0.03388946,0.010285238,-0.016081663,-0.029431647,-0.017557725,0.010178988,-0.023169687,0.030171588,0.024850596,-0.07135423,0.029330011,0.028338835,-0.036296163,-0.05478675,0.052097496,0.059657097,0.04534287,-0.05207018,0.0017882832,0.01274863,0.04072925,0.007259666,0.0028382654,-0.041789174,0.011570814,-0.0119186025,0.01942502,0.03842074,0.08140579,0.029159142,-0.030830314,-0.00023506474,0.01867343,0.01616221,0.0007181177,0.0013297098,0.018751746,-0.022649342,-0.06836884,0.021584578,-0.008708861,-0.008678481,0.037349742,0.0114494255,0.016780501,-0.024775159,-0.054588474,-0.02264311,-0.039023492,-0.011377271,-0.0054502673,0.030555058,-0.09918057,0.03608847,0.022956127,0.04971983,0.021781284,-0.044118628,-0.05527811
P68400,0.0022751198,-0.017277883,2.3417633e-05,0.01592904,-0.0036608223,-0.013640436,-0.003445826,0.009567556,0.0016116721,0.021117471,0.0071582873,0.019017154,0.0017802411,0.009660919,0.012702004,-0.009775631,0.010318292,-0.020254677,0.01267827,0.016314587,0.0108961295,-0.009894347,-0.0073223445,0.029787581,-0.00025892482,-0.0041010207,0.07223671,-0.028513707,-0.01232328,-0.00083423837,-0.019459147,-0.0022350762,-0.004393437,-0.00042440245,-0.01694413,-0.005611713,-0.017000074,0.010434386,0.012251623,-0.027176682,0.0065679974,-0.01892559,0.005643936,0.014395732,-0.013100216,-0.0073151626,-0.02687134,0.013807867,-0.022326233,-0.039181873,0.021168703,-0.010657514,0.022355098,-0.0070455573,0.0047889673,0.008267921,0.014782908,-0.005742792,-0.0141988555,0.00572068,-0.013477857,0.01027557,-0.0019389244,-0.0064537637,-0.004921167,0.002078185,0.00042328198,-0.00052132295,0.011767647,0.0020139515,0.040355396,0.030279549,-0.01779988,0.0051427362,0.0057802666,-0.010494705,-0.014366283,0.008142511,-0.04341661,-0.011568002,0.0045168498,0.13399644,-0.045937654,-0.029462185,-0.005912837,0.020485964,-0.030542878,0.008454773,-0.027906522,-0.02629956,0.0037038447,0.015351704,-0.010312958,0.02028954,0.00962635,-0.0053807944
P06744,-0.07212349,0.0029857457,0.052744433,-0.36562818,-0.28987765,0.09102612,-0.02015551,-0.07859961,0.16817452,0.036519013,0.046471786,-0.032531843,-0.054396093,0.05374804,0.045881003,-0.0229475,-0.15260336,-0.13175629,0.051703796,0.011036202,0.05883555,-0.06500159,0.0549447,0.012946431,0.07287559,0.087946825,-0.06474477,0.009031121,-0.06581976,-0.05025333,0.06712796,-0.09384328,-1.1049013,0.18517141,0.09073769,-0.03991492,-0.036337994,-0.075545944,0.014579072,-0.014576601,0.029919306,-0.06611246,0.015139386,-0.19225244,0.4464517,0.043512568,0.050164513,-0.009872081,-0.05081567,-0.037960835,-0.13524301,0.061805237,-0.008760645,0.094034195,-0.0837872,-0.022593655,-0.0037732895,-0.293779,-0.073039025,-0.08677277,0.079977036,-0.045604724,0.041511443,-0.05665199,-1.4976785,0.034062825,0.10749096,0.119822994,-0.036573194,0.06085425,-0.01793417,0.000201852,-0.18137164,0.056276586,-3.6667254e-05,0.08568696,-0.25023636,0.08083391,0.11756862,-0.10999742,-0.16753219,-0.18643682,-0.06334491,0.09265098,0.038848817,0.016380064,-0.22141215,0.4093317,-0.07604709,-0.17698488,0.00929616,-0.048598196,0.022449203,0.029892769,0.033223726,0.007893898
P00519,-0.27391276,0.036156658,-0.03248356,0.13397455,0.14097346,-0.107966125,0.017711543,-0.15872881,-0.13192812,0.03521327,-0.07129594,0.100815184,-0.02687205,0.091719225,0.13603494,0.20675091,-0.025848042,-0.045013715,-0.027799837,-0.09962861,0.24544427,0.20707954,0.0734402,0.19526818,-0.050541077,0.1327813,-0.042756997,0.09181394,0.18677326,0.00020519081,0.10633999,0.040415306,-0.10042561,-0.21872216,0.051106397,0.027491499,-0.16944745,-0.08892305,-0.061270874,0.026689587,0.008734183,-0.028184028,0.10364634,0.17641525,-0.0022703004,0.041104775,0.15256381,0.24421583,-0.05677341,-0.041737817,-0.03215553,0.019606467,0.08333672,-0.08186406,0.01906645,0.14375462,-0.085521296,0.0520297,-0.0090829795,-0.043883517,0.0070525524,0.011991033,0.031218445,-0.008238374,0.067243904,0.097921826,0.015155256,-0.093507625,-0.09714214,0.019136518,-0.008850299,-0.049330834,-0.11944963,-0.04832297,0.17841028,-0.14292403,-0.035944384,-0.024424193,0.06806808,0.059568945,0.034664284,-0.108805306,-0.00040744388,-0.05946927,-0.09920342,0.11039661,-0.0021166161,0.13859597,-0.120409064,0.011036629,-0.051299147,0.09607615,-0.28370675,0.17970885,-0.08533011,-0.058230788
Q15118,-0.0014205843,-0.13604096,-0.15456913,-0.118467234,0.09414959,0.005845276,-0.019563513,-0.22721885,-0.17369643,-0.0052120998,-0.022779914,-0.05225124,0.050391838,0.032055635,0.08839434,0.010187252,-0.1457497,0.041154947,0.048023432,-0.01526733,0.062455785,0.19759841,0.028752789,-0.009029134,0.11081963,-0.17057662,0.1568869,0.1426882,0.0017886227,-0.052961424,0.004484713,0.08869086,-0.14475125,0.030747216,-0.21185124,-0.115432866,0.08296606,0.0019424051,-0.028764581,0.10315014,0.13623399,-0.08333082,0.07277156,0.011473387,-0.025163312,-0.15908115,-0.029525002,0.05687368,0.02452291,0.08214786,-0.046662133,0.13652277,0.03740582,-0.14820513,0.004333766,0.06252583,0.085842624,0.07687037,0.017736886,0.0077587776,-0.08805947,0.08912434,-0.028308582,-0.031185117,0.05283377,-0.082034074,-0.040772833,0.028119199,-0.014767181,-0.024435045,0.041556325,0.10114298,-0.2703759,-0.056679744,0.10277948,-0.07712216,0.015229022,-0.053510353,-0.012561035,0.057412066,0.007832206,0.027218593,-0.00699232,0.07220472,0.08532548,-0.014885048,0.023658527,0.040637422,0.11461075,0.010951725,-0.06904555,0.0145783415,-0.036489304,-0.11177599,-0.033037428,-0.010977887
P06493,-0.15064795,-0.026316954,0.09906012,-0.14237909,0.21203886,-0.116885744,0.14586417,-0.08728631,0.032882206,-0.17224687,0.08695178,-0.1425924,0.18198757,-0.055035397,0.07681905,0.1645163,-0.016973695,-0.021968475,0.024355048,-0.057450477,-0.09417049,0.14224452,-0.16740692,0.1066556,0.038858462,0.098001674,-0.06372183,0.14506087,0.052575964,0.119433686,0.020358022,-0.17235069,0.02257891,0.034055114,0.06963616,-0.19625486,-0.030913545,0.12206921,-0.0119553,-0.19921744,0.14419475,-0.12703137,0.019872373,-0.010006049,-0.27164227,-0.013522131,-0.034881394,-0.06771397,0.10801773,0.12559563,0.01450092,-0.015800746,0.0561332,-0.04979474,0.08631671,0.20832972,-0.037976123,0.008159084,0.104300894,0.018647406,0.0631338,0.06537159,0.09605818,-0.02450799,0.09350901,0.059708253,0.092897795,0.16028129,0.019417452,-0.0625304,0.081739925,-0.06780984,-0.11097883,0.07211319,-0.14167416,-0.046269156,-0.15258095,-0.11617497,0.17857768,0.29298595,-0.027742634,-0.09663307,-0.03825559,-0.050537147,-0.030753564,0.114201,-0.30399767,-0.12683123,0.042784516,-0.24826303,0.11258917,0.114379734,0.10171187,-0.10369691,-0.09244384,-0.09843307
P50613,0.029378591,-0.001517687,0.00055869215,0.05727256,-0.0056873052,-0.01134285,-0.006217551,0.01905155,0.033394147,-0.009532967,0.0067320326,-0.008096204,-0.08008246,-0.066749096,-0.0022345693,0.019024316,-0.032092724,0.01677867,-0.053941496,-0.019816391,-0.059570417,-0.01292746,-0.042723767,0.041521475,-0.018100124,0.011666789,0.003207839,-0.023316205,0.04004592,-0.024345806,0.05517938,-0.08508027,0.02520531,-0.06171641,0.022953078,-0.025192529,-0.0007720376,-0.032415837,0.04770323,-0.00015880456,0.025375647,-0.039273616,-0.0795439,-0.008065419,0.0029014547,-0.07812268,-0.024461383,-0.05717005,0.016793605,0.007634256,-0.03636115,-0.011095183,0.0032495318,-0.014271239,-0.051552642,0.061752796,-0.0686636,0.06530685,0.0023916606,0.034336224,0.056703337,0.031362157,0.04110767,0.0035141965,0.01978763,0.035249982,-0.026213855,0.033660233,-0.013510951,-0.053513866,0.013788347,0.22548847,-0.04177148,0.02752311,0.07055584,-0.04168327,-0.039020408,0.018179927,0.005310277,0.01941434,0.0134478975,-0.018240761,0.012762852,0.030044539,0.038498778,-0.0012579119,-0.07193016,0.020531332,-0.044611234,-0.056543794,0.025354043,0.0005253714,0.02821022,0.04074049,-0.0028982738,0.043034457
P49841,-0.105450764,-0.07385556,0.19951953,0.13791169,0.3023467,0.21626404,0.15781857,-0.02761121,0.048201133,-0.021040844,0.058217652,-0.26914868,0.0030897015,-0.051102594,0.0130737815,0.023693295,0.050152976,0.23471627,0.030998616,-0.20517993,0.14971635,0.22283842,0.394253,-0.1104628,-0.15873593,-0.014079016,-0.13776565,-0.23663163,0.040391456,0.19128309,0.53652793,-0.08804127,-0.054535013,-0.27816176,-0.10873265,-0.122120194,-0.39488515,0.22223696,-0.034438998,-0.13366488,-0.061670426,-0.054368556,0.14271446,0.0042911745,0.074610665,0.16351356,-0.25657406,0.27830073,0.22080752,-0.20804556,-0.35551816,0.26095307,0.22454774,0.17387028,-0.31012097,0.08679807,0.17131154,0.23890981,0.11345855,-0.049440265,-0.28090224,0.059543405,-0.037741672,0.03650944,0.22068922,0.34193712,0.12648495,-0.19148892,-0.11208067,0.09145056,0.031234208,0.025493564,-0.0667592,0.16048704,-0.1589131,-0.31936574,0.029363887,-0.059908845,-0.038971577,0.15712726,0.056349937,0.038944725,-0.10690509,-0.34828705,-0.06050917,-0.113341756,-0.08201488,-0.09281517,0.11021044,-0.5055891,0.19536263,0.24053802,0.25696287,0.020776402,-0.23348354,-0.16247496
Q02156,0.048051257,-0.03333066,0.00026301708,-0.016781107,-0.007998634,0.0018307476,-0.00876822,-0.027945997,-0.05489714,-0.01853583,-0.021386886,0.0028994898,0.020695437,0.013066383,-0.019896312,0.0019345094,-0.018593702,-0.046932697,-0.039550155,0.010912191,-0.0362073,0.041445125,0.002091736,0.026834607,-0.016955156,-0.0312398,-0.02462261,-0.013502422,0.006444033,-0.0008573544,0.016593466,0.039989244,0.016426656,0.013867285,-0.03872677,-0.010684478,0.015148292,-0.045839258,0.030215932,0.018100895,0.025952866,0.036176343,0.053455986,-0.0057962122,0.014362357,0.026919853,-0.021690862,0.031914428,-0.015626574,0.026300455,-0.025435442,0.024655439,-0.0073050563,0.032515723,-0.0339429,0.005602174,-0.029772222,-0.02120661,-0.011091625,-0.015843341,0.04673407,-0.11654485,0.003652531,0.0076981084,0.008580793,-0.02190754,0.014116146,0.0015986497,-0.022747755,0.010662806,0.0055419416,0.02543987,-0.010965836,-0.037314806,0.016880816,-0.02331303,-0.008472616,-0.028335484,0.069987334,0.04256163,-0.00091168424,-0.036657475,-0.004464574,-0.015159402,-0.008201852,0.017042933,0.029585637,-0.044740222,0.00532506,-0.013898555,0.017583365,0.00789687,-0.016020471,0.021298448,-0.033353336,0.03208613
P49137,0.0017609468,-0.010267915,-0.0018822167,-0.006064274,-0.020568646,0.013921683,-0.014495936,-0.0070289187,-0.02097146,-0.020046746,-0.04502014,-0.012235893,-0.025939265,0.028190628,0.057590578,-0.019530866,0.013327694,0.03575216,0.016559405,0.0281723,-0.008493829,0.0077537405,0.04580502,0.009760464,-0.030090159,-0.044012982,0.010922969,-0.019077247,-0.049695585,-0.03410124,-0.033850256,0.0044043497,0.0005738744,0.007892921,-0.022588694,0.0063792937,-0.011030965,-0.031916566,0.013379499,-0.008456672,0.036602426,-0.02162277,0.0024658684,0.0016147405,0.0035100575,0.022914913,-0.01953684,-0.015576505,0.02164657,0.0373786,0.003841897,-0.010601462,0.013873525,-0.0040185745,-0.011960311,-0.050496683,-0.05198642,-0.026375514,0.025546147,0.007259729,-0.03394216,-0.012805951,0.012567609,-0.09752568,0.0115680555,0.023394413,-0.022138124,-0.013959262,0.011803926,0.0027218459,0.010356644,0.018741462,-0.031493258,-0.007351159,-0.0021750876,-0.007951037,0.05018852,-0.016589675,0.00445879,0.0222538,-0.03034291,-0.0089512095,-0.03817526,0.014039805,0.00085312995,0.039067224,-0.027477287,-0.015786013,-0.0028583745,-0.0255803,0.018806143,-0.009172773,-0.0058298944,-0.018492732,-0.01966502,-0.008141111
P07101,-0.13382126,-0.010812006,0.27331057,-0.06616681,-0.0739416,-0.060316943,-0.34938374,-0.4014231,-0.03738386,0.10454929,-0.24399991,-0.11486556,0.06962786,0.019020086,0.15172087,-0.06417317,0.20854054,0.551137,-0.16180333,0.12725572,0.0060699345,-0.19658032,-0.08045664,-0.105845675,-0.17234527,0.49874112,-0.12464119,0.07586283,0.13727686,0.18534514,-0.15354769,0.037089888,0.05593777,0.15647838,0.09309857,0.11707545,-0.06513261,0.4874219,0.090530664,-0.1054595,0.057209726,-0.12869112,0.032209724,-0.05420887,0.0075860303,-0.08056694,-0.08976905,0.02015001,-0.14090759,0.22188634,0.13082604,0.05299707,-0.1490275,-0.04736497,0.049243856,0.0064749587,0.38294807,0.058791246,-0.0072492324,0.14802264,-0.018205773,-0.24148189,0.026443759,-0.48205382,0.4804961,0.2211716,-0.08661655,-0.06596885,-0.070098706,1.1078582,0.22934583,-0.051178075,0.31624925,-0.09361197,0.0024079038,-0.4415407,0.23009907,-0.14733028,-0.22441408,0.23508789,-0.078682646,0.17624812,-0.46287763,0.5095218,-0.15284956,0.08077756,-0.21341585,-0.2693189,-0.121078715,-0.14004402,-0.14535391,-0.23465268,0.060923412,0.41686776,0.04152083,-0.07364898
P08631,-0.05632663,0.03819663,-0.08152254,0.071843565,0.022962546,0.0039337883,0.010547063,0.0026800646,-0.009427942,0.03839749,-0.015666954,0.045420904,0.0104201455,0.065202154,0.033429846,-0.008404553,-0.023926128,-0.022674972,-0.006636934,-0.050572954,0.0544977,-0.00056145375,-0.0061623887,-0.01667411,-0.020198816,-0.12014007,-0.023453536,0.002893518,0.072495095,-0.03587321,0.011727021,0.052980177,-0.03522351,-0.02737719,0.032290068,-0.09110335,-0.031412654,-0.014896843,0.03056162,0.042605933,-0.029401712,0.02938065,-0.08958911,0.063226864,0.011821458,0.0972738,0.049026493,0.049576756,0.048346844,0.10750572,-0.012771455,-0.083165325,0.042930424,-0.13398628,-0.07163233,-0.06762497,0.030437266,0.030380003,-0.08096633,-0.031846374,0.07045159,0.014378685,-0.0011363479,-0.00093755685,-0.03563675,0.047321796,-0.00069442624,-0.018737255,-0.025839143,-0.014728284,-0.042178035,-0.004763447,-0.0640626,0.019833967,-0.0017244964,-0.04413039,-0.08084807,-0.04059078,0.0551527,0.0381865,0.0058399276,-0.030629298,0.053787377,0.046851348,-0.019870145,0.045570724,0.0019509109,-0.020201487,-0.05550699,-0.036036693,-0.002756149,-0.06951597,-0.07045622,0.04543196,-0.059274867,0.024492078
P11274,-0.020996848,0.07727702,0.073936544,0.045486942,0.031970594,0.011605114,-0.028317546,-0.089709476,0.0073948987,-0.023382174,0.0042738887,0.03029478,0.022445478,-0.0016700441,0.001038072,0.036262464,0.09345175,-0.00781046,0.022625042,-0.042263214,0.030395899,-0.015727736,0.009623566,0.041379247,-0.21785498,-0.011181287,-0.023565764,0.052510574,-0.014895667,0.012941817,0.086318284,-0.01747569,0.0069599226,-0.045371257,0.10716116,-0.04213798,-0.004045189,-0.04526597,0.02064647,-0.062580414,-0.12713215,-0.03901977,-0.026516758,-0.002008523,-0.016247798,0.0077381213,-0.13057369,0.07357679,0.032674138,0.046550933,-0.02552353,-0.044161066,0.082061626,-0.10322319,-0.026316848,-0.05295821,-0.059700675,-0.058742203,0.0005078309,0.02793026,0.11617024,-0.038286917,0.0013485658,-0.22537665,0.077827744,0.039119493,-0.019136228,0.039319087,-0.05397278,0.014470236,-0.025377616,-0.064497456,-0.052425943,0.1115326,0.19214477,-0.20560102,-0.08495156,0.03850147,-0.0126599595,0.006455415,0.035843674,0.032322768,-0.05940324,0.06031625,-0.02447247,0.044451453,0.052038245,0.06522607,-0.0690693,-0.013678867,0.09086265,0.07398048,-0.059673563,-0.067255765,-0.09599504,0.005027869
P17612,0.024472728,0.013380241,-0.01116063,0.0008659578,-0.031010065,0.012341827,0.0370865,0.011095796,-0.021483524,0.0013033082,0.0329667,0.0011280008,-0.011230491,-0.016959246,-0.0011854295,0.00419461,0.013786233,-0.016973337,-0.0019957838,-0.0114286095,-0.0039199167,-0.013093063,0.0031310604,0.0065671825,-0.0007549457,0.008644941,0.0036284903,-0.014191434,0.0038212952,-0.017012022,0.022932528,0.0064689876,-0.0021371937,-0.0033521862,-0.00381068,-0.0017370414,-0.014528445,0.0134255355,0.0029370738,-0.012360067,-0.0009927913,-8.687165e-05,0.007541227,-0.016548553,0.000758146,0.0039044279,-0.023670552,-0.023763204,0.023876805,-0.0035013896,-0.0003368233,-0.065441206,0.0051906286,0.002567786,-0.0077270363,-0.020393567,0.024358157,0.003232152,0.0108018825,0.025598884,-0.002085986,0.007705695,0.0062449733,-0.015633442,0.0016869828,0.0068320897,0.0035207674,-0.0009785828,0.014150758,-0.17605293,0.0105030425,0.017596556,-0.010619675,-0.0032855466,-0.0056996024,-0.00011407497,-0.0036416005,-0.008082411,-0.010547577,0.009031417,-0.006554429,0.011403144,-0.018631008,-0.017016731,0.002651661,-0.0013454749,-0.00439124,0.015665093,-0.011555965,-0.008015646,-0.008277424,0.005919214,0.0008651841,0.01746116,-0.0053976085,-0.012662956
Q9UBL0,0.0012149998,-0.018834703,-0.0047418806,0.026169391,0.033270407,-0.08887418,0.025149964,-0.16509452,-0.03397363,0.041454833,-0.06356241,0.05132578,-0.046383817,0.03328953,0.015694408,0.1262552,-0.06876263,-0.06750458,-0.08799139,-0.053346377,-0.22496165,-0.044598956,0.11165295,-0.034076195,0.04160104,-0.49691913,0.09315438,0.06912518,-0.084630564,-0.22310448,-0.067009866,0.07377201,-0.065593205,-0.046995517,0.31698325,-0.109860495,0.01015847,-0.113481216,0.10136665,0.09033631,0.040166967,-0.027763087,0.0029774085,0.049163323,-0.022246072,0.029794278,-0.102916546,-0.06382276,0.050068974,-0.016712317,-0.009053621,-0.11251157,-0.035200443,0.045378912,-0.106305145,-0.078036815,-0.060071543,0.09072002,-0.053118996,0.06412006,-0.82729864,0.008979386,0.22921091,0.040676013,0.08031289,0.10435463,-0.18234396,0.73231554,-0.02190267,0.26221126,-0.1093021,-1.028191,-0.011340808,0.075131655,0.10563539,0.0062206946,0.12724511,0.055625886,0.058818616,-0.08418387,-0.10828965,0.031821806,-0.30395287,-0.44921398,0.014529578,0.6055885,-0.009492389,-0.11179337,0.55994153,0.2275809,-0.050365306,0.012056526,-0.20704694,0.03952115,0.040601596,0.64952165
O43524,-0.19285901,0.07899557,0.2469361,0.15401083,0.058793347,0.061076745,-0.15864682,-0.0765647,-0.00041011543,-0.08101418,0.11371533,0.08519237,0.21929483,0.13804205,0.097277656,0.2109443,-0.2003799,0.25331113,-0.15340665,0.35254383,0.44018394,0.28130573,-0.17413844,-0.3139285,0.10393424,0.2327679,0.31280622,-0.1504678,0.08502256,-0.0034891726,0.2153484,0.08101856,0.12841001,-0.87953043,-0.3300328,-0.27423003,0.17799725,0.16963583,-0.036367778,0.59265476,0.097960025,0.13938603,0.24133086,0.012642975,0.12680721,0.30670664,-0.13105798,-0.02656608,-0.2844423,0.21972556,-0.25664362,0.1666656,-0.10857902,-0.14289162,0.086820334,0.01037112,-0.16362149,0.008210999,0.013545053,0.28377745,-0.19029215,0.19826593,0.7378855,-0.2635251,0.29176015,0.014141832,0.29672018,-0.0731978,-0.26164836,0.11302343,0.10837368,0.34508926,-0.333576,-0.50921035,0.10967457,0.0075467452,-0.19113563,-0.05507428,-0.071422,-0.72878516,-0.4022373,-0.21876137,-0.2134613,0.22200145,-0.008347992,0.03199402,-0.7395569,0.3600507,-0.14289548,-0.098829344,0.2601531,0.2868055,-0.00096588576,-0.031056585,0.068747796,-0.13076217
Q13627,-0.060737357,0.03003134,0.04493545,0.06283925,0.011299521,0.031694263,0.014449171,0.011488806,0.036627676,0.015692428,0.0175614,-0.043049425,-0.0050822785,0.009584257,0.08436922,-0.0039434712,0.030373521,0.0018312488,-0.007430474,0.0047855787,-0.0066896733,-0.0010458364,0.03121876,0.0069048065,0.02130677,0.014611039,0.006333443,0.016083544,0.066176474,-0.032505773,0.0126618575,0.012926426,0.020029103,0.025573717,0.01396487,-0.038901154,-0.012540201,-0.013146434,-0.034567587,-0.025952667,-0.051119056,-0.03203516,0.05905882,0.043009024,0.0025831615,0.02759102,-0.05031484,-0.0065084924,-0.021308362,-0.048861314,-0.0010095488,0.056078084,0.04831409,0.00989469,-0.025057646,0.0059462767,0.10277744,-0.006137203,-0.00923763,0.027631529,-0.036189057,-0.4140592,0.010952021,0.008934122,0.0018928059,0.012040365,0.029264724,-0.0031323414,-0.0051825964,-0.030369872,0.014368363,0.018416427,-0.07473575,-0.01441302,-0.018196328,-0.026947837,0.0055388086,0.003964494,-0.044298545,-0.040384497,-0.008829761,0.020672744,-0.03872037,0.017025813,-0.03754096,0.009420352,-0.031704515,0.0044591227,0.036682326,-0.015016754,0.0016704132,0.04155442,-0.015576824,0.053532317,-0.01039501,0.025689669
O14965,-0.02629641,-0.01559759,0.08028934,0.025764393,0.05773229,-0.012467152,0.101003855,-0.04752468,-0.021800969,0.025102846,-0.059344128,-0.028250407,0.0017775337,0.047988605,-0.015198037,-0.027554557,0.00017083425,-0.018438416,0.026942529,-0.047766995,-0.013985623,0.011948125,-0.035840306,0.02020157,0.022045217,0.03286062,-0.06253922,-0.022364572,0.00013825487,-0.031938758,-0.046050515,-0.016543685,0.047351375,0.029473579,0.017835272,-0.029502718,-0.026240138,-0.0357301,0.00787215,-0.056842543,0.039979327,-0.06315292,-0.012787061,0.017123602,-0.021595502,-0.05529687,0.021689275,0.011494176,-0.009099116,0.015494841,0.017147861,-0.036408506,-0.040514994,-0.071743794,0.015820812,0.05212254,0.03805727,-0.049453612,0.042882085,-0.07820505,0.051521897,-0.025992103,0.037150107,0.017199472,-0.030111613,0.016337387,-0.005914234,0.028434528,-0.068234764,-0.05319895,-0.0075151655,0.020557368,0.009452856,-0.042339228,-0.15715382,-0.004944031,-0.014468959,-0.007542133,0.04822025,-0.024429748,0.060941014,-0.06422563,0.05256306,0.011579567,-0.01842442,0.038147315,-0.056023758,-0.016210841,-0.05593489,-0.0017115362,0.07625673,0.026454732,-0.0018101208,-0.042808942,0.04291391,0.007222431
P24941,0.011619319,0.031129701,0.012275604,-0.04973148,0.015096312,0.0012742118,0.018573087,-0.0052854307,0.033861913,0.030038796,0.020758897,-0.025499891,-0.0075243306,0.034946173,-0.02717451,0.032760017,-0.028940147,0.018782167,0.022693442,-0.008535694,-0.047898266,0.04220066,-0.013908309,0.029161083,-0.011177986,-0.005834462,0.009012393,0.04450663,0.030303769,-0.050121497,-0.022133272,-0.09411057,-0.011329025,0.013522445,0.0080861375,1.6225065e-05,-0.038372867,0.0020054022,0.012767965,0.013999749,0.030511484,0.041253116,-0.031870183,0.0054290085,-0.030704483,-0.048588146,-0.04123687,-0.008965937,-0.008408573,-0.038508832,0.0042482857,-0.04604357,-0.011574002,-0.0012726935,0.0032829158,0.013861048,-0.03393486,0.022267349,0.014285195,0.0122624505,0.033048566,0.017747417,-0.025347391,-0.036335226,0.0007445958,0.022337347,-0.0152701195,0.01812668,0.041421995,-0.04146519,0.024766522,-0.004735378,-0.023641424,0.013409115,-0.021244364,-0.006167487,-0.010947605,-0.00056978565,0.016143054,0.078087576,0.040345486,0.035665065,0.048650127,0.00288004,0.02256023,0.0076417476,-0.038147412,-0.018005252,0.013364628,-0.026632605,0.019434175,0.035627037,0.00853534,0.0263969,-0.005495264,-0.016734056
Q71UM5,0.22347255,0.05633086,-0.10310683,-0.07724706,-0.0015335636,0.0777433,0.036435813,0.117305376,-0.11063623,0.04092657,0.030338123,0.12541577,0.024141451,0.09724721,-0.77742463,0.23296693,-0.0234407,-0.09210992,0.0050283126,-0.0066418345,-0.04404719,-0.08281216,0.10336923,-0.11958553,0.09971534,0.086691596,0.049305305,-0.047388196,-0.27298146,-0.09667441,-0.046177235,-0.5944493,0.071892865,0.007227378,-0.11450072,0.23862319,-0.025032638,-0.11985491,0.10373816,-0.015102206,-0.08625946,0.031119525,0.060648236,0.2472112,0.08325055,0.019628068,-0.014665907,-0.099507466,-0.15693258,-0.026583148,-0.10893136,0.043141358,-0.06997039,0.17029588,-0.15648831,-0.06253842,0.20249218,-0.48768282,0.00244612,-0.1644338,-0.07170734,-0.05373817,-0.0072347913,-0.018908767,0.020264387,0.06261554,-0.0301518,-0.028370969,0.0075175865,0.3546778,-0.066246964,0.020073844,-0.0039329994,-0.13704036,-0.061538223,-0.04286438,0.23516804,-0.00063206634,0.39163274,-0.07071246,-0.002859503,0.9363952,0.91571516,0.049519617,0.17203806,0.077565745,0.028863706,-0.10230907,-0.009144813,-0.39192158,-0.083907336,0.053700622,0.0061703105,0.17890854,0.7054418,0.1271374
Q13164,0.052241836,0.128156,0.20358007,0.025781069,0.15596537,0.092152454,0.32135385,-0.08501676,-0.11335012,-0.064034455,-0.1512202,-0.05054079,-0.16819493,-0.058968887,0.20005424,0.383962,-0.028997077,-0.11834199,-0.07917634,0.12013607,0.4518934,0.15442048,-0.113843605,-0.09274678,-0.10335436,0.15300117,0.12576258,-0.057611424,-0.22935747,-0.19676836,0.24773341,-0.07742421,0.028156964,-0.13349512,0.19315659,-0.08634141,-0.3716979,0.1732516,-0.13264757,0.3210696,0.26963076,-0.17882855,0.50638884,-0.34770367,-0.1062018,0.06111477,0.12980264,0.29373643,0.09404907,0.21962012,0.010446366,-0.42167622,0.11422706,-0.009491677,0.07980032,-0.058175903,0.05074699,0.08109129,-0.28824875,0.33855492,-0.03370578,0.036779374,0.260695,-0.16547549,0.19521658,0.109252445,-0.13276276,0.075753614,0.036330406,0.41937026,0.3027159,0.49048775,-0.26637337,-0.10882255,0.04934064,0.14627394,-0.27840465,0.3567687,-0.10833611,0.11475001,-0.55850124,0.0820038,-0.08948457,-0.1210044,0.074804865,0.1350179,0.06047119,-0.042089134,-0.2622118,-0.52684134,-0.01834603,0.4589446,0.003864516,-0.24995662,0.11684878,-0.013321569
Q02078,0.07050704,-0.0026452004,0.34174827,-0.08539424,0.12692378,0.006668892,0.43420666,-0.068092376,-0.067141086,-0.03478567,-0.19761558,-0.1340917,0.15638117,-0.01435801,0.08909611,0.30939505,0.033046633,-0.18778932,-0.09519987,0.24665447,0.52420694,0.25188074,-0.09880917,-0.19396035,-0.0368305,0.18329978,0.046606664,0.08521661,-0.28444862,-0.13797198,0.17679846,0.014310787,0.011122407,-0.008012215,0.30646688,-0.12371189,-0.40415293,0.17910126,-0.13721424,0.32116103,0.27458444,-0.10305144,0.47251415,-0.39947176,-0.27188548,-0.011277974,0.21308057,0.25018033,0.06627915,0.26079667,0.007206909,-0.58060163,0.12179994,-0.21240681,0.03618597,-0.091760166,0.046758007,-0.037144102,-0.29884237,0.5880447,0.06469268,0.13192917,0.092462614,-0.2657449,0.24332663,0.1875438,-0.14931129,-0.006738238,0.041929252,0.76780665,0.55627775,0.42480198,-0.12991546,-0.091422446,0.107221626,0.21321215,-0.28767592,0.49092188,-0.12976433,0.4666384,-0.53693694,0.110563934,-0.11223125,-0.0966273,0.29698622,0.19592188,0.08797325,-0.053859416,-0.25589254,-0.50835854,-0.12760235,0.4711634,-0.10003037,-0.35544702,0.25687745,-0.024805207
P38432,-0.1167342,-0.05958713,0.020595457,-0.034359746,0.03789562,0.1430586,0.6514161,-0.19334224,0.22752132,0.102780566,0.45019943,-0.07342781,0.12031343,0.066264234,-0.0070703435,-0.26158306,0.21444,0.012214875,-0.0092133535,-0.061426252,0.11198038,-0.083574645,-0.16979921,-0.1533443,0.16809934,-0.033289634,-0.8429052,-0.13194035,0.020251019,0.06391962,-0.14140673,0.10332615,-0.039089225,-0.03463687,0.019286416,0.12940177,-0.03480603,-0.9755697,0.054235056,-0.02889211,0.046880357,-0.11221144,0.09848372,0.10639294,-0.062790506,-0.049133547,0.11811428,-0.0520889,-0.12598974,0.11966634,-0.07846103,-0.09115173,-0.110429764,0.018507326,0.1347765,-0.024694698,0.13933806,-0.12794404,0.11179261,-0.10218783,0.2321611,-0.07594242,-0.030722745,-0.05346916,-0.036302168,-0.17965329,-0.6136455,-0.028124332,0.031987138,-0.11467331,0.09125254,0.05685936,0.04707361,-0.82055634,-0.07001405,-0.13276495,0.11062001,0.19449249,0.054573625,-0.09133751,0.050747436,-0.24459453,0.07203422,-0.16730657,-0.117011584,-0.29108024,-0.15677217,0.7405932,-0.17916101,0.066085294,0.014856397,0.083541505,0.111061014,-0.08376267,0.1420268,-0.20271973
Q14896,0.11236405,0.029250309,-0.6043751,0.07903133,0.31477842,0.64001554,-0.03136397,0.08709057,-0.07201919,0.058571506,0.090246245,-0.34744665,-0.15008384,-0.16745912,0.14499478,0.06739825,-0.030789835,0.2212414,0.13654625,-0.12571359,-0.24093965,0.031289943,0.2997464,-0.6117334,-0.06365778,-0.009257174,0.20710167,-0.19299841,0.12308895,-0.09162777,0.24543688,0.13620527,-0.22096904,-0.08889715,0.28356734,0.20738082,-0.17567238,-0.1317515,-0.5367113,-0.22977771,-0.17572744,0.42192006,-0.0950678,-0.29374874,-0.015007088,0.11040965,-0.055686846,0.30425897,-0.0044540763,-0.007037149,-0.36568365,0.13351105,0.29973236,0.06379289,-0.021689555,-0.105619155,0.10870298,0.18903117,-0.012686602,-0.12895355,-0.23736128,0.17608084,0.0005219138,-0.2748941,-0.01457747,-0.038406752,0.24689986,-0.0062947874,-0.13081914,0.20923665,0.2481909,-0.09846258,0.11967,0.28934416,-0.10258527,0.732505,0.017740166,0.13286312,0.045359273,-0.012759662,0.12697841,-0.28652003,-0.22523539,-0.32636118,-0.089054115,-0.0789781,0.0083382,-0.07097467,0.17071836,-0.09335963,0.44577327,0.11030017,0.05787599,0.27020267,-0.2526782,-0.6272745
O95747,0.011616435,0.09117955,-0.05562904,0.028646328,0.014455634,-0.02886679,0.16350359,0.057008885,0.07276832,0.050571408,0.06295734,0.05431649,0.09171107,-0.13220727,-0.04343192,0.032138217,-0.022740854,0.10101094,0.009418658,-0.07876011,0.049417958,-0.0019942855,-0.010056039,-0.053114537,0.13777655,-0.03282244,0.02504104,-0.10739154,-0.025211632,-0.0069273585,0.015648538,-0.059874054,-0.038212586,-0.025166873,-0.014747417,-0.15972544,-0.035248302,-0.005945312,-0.073381014,-0.04703354,0.028523486,-0.07677401,-0.019278822,-0.06941059,0.09166624,-0.058566462,0.034680273,0.17006387,0.07939575,-0.083129205,0.014372681,-0.048832666,-0.101204835,0.035017785,0.022611443,0.07160786,-0.03966251,0.045926005,0.009258962,0.07014858,-0.12242434,-0.074425235,0.046324987,0.045219444,0.0054966174,-0.012323043,-0.078464106,0.011193157,0.1442964,0.013876155,0.018664798,0.04347079,-0.048143804,-0.08442046,-0.006967346,0.061352335,0.022515371,0.056312673,-0.06513721,-0.07647268,-0.07006168,-0.039828125,0.027328633,0.034209706,-0.014082483,-0.04184378,0.02834192,-0.098470405,-0.04479309,0.07773686,0.0035467898,-0.0073285243,0.15304615,0.071487926,0.056515034,0.010469197
Q9UGP5,-1.2627928,-0.27286845,-0.00014802361,-0.11862325,-0.09949212,0.08107776,0.02044801,0.18057874,0.104725555,0.016463691,0.079372086,0.39465642,0.10453008,-0.14986394,-0.10336701,0.034172274,0.05730657,0.0625921,0.28071195,0.055232525,0.51217633,-0.079967834,0.1411309,0.05386168,-0.043916445,-0.09005618,-0.027614567,0.15382956,-0.08132974,0.016437957,0.07130241,-0.030124262,-0.20082267,0.007197185,-0.35779202,0.022162272,0.032333806,0.4258543,0.03879085,-0.002035924,0.5602645,0.26713052,-0.044563297,0.33942157,-0.0110781025,-0.019064715,-0.44189802,0.017572552,-0.87121683,-0.05417898,0.07389192,-0.0071137315,0.060199585,-0.028735334,-0.21389592,-0.047953974,0.022764323,0.046758004,-0.010183956,0.032944553,0.09673079,0.06649187,0.09921087,-0.073461,-0.0726639,-0.03621108,-0.010091187,0.06595458,0.11790306,-0.018311122,0.014490356,-0.28034824,0.008430197,0.003990468,0.13236703,-0.15955158,0.010595134,0.111216545,-0.11403025,-0.0058033885,-0.27671316,0.068729155,-0.01987514,-0.18937708,0.022044897,-0.053739842,-0.24894425,0.104998365,0.06614599,0.031225514,0.0032038752,0.036508434,-0.33373594,-0.06566601,-0.07098422,-0.08003515
P46937,0.1260619,0.04710182,-0.11290535,-0.07244472,-0.08002054,-0.19574755,-0.031154051,0.0059240516,-0.12522012,0.0037362564,0.04680989,-0.12859511,0.019770617,-0.1071908,0.06925199,0.15880722,-0.10720914,-0.043123774,0.029009942,-0.21066129,-0.045152344,0.08944951,-0.092928976,0.008762616,0.18351446,-0.23166266,-0.19206809,-0.025145939,0.15403761,0.16645198,-0.1136809,-0.051139943,-0.034015074,-0.08095551,-0.10411145,-0.07607169,0.1557641,-0.041211788,0.078282885,0.04750069,0.058289517,-0.17352992,-0.06980321,-0.0029402375,0.116145894,0.10337721,0.07132955,0.036728166,-0.0054997257,0.0043355864,0.1479933,0.017361034,-0.044091493,-0.026885772,0.03301255,0.06651742,0.02646013,0.03150356,-0.044349693,0.21502094,0.23553917,-0.022762852,-0.025928553,0.04451363,-0.00020662887,0.09733203,-0.0022846533,0.06538734,-0.062516354,0.27504957,-0.07412919,0.0940974,-0.054782625,0.10671525,0.165887,-0.08376594,0.15449657,-0.19871871,0.26061457,0.094802104,0.17930631,-0.19661388,0.0034387233,-0.10929297,-0.10016547,-0.09518458,-0.11273509,-0.11618147,0.15832843,-0.0019438552,-0.07844636,-0.11543223,-0.17536195,0.011260628,0.2503322,0.024721969
Q9UII2,0.0725847,-0.045443717,-0.059788078,0.038382076,-0.12486718,-0.07903518,-0.09771999,0.120776005,-0.025478216,0.06913508,0.58020824,0.1099843,0.050282493,-0.06754121,-0.08913817,0.71207225,0.027402624,-0.1210698,0.00856923,-0.00039368993,-0.05991882,-0.17540833,0.0155520905,0.058529302,0.033313304,0.24662668,-0.052878417,0.063942716,-0.037621256,-0.09717918,0.96623164,0.1595112,0.069745846,0.09624016,-0.031096412,-0.045849904,0.1492603,-0.016130937,0.09984541,-0.019580312,-0.013799121,0.11244573,-0.07088372,-0.010689849,0.08055675,0.025197165,0.024926925,-0.12118215,0.031857286,-0.0038189152,0.019136002,-0.0017882469,0.039673507,0.11226417,0.021553949,0.010490675,0.061380006,-0.2809969,0.29529867,-0.15301014,0.07584376,0.0650665,-0.046320915,0.182154,-0.06698313,-0.048177972,0.057081748,0.013147052,0.05460972,-0.052690346,0.10425318,-0.078172736,0.27324864,0.47734156,-0.06849788,0.09805621,0.060792837,-0.038679786,-0.0072107534,-0.12381614,-0.2149241,0.100370966,0.13440105,-0.25183558,0.3007743,-0.0018583568,-0.023308277,-0.0011843991,0.32114834,0.15701799,-0.044614125,1.2733301,-0.23365854,0.13977745,0.085403316,0.029040975
Q13371,0.13552134,0.05433521,0.028714983,0.6402183,-0.0769843,-0.5100923,0.071519285,-0.8181679,0.12135521,0.013282105,0.06551077,0.12690392,0.1031234,0.0166635,-0.17703065,-0.15602395,0.052193776,0.00041298542,0.04814832,0.058145985,-0.11897923,-0.1759789,-0.104221866,-0.008559272,-0.024164945,-0.3602652,0.09937174,0.0127029605,0.09936238,-0.106764466,-0.14002565,0.13551702,-0.31820858,0.17798133,0.022360556,0.19816297,-0.29705498,0.036488213,0.12042116,-0.18223661,0.041010357,0.1914934,-0.10660113,-0.09319418,-0.06586453,-0.13790077,-0.029372634,-0.12197714,-0.09093229,-0.057872627,0.05404104,0.698561,-0.02453661,0.19887514,0.018363124,0.04021718,0.07190454,0.1424155,-0.034087684,0.40833664,0.074039124,0.08070104,0.07487402,-1.0193943,-0.113036156,-0.0886929,0.01303861,-0.040503312,-0.33397692,-0.024473393,0.06545919,0.0025903985,0.11218656,-0.048899066,0.035722766,0.14975983,0.114078514,0.05578689,-0.08545519,-0.054575205,0.15673354,0.03219917,0.4356823,0.53108275,0.012188987,-0.041664142,0.1637083,-0.029244224,0.15427046,0.15127939,0.06209695,0.008069962,-0.01035494,0.04404777,0.051307376,-0.028112667
Q9BZL6,0.09003854,-0.09164119,0.07750323,-0.05758768,0.094252706,-0.04875386,-0.032812282,-0.24942574,-0.07138541,-0.20106414,-0.0644707,0.016236145,-0.004536195,0.09211122,0.11150308,-0.22375874,0.075105764,0.05615739,-0.04043728,-0.06478245,0.07011612,0.08909385,-0.072006166,0.21266682,-0.18602066,-0.030014941,-0.033816192,-0.22190587,-0.07296948,0.05592308,-0.23837925,0.18605767,-0.0035697601,-0.09500452,-0.016042685,0.11033391,-0.010435461,0.14241706,0.019168962,-0.0020781483,-0.06545206,0.052613467,0.07356452,-0.025210768,0.10499024,-0.08986307,-0.06427401,-0.016252408,0.09372351,-0.31089005,0.09310294,0.09100756,-0.13329764,0.0034786216,-0.12866941,-0.06679778,-0.015620419,-0.019022021,0.029856555,0.03925437,-0.051529136,-0.15340187,-0.16389725,0.064680554,-0.027371101,0.12247014,0.05943834,-0.056519944,0.016348468,0.06509682,-0.10736585,0.23006415,0.01314856,0.015936576,-0.038192883,-0.06736929,-0.07342455,-0.10919939,-0.09544415,-0.19618942,0.01205492,-0.1922107,0.023649035,-0.053693302,-0.15590222,-0.03689115,-0.09807506,-0.06638443,-0.21493962,0.10586634,0.003781891,-0.04451759,0.0018546688,0.030383736,-0.08363284,-0.118037544
P27361,-0.04249991,0.07150702,-0.020223793,-0.26470688,-0.020641655,0.08584715,0.058378775,-0.0996015,-0.038596973,0.024306444,-0.044558015,-0.0337159,-0.03741811,0.03475246,0.05434661,0.047928303,-0.024714421,0.035003144,-0.016098004,-0.07012472,-0.028980661,0.03364898,0.03330995,0.04442526,0.004584074,0.00067316816,0.052772194,-0.07105904,0.017371401,-0.015085958,0.025029654,-0.09117618,0.070695855,-0.041632853,-0.058761343,-0.08741079,-0.09103485,0.014863834,-0.015756123,0.0102034,0.06294408,-0.09466411,0.07815717,0.036060683,-0.041232757,0.028760836,0.018279988,-0.02090304,-0.01576946,0.017440885,-0.03842626,0.041254744,0.015392464,-0.0177257,-0.025617532,-0.008197301,0.06205621,0.034085907,0.0009408548,0.0125572765,-0.048392367,-0.011722296,-0.047087412,-0.017281929,0.063266076,0.08020918,-0.02540327,-0.010182174,-0.04287188,-0.029403625,0.037815142,0.043457333,-0.06663041,-0.0075008683,0.014664976,-0.000116428186,-0.045143526,-0.024539126,-0.008353384,0.022473909,-0.025410749,0.040264368,-0.017724339,-0.09318753,0.037571155,0.010698972,-0.07638502,-0.010359225,-0.044416033,-0.08315343,-0.0009016703,0.048322763,0.021911336,0.045231782,-0.048634175,0.061010603
Q969V6,0.13106507,-0.5209327,-0.11343251,-0.5153732,-0.07671831,0.1896386,-0.019988347,0.07636226,-0.44831902,-0.14465412,0.024341295,-0.060233116,0.10697631,-0.091804266,-0.077872194,-0.122367315,0.12566929,0.04063238,0.01150406,0.027448203,0.0051630964,-0.26523185,-0.008352161,-0.029860597,0.06429492,-0.13009226,-0.108763,-0.1046877,0.0280929,-0.124678135,-0.12298745,0.14956917,0.8367253,0.070459984,-0.050100636,0.06581451,0.06541672,0.025038527,-0.0038975535,-0.031141417,-0.081643976,0.14269987,0.19678529,0.11320386,-0.03544519,0.2037328,-0.02017661,0.23062915,0.7930784,-0.0340412,-0.051805746,-0.6171009,0.6490113,0.022875333,-0.0035605384,-0.1924333,-0.17410076,0.12095435,-0.073463544,-0.118560456,-0.06860957,0.08358898,0.04084137,-0.53927934,0.14366211,-0.19410674,-0.023162542,-0.0102779735,0.12402813,0.016978076,-0.124948986,-0.09873064,0.08521303,-0.12643574,-0.025407037,0.04624485,-0.009377336,-0.7475506,0.02167813,-0.019996656,0.15799043,0.021596786,0.08485728,-0.059620775,0.011916175,0.008740565,-0.0035295417,0.14200181,-0.0017266339,0.1451765,-0.10966305,0.4461417,0.034083266,0.08754045,-0.065636076,0.0679196
Q16832,0.07622699,-0.016662966,0.045505892,-0.022126807,0.002050915,0.20322281,0.030512542,0.045850422,-0.68605494,-0.038261358,0.041132588,-0.10707783,-0.05427148,0.3328727,0.14719097,0.07913545,-0.025845302,0.42608747,0.04116761,0.61598897,-0.117456324,-0.02668447,0.05747107,-0.002428337,0.052801844,0.0074139205,-0.04524328,-0.03741012,-0.056066822,0.0669318,-0.06152397,-0.031671617,-0.07450464,0.009026104,0.07073041,0.03467813,0.04688473,0.023630379,-0.09409891,-0.08656791,0.3925485,0.025243346,0.022541441,0.07256944,0.030036416,0.007337837,-0.028395295,-0.023877641,-0.13727358,-0.22510128,0.07346658,-0.061876595,0.1414677,-0.106278524,0.051201116,0.04965303,0.25607264,0.06856289,-0.039708912,0.07935853,-0.03679463,0.06269919,-0.022068372,0.022928355,-0.10952128,0.009147175,0.79395753,0.035861637,0.030105649,0.0021924733,0.021741344,-0.013046057,0.009548061,-0.048658524,0.04132226,0.0917945,0.082005665,-0.19758116,0.0005935233,-0.05595241,0.24433863,0.1680466,-0.03253906,0.0516501,-0.073023096,-0.21238886,1.3603992,0.04808747,-0.036143325,-0.11820711,-0.54856706,0.03808833,0.07913436,-0.09255586,0.06807934,0.19130471
Q92547,0.01996206,0.015620511,-0.038739342,0.012532974,-0.008413161,0.022487264,-0.0066629406,-0.061350115,0.012360296,-0.032130692,-0.054354046,-0.025146578,0.022641284,-0.006793192,-0.04146293,0.08316203,-0.014674858,-0.004434312,0.027472798,0.031266347,0.029430136,0.06491484,-0.0040057506,-0.030898407,-0.057246335,-0.0047758785,-0.0036938868,-0.036219265,0.008988131,0.026850242,0.021444006,-0.010926498,-0.008946025,0.031117119,0.056478243,0.052386664,-0.07956789,0.011277576,-0.038377367,0.020766139,-0.0016604535,-0.047034048,0.06825675,-0.022240983,-0.097796686,0.0129245585,0.019767858,0.061229467,0.04015447,0.004082812,-0.04638091,-0.038576614,-0.02926176,-0.07453696,0.042155012,-0.087904036,0.0179939,-0.036623146,0.03725548,0.05597391,-0.015319598,0.011859681,0.0061597507,-0.053471006,0.023798062,0.02987301,-0.008676383,-0.020567112,0.0072000935,0.04496767,0.028329829,-0.002445271,-0.041217394,0.030133244,-0.006349964,-0.1019214,0.017085617,0.07642832,-0.0072065797,0.04557504,-0.085883446,-0.008270174,-0.013686802,-0.028205374,0.040299356,-0.013331469,0.012391294,0.00038118003,-0.031798355,-0.058111966,-0.0069934716,0.08134943,-0.019376136,-0.055007786,-0.00016709964,-0.0185448
O14757,-0.10123943,-0.014091497,-0.008057573,-0.057765763,-0.00042332886,0.015772508,0.055795383,0.053892367,-0.02028029,-0.12826942,-0.10210771,-0.043331802,0.07310729,0.0041340506,0.018534055,-0.048658166,0.07223513,0.06329931,-0.0046528974,-0.040324103,0.06441541,-0.08065243,-0.061085127,0.03230268,-0.014714675,-0.017939799,-0.034937426,0.04076526,0.018056411,0.037818346,-0.10461418,-0.08347159,-0.0068425965,0.11411902,-0.0025353534,-0.031290904,0.021606734,0.12873596,-0.038483832,-0.09291483,0.010238767,-0.06704721,0.07322064,-0.037069432,-0.06150149,0.06364768,-0.0076175607,-0.04202854,0.07214975,-0.011349836,-0.07513274,-0.10735921,0.0011673452,-0.063817896,0.045361996,0.038706858,-0.03606548,0.06080752,0.110508986,-0.056663983,0.05828776,0.08443279,-0.057960127,0.0659588,0.02508214,-0.02144302,0.04106031,0.050209038,0.032665268,-0.018880257,0.044170685,0.011558479,-0.008807182,-0.021505201,0.010559218,-0.040599994,0.0657171,0.059321895,0.014594357,-0.013674906,-0.024548627,0.050070677,0.030343529,0.0096447775,-0.071273714,0.032277808,0.045398593,-0.0044553326,-0.030326316,-0.0035185711,0.065424256,-0.022640847,-0.03237894,-0.059833024,0.13488805,0.010991643
Q12789,-0.29579583,0.0024798985,-0.0477387,-0.016480008,0.08174476,0.026391529,-0.18441445,-0.0211718,-0.12428201,-0.03826609,0.03349796,0.0072261286,-0.05364961,0.050594736,0.05212032,0.059089627,-0.042872664,-0.28476256,-0.048008267,-0.19032331,-0.0063131154,0.037580885,0.10328444,-0.012690442,0.021598695,0.040153127,-0.045977313,0.1958111,-0.10312938,0.01577445,0.047015484,-0.047344033,-0.0654683,-0.12703232,-0.07746919,0.025064815,-0.028288232,-0.07261784,-0.10091262,-0.007904661,0.04273173,-0.05979736,0.052353106,0.02707405,0.010541543,-0.054836445,-0.009455016,0.0600555,-0.032913417,-0.28773552,0.06963043,-0.058322843,0.06783489,-0.02449859,0.2729718,0.03159609,-0.01056956,-0.10699704,0.00020887643,-0.05975174,-0.6808658,0.008614274,-0.11524982,-0.08844498,-0.039135553,0.065765284,0.038623318,-0.010177065,1.4078777,0.055233162,-0.65128565,-0.037665278,0.31743842,0.035036303,0.5470115,0.7995498,-0.048727743,0.1666746,0.08264242,0.053029113,-0.028347213,0.0021921222,-0.1233266,-0.027080165,-0.42516515,-0.049023252,0.048843067,-0.025600115,-0.018333778,0.04181416,0.0033915932,-0.020308025,0.07595473,-0.019312885,0.055736233,0.016811151
O14920,-0.054303806,0.056737024,0.11534561,0.15101276,0.06915576,0.15502864,0.05840212,-0.06058257,-0.003224723,-0.049508397,-0.10924736,-0.021633921,-0.028196504,0.03966212,-0.06593419,0.1611893,0.029779013,0.055613503,-0.011978092,-0.09434608,0.15227167,0.01832034,0.04912066,0.0102880085,0.0011830714,-0.040750988,6.9323105e-05,-0.036354568,-0.036364436,-0.0016993054,0.07742271,-0.05284522,0.14650613,-0.117569394,-0.09588768,0.04324929,-0.051376637,-0.11713911,0.13089162,-0.05367859,-0.022323428,0.38063288,0.038092133,-0.08111689,-0.009004165,-0.038485467,0.009546207,0.04571206,0.07669675,-0.0459156,-0.049287338,0.1961524,-0.047688253,-0.09704616,-0.0059885057,0.020078234,-0.23021087,-0.04383778,0.00820533,0.03921168,-0.057133283,0.0045914934,0.13809898,-0.19268572,0.020225637,-0.037830103,0.04720066,0.018450804,-0.1721928,0.11065098,0.07183937,0.052144874,-0.16508661,-0.022211066,-0.032893594,-0.16738935,-0.0700293,-0.059149753,-0.07082416,-0.09980788,-0.11304749,0.020533582,-0.2001879,0.07673717,0.027883504,0.03790926,0.007176858,-0.014008411,-0.13917452,-0.08225224,0.015889129,0.21445462,-0.13159548,-0.09131304,0.0006841521,0.054579165
Q99704,-0.061855827,-0.0391015,-0.0004448234,-0.22592364,-0.0028460794,0.093288295,0.10546377,-0.394724,-0.24649116,0.097779594,-0.0518628,0.2875749,-0.023745326,-0.11277478,0.066242225,0.10094838,0.079837576,-0.10363654,0.23742017,-0.053799905,0.11910719,0.026233831,-0.07360329,-0.025992887,0.007797973,0.008167527,-0.16424741,-0.07297649,0.73963225,-0.10061979,-0.0057938285,0.14005819,-0.054747205,0.33399066,-0.088264436,-0.13885982,0.105686836,-0.645082,0.20832118,0.16161919,0.10751901,0.37750006,0.21858746,-0.36768857,-0.32991293,0.1800214,0.17930435,-0.38942036,-0.114254154,-0.08613474,-0.14308505,0.25640413,-0.5631583,-0.07271521,0.034935642,0.15751608,-0.18417342,0.035040583,-0.15182622,-0.16338575,0.12725668,0.08698473,-0.08411955,0.052353777,0.04234203,0.29100993,-0.0903095,-0.020035272,-0.37531492,0.10167366,-0.018146146,-0.5670016,-0.109264635,0.7664342,-0.07379264,-0.44994748,-0.22775726,-0.05043051,-0.08610792,-0.26677448,-0.11173157,-0.049690835,-0.14562379,0.09972959,-0.07928641,0.053866368,0.7275121,-0.32999894,-0.18160915,-0.059640527,-0.07714347,0.07029692,-0.14141984,0.71083564,-0.111724034,0.101574495
Q6PGQ7,-0.11215962,-0.020610897,0.051065452,0.0016359322,0.06586093,-0.022900894,-0.043689284,0.07098403,0.0036400047,0.008959682,-0.028207362,-0.1047,-0.06408317,0.040181853,-0.015892832,-0.0010255687,0.051274948,0.025112137,0.019366466,0.0643692,0.034427937,0.055187766,-0.06100123,-0.06894933,0.047045894,0.050080996,-0.013322612,0.04036869,0.011644467,0.016737627,-0.031978298,-0.12985782,0.09198436,-0.009820556,0.07979875,0.06339087,0.04993152,0.020418508,-0.038329683,-0.07708221,0.10545722,-0.001506343,-0.06362379,-0.12737542,-0.1519412,0.032073922,0.05660433,0.043541808,-0.062194474,0.031403605,0.024965703,0.022671683,-0.017084936,-0.0768276,0.06935093,0.09384619,0.04898937,0.0037394874,0.058281697,-0.096465684,-0.04657805,-0.061086763,-0.051517487,-0.0410203,-0.000981036,0.014827088,0.07892643,-0.012743221,-0.032185882,-0.020141155,0.018850056,-0.01239847,0.04500737,0.027695563,-0.0069412915,-0.01327831,-0.0262018,-0.051702097,0.072647765,-0.01323563,0.006905276,-0.037084788,0.049544208,0.018024016,-0.010455747,0.08683501,-0.027540581,-0.046934314,-0.02555723,0.01115087,0.090531245,0.044551726,-0.0196071,-0.13438761,0.0712071,-0.036828905
Q05655,-0.0228002,-0.02328612,0.013586392,-0.023104627,0.057614725,-0.023822306,0.0053625572,-0.087253906,-0.042015992,0.05447089,-0.04018343,0.0030300107,-0.029481903,0.017285336,0.035300516,-0.043875717,0.009593958,0.042391296,0.034875013,-0.005646971,0.018838447,0.017596794,-0.01934732,-0.005570028,0.0036283887,0.004704752,-0.0073809014,-0.02810131,0.0068198335,0.019306457,-0.0052353786,-0.009534813,0.008113118,-0.015313709,-0.021568634,-0.06273293,-0.0004902305,-0.020786047,0.0026392732,0.016254254,-0.009135656,0.0057448205,0.0070755384,0.02786599,0.041607477,0.049577165,-0.009002841,0.021181906,0.0014967842,0.016712932,-0.03361083,0.055338413,-0.016671078,0.0133814635,-0.014955008,-0.015010245,0.009981561,-0.003316784,-0.008703983,0.07696879,0.04422557,-0.008408676,0.024624975,-0.023768729,0.005178169,0.029716391,-0.014287296,-0.02512109,-0.029036837,0.03909565,0.04536321,0.023112405,-0.01199357,-0.029894045,0.041832514,-0.002132803,-0.022358656,-0.006136419,0.002803682,0.027751362,-0.014473667,0.036234446,-0.025474342,-0.069703735,0.043475796,-0.004701684,0.020226952,-0.0070642284,-0.00857579,-0.014709369,0.020796232,-0.01709044,-0.018081779,0.041064322,-0.027243426,0.012403178
P49023,-0.0906103,-0.10724548,-0.07783979,-0.008942404,0.060554862,0.066735394,0.010649359,0.0013244362,-0.30773687,-0.009958662,0.043160442,0.22750294,0.024714042,0.17177685,0.1338917,-0.0013829588,0.06886514,-0.15473366,-0.12095386,0.0127006415,-0.100811675,0.001563011,0.0023385254,-0.1235645,0.058685593,-0.01453638,0.09099602,0.0053889444,-0.015718026,-0.039530113,-0.041229464,0.0652111,0.053081267,-0.12498814,-0.042543273,-0.110652745,-0.030340783,-0.093129404,0.02145831,0.053789932,-0.017237537,0.047617022,-0.08496313,0.13150507,-0.09335924,-0.039767552,0.16784242,0.06861321,-0.11826356,-0.076406315,-0.08281777,0.11732493,-0.1369487,-0.0032445882,-0.00884847,0.029739983,-0.01850452,-0.03700975,0.027787615,-0.15578467,0.01851112,-0.16943145,-0.11897661,-0.09359307,-0.0067354413,0.2462959,-0.10324643,-0.16783346,-0.09412102,0.014564781,-0.050491877,0.094143555,0.010282079,-0.014032251,-0.009318012,-0.11755172,-0.1520075,0.0074190903,0.12083579,0.07575799,-0.064473465,0.010305071,0.019431438,0.12770909,0.08163379,0.15170589,0.1557617,-0.08421718,0.03758808,-0.0022673274,0.06811713,0.021587485,-0.008332031,0.3093212,-0.035848964,0.06957758
Q15717,-0.054831013,-0.06623515,0.039393388,0.14460038,0.07665841,-0.31121826,0.07202988,-0.04166642,-0.115382135,-0.01871064,0.0811293,0.072220325,0.04510396,0.0286537,0.04114879,0.12162996,0.14536701,-0.018054955,1.5558637,0.03376151,0.08525497,0.05031039,0.006493265,-0.5860255,-0.07035596,0.10938641,-0.18111445,0.011273803,0.034298636,-0.6398471,-0.074154876,0.18652357,-0.021418124,0.04039435,-0.7322614,-0.011641597,0.061428826,-0.10520103,-0.09851507,-0.13923952,-0.18939763,-0.3909152,0.070152305,0.06350784,-0.12742384,-0.031626154,0.12716578,-0.25905186,0.02447946,0.1328678,-0.111939415,-0.06166706,-0.09849995,0.020334663,-0.101650365,-0.23861834,-0.13588102,0.23734836,0.014594056,0.049559627,0.05392702,-0.029833047,-0.07245005,0.124334745,0.2965614,0.12030523,-0.080902874,0.027750254,-0.065082826,-0.016452262,0.006461987,0.06528829,-0.084933974,0.073405415,0.02640598,0.23708135,-0.11478383,-0.06254628,0.10251202,0.07995778,0.0020927577,-0.034775596,0.076684915,-0.088160716,-0.036054187,-0.4533158,-0.0088067595,-0.020819342,-0.014676794,-0.030671248,-0.067269474,-0.08392808,-0.1236781,-0.16262865,-0.08148751,0.02771384
P45985,-0.069531456,0.050434284,0.07186715,0.019284615,0.06670468,-0.01162483,0.018596416,-0.16955142,-0.05909283,0.05697012,-0.03153981,-0.0069985734,-0.10588025,-0.059466112,0.09449186,0.11567918,-0.071603544,-0.013432943,0.061306376,-0.0059120213,0.11785465,0.008762423,0.017195003,-0.013844116,-0.029497925,0.044419136,-0.052300908,-0.08606147,0.04921826,0.031368155,0.116816595,-0.059869763,0.04462958,0.0068107992,-0.03258256,-0.0133074485,-0.22373703,0.012139444,-0.12395784,0.09899896,0.11467947,-0.10565889,0.23820494,0.018975265,0.025209548,0.11229089,0.017543165,0.04776129,0.05291542,0.079734765,0.06939642,-0.07426013,0.13126035,-0.009606598,-0.047592983,-0.074461274,-0.045455128,0.00803534,0.01045592,0.11631137,0.035722185,-0.02285781,-0.016029598,-0.11137468,0.1247008,-0.013701725,-0.021190183,0.0351995,0.05555834,0.061470922,0.043195438,0.08974138,-0.079778746,0.11690495,-0.005345264,-0.020833118,-0.06811057,0.06716813,0.026803816,-0.003150496,-0.17316252,-0.10256787,0.035398144,-0.033858534,-0.011952445,0.08711867,-0.024059989,-0.03068076,-0.1846745,-0.20490327,0.069169335,0.11626456,-0.013150924,-0.1919187,-0.041175287,-0.0037990515
O00141,-0.0123048695,0.12956578,0.10890544,0.041328844,0.097360596,0.11683939,0.01685527,-0.059143886,0.034179162,-0.17410104,-0.007070421,-0.053943455,-0.14069073,-0.09768915,0.17222847,0.19860466,-0.010164322,0.04325891,-0.02854206,-0.0050022965,0.1655014,0.022171415,-0.046559703,0.088552065,-0.06308175,0.048085615,0.06287631,-0.03608357,0.00063117215,-0.02031543,0.28464612,-0.03900456,0.017830916,-0.062245436,-0.09426211,-0.088703565,-0.1040244,0.1181791,-0.08071281,0.08942932,0.071807586,-0.15912506,0.2313871,-0.0660913,0.096114956,0.19727188,0.019898029,0.12695648,0.031512547,-0.007566575,-0.053273182,0.020034853,0.0557631,-0.070735045,0.0620878,-0.12651537,-0.03406976,0.08258737,-0.027649822,0.18201555,-0.28963014,0.011892792,0.2044486,-0.110985264,0.13454098,0.03598528,-0.05164157,0.08135201,-0.011239659,0.2748175,0.16253519,0.25549635,-0.2638995,-0.08194723,0.0006894114,-0.017494874,-0.060174696,0.11326021,-0.08503134,-0.059036598,-0.27216274,0.010750301,0.015353451,-0.02669486,-0.06738483,0.07321122,0.053725176,0.07398979,-0.100372404,-0.2675268,0.1325778,0.16965656,0.08472096,-0.09398042,-0.031918377,-0.077471755
Q92542,0.019824209,0.23380679,0.044162083,0.022058569,-0.22573456,0.09096196,0.013050689,0.23799993,-0.22326799,0.03453245,-0.032700688,0.3581655,0.18958077,-0.5939541,0.70962757,0.06271604,-0.19325325,-0.036597632,0.0065369187,0.04331281,0.21593425,-0.41571307,-0.03158532,-0.010797957,-0.4613776,0.047164846,0.09901261,0.095194794,-0.14009161,-0.11296738,0.17512059,-0.0340478,0.048741978,-0.0014595154,-0.013751412,-0.038796403,0.049162157,0.18036135,0.0036635334,0.1412472,0.029846802,0.068163484,0.04091133,-0.103554495,0.036080796,0.16006905,0.061537113,0.07716464,0.041931763,-0.021849634,-0.029277379,-0.01138086,0.092423804,-0.09325715,0.06446353,-0.11645782,-0.072342135,0.018049961,-0.056201372,0.10906068,-0.21901001,0.010169892,0.12129885,-0.0059011346,0.044061787,-0.0055000163,-0.017391786,0.04798346,0.5640037,0.15317707,1.4253782,0.07510775,-0.05368204,0.07516606,-0.0018148501,0.05331431,-0.07685825,0.16126211,-0.04288013,0.12773196,-0.15780972,-0.09634805,0.4931956,0.10430063,0.14927125,0.02717953,-0.07907164,-0.010378208,0.03113034,-0.0583547,0.0534807,0.057208817,0.14919865,-0.034978636,0.07219773,-0.09286889
P11362,-0.17867887,-0.13396765,0.016576655,-0.1696321,0.0283672,0.05698043,-0.099690415,-0.06693522,-0.16821012,-0.020544488,-0.02723253,0.13136357,0.19637498,0.14774886,0.26366737,-0.051656954,0.12687962,-0.048805486,-0.052793697,-0.059604213,-0.062890396,0.07061502,-0.038774204,-0.14929225,-0.015503685,-0.04337299,0.07823899,0.022851964,-0.052850764,-0.039842013,-0.16774872,0.0732409,0.09979901,-0.041455057,-0.065126695,-0.02241567,-0.06049224,0.039337378,-0.0519915,0.11844606,-0.041829024,0.058774088,-0.083578125,0.13586476,-0.117842756,0.06820875,0.060727254,0.07857157,-0.10818115,-0.24551474,0.06466918,0.23586075,-0.026074002,-0.075103976,0.07720279,0.08290366,-0.07695542,-0.061081927,-0.015561746,0.017581578,-0.048208755,-0.02672612,-0.08472113,-0.031874977,0.06931355,0.013184075,-0.03576956,-0.057203874,0.036836457,0.08931427,-0.043069884,0.092880055,-0.085459106,-0.003421301,0.078077815,-0.0784768,0.012010502,-0.0032390421,0.012334077,-0.0065733804,-0.020825567,0.08196589,0.026987448,0.064247616,0.119191684,-0.043595523,0.05679351,-0.0017177038,0.012603451,-0.090825126,-0.03028901,-0.011342959,-0.09098914,-0.013984769,-0.08071721,0.2696292
Q13554,-0.0013114734,0.030299077,-0.047143687,0.024092026,0.017399639,0.013996792,0.122952506,0.018025776,-0.0252964,-0.012415287,0.14039192,-0.10804939,-0.047853105,-0.01197495,-0.018357268,0.009365208,0.019102259,-0.029425569,-0.01090872,-0.031221615,0.029893942,0.088740505,0.088088565,0.031459432,-0.013112097,-0.037937507,0.00551961,-0.018177174,0.06694002,0.015362617,-0.016547885,0.043837342,0.034066882,0.06970147,0.025679877,-0.013439911,-0.014256867,-0.005724837,0.048220746,-0.0050157583,-0.0089182155,-0.024211876,0.022980154,0.02107623,-0.013594291,-0.021724682,0.019941933,0.01592166,-0.009932459,0.028504368,0.011428759,-0.024050042,0.020798856,-0.020105623,-0.006807043,-0.0469009,0.014521165,-0.017779937,-0.07223694,0.0425466,-0.08408274,-0.07802684,-0.04808087,-0.04697563,-0.009219783,-0.04163723,-0.028278375,0.0008089279,-0.00948325,-0.010213769,0.013070444,0.05994757,-0.03691822,-0.030184219,0.06640364,-0.03650677,-0.0105928425,0.060305223,-0.03768036,-0.00420014,-0.09557269,0.015968153,-0.02518829,0.02753598,0.039456498,0.019294653,-0.02057423,0.003216706,-0.038780723,-0.044105276,-0.043051098,0.017733641,0.018923296,-0.03859298,-0.08323835,-0.06751877
P25098,-0.048140675,-0.025314953,0.061546657,-0.04458231,0.010569491,0.01720652,0.09588327,-0.072657764,0.027981779,0.031649224,0.0064554107,0.009626188,0.010217211,0.013304912,0.041949,-0.05335666,-0.043767117,0.02973966,0.018961057,-0.03240925,-0.0143938335,-0.055685133,-0.044001345,0.0013544293,0.019134335,0.027578624,0.013342603,0.011145532,0.037589643,-0.016459431,-0.0033078582,-0.03362203,0.08066252,-0.009921805,-0.033035427,0.022263719,0.04578306,0.010800846,-0.035876162,-0.022826586,-0.049891587,0.010177703,-0.023745224,-0.03220654,0.0982815,-0.0089401845,-0.04935205,0.09083695,0.006239449,-0.08193195,-0.021868132,0.04925996,0.00377385,0.067423895,-0.040421933,-0.09703912,0.024854084,-0.021531297,0.04657208,-0.0004923996,0.06370366,-0.016821219,0.00827021,0.008608494,-0.045470245,-0.045400158,-0.002658192,-0.014716694,0.033052716,0.009817571,-0.022421958,-0.019272361,-0.14406861,-0.05068308,-0.03147814,-0.014683552,-0.013067944,-0.026253846,-0.06979321,-0.006623924,0.06810149,-0.0063483384,0.03636453,0.037573382,0.050088536,0.09380932,0.018870495,0.024043864,-0.041686803,0.061400477,0.022970028,0.0015941781,0.02955501,0.022834541,0.019278945,-0.017503276
P41143,0.040829573,-0.010752724,0.13984661,-0.04643344,-0.04301399,0.01786838,-0.2637468,-0.18682759,0.0075165927,0.07271226,0.027071651,0.104635745,-0.021314187,0.049019553,0.057103384,-0.072120175,0.066449724,0.032327633,0.43356502,-0.05287634,0.13139206,0.07905627,-0.11164357,0.0773777,-0.06806335,-0.0941467,0.06787232,0.024960615,-0.081186205,-0.19304276,0.12532282,-0.11085171,0.07276331,-0.02963956,-0.11665271,-0.08315569,0.13117191,0.6040569,-0.0510621,0.11391477,-0.09287858,0.04319094,0.12208847,0.005017856,0.14698932,-0.26701128,-0.059769545,-0.0015568183,-0.10377675,-0.042860795,-0.049511902,0.0036137956,0.05076914,0.0064223586,0.15199879,-0.10011455,-0.96567965,-0.1720062,0.031668335,-1.2973119,0.047742084,-0.0026637982,0.0027949752,-0.07320794,0.03209,-0.14790146,0.025552798,-0.06958195,0.036080122,0.07269409,0.16309689,0.07351499,-0.20009449,-0.043386053,-0.118729874,-0.0164687,0.91448015,0.37452456,-0.03145593,0.13739108,0.1286833,-0.08062429,0.17211059,-0.080199026,0.069475174,0.012781765,0.033453945,0.071861416,-0.13085671,0.022904538,0.024585443,-0.0093533285,0.15960331,0.08948014,-0.017904835,-0.013372649
Q9UNZ2,-0.1230991,0.0055533187,-0.104978524,-0.602075,-0.07509388,0.18440202,0.38989323,-0.21817271,-0.09332602,0.06377144,0.4374313,0.07689156,0.13049102,0.07585841,0.09488712,0.060626887,0.04052524,0.26948926,0.04805823,-0.06682823,-0.108700566,-0.013528149,-0.38577142,0.06158765,-0.0017756389,0.21326478,0.033420026,0.20055632,-0.021906221,0.09783782,0.055515476,-0.064194135,-0.04037942,0.0040019234,0.0058678538,0.18520473,0.41199902,0.010732128,0.031811308,-0.4741234,0.08231279,-0.12640013,-0.08855452,-0.023645604,-0.05942931,0.033240136,0.058529317,-0.08156777,-0.049813285,-0.030777177,-0.006301595,-0.034574933,-0.067542545,0.1095458,0.10985629,0.15805268,-0.31979668,0.052225284,0.20615622,0.010788525,-0.28217965,0.025562534,0.08377076,-0.12370453,-0.039435558,0.13349232,0.07335206,0.09822762,-0.34455684,-0.014047036,0.047083486,-0.1672645,-0.073925935,0.043064464,-0.0916933,0.46327692,-0.038123257,0.03191972,-1.4786137,0.07529194,-0.06727129,0.008640121,-0.031450883,0.2532593,-0.1203775,0.07349337,-0.094124176,-0.16769,0.031420432,0.0040493635,-0.06956594,-0.10618678,0.10548487,0.075029254,0.037697215,-0.08258447
Q9BR76,-0.09326562,0.42662156,0.018992381,-0.1264735,0.016050266,0.04198055,0.09834496,-0.09964254,-0.014902804,0.035576534,-0.36703515,-0.021695014,-0.0069437544,0.07933326,-0.93011826,0.03783855,0.046277635,0.30044836,0.035105243,-0.18229039,0.060994394,0.03865959,0.04266451,-0.12598309,-0.09066526,0.05147227,-0.03258429,1.101951,0.5550416,0.10059854,0.11270798,0.20127988,-0.049711842,0.0321182,-0.02877622,-0.2090886,-0.07828921,0.100057684,0.7182039,0.08381418,0.09782156,0.034182847,0.08888636,-0.09794306,0.06049427,-0.04014031,0.05167742,-0.11813866,0.09152633,-0.025082542,-0.11527486,0.15670118,0.13937765,0.24462406,0.01796417,-0.15536787,0.02481103,-0.25879794,0.042512435,0.08030074,0.18130071,0.06275333,-0.04811649,-0.11052582,0.042431995,-0.022788947,-0.14335316,0.1380511,0.055302154,0.17453991,-0.15610096,0.16262013,-0.13890824,0.081169546,0.1259961,-0.0068083433,-0.22483148,0.05239949,-0.223104,-0.08427109,-0.15525454,-0.14836492,0.023155091,0.04116415,-0.06035469,-0.06026198,-0.022127327,0.19598311,-0.059458297,0.14290161,0.34215662,0.013263663,0.03315933,-0.024147106,0.67087495,0.01525579
Q13535,-0.08909791,-0.03634583,0.11326757,0.12596665,0.18086377,0.045839168,-0.15664932,0.18161811,0.13993609,-0.061557934,-0.044318244,-0.10741232,0.004713379,0.06484157,-0.1397143,0.09660718,-0.14568773,-0.08093222,0.08091166,0.12472226,0.028778603,0.19604458,-0.0761132,-0.0773837,-0.060012646,0.051201604,-0.016710691,-0.015015985,0.1576299,-0.0809103,-0.019919561,0.07245516,0.057139944,0.20963086,0.09095375,0.10738744,-0.1697889,-0.017870003,-0.1235913,-0.047820877,0.060103476,-0.037737463,0.0073922374,0.052108295,0.08896762,-0.08574023,0.008754723,-0.07718487,0.12258067,-0.03864694,-0.10308019,-0.13841416,-0.016120696,-0.06443824,0.0070800986,-0.02952065,-0.005366556,-0.062650345,0.099731974,0.0799556,-0.10247214,0.052522525,0.13957676,0.108106874,0.01442395,0.13309947,-0.107936665,0.009325578,0.006100485,0.1005078,0.036026742,-0.19653812,-0.069742724,-0.048632294,-0.010943466,0.024224266,0.13305937,0.0013200424,-0.005668446,0.049533494,-0.058472026,-0.2213097,-0.034958694,0.0926781,0.11309579,-0.036844127,-0.029991826,0.1484758,-0.10655778,-0.042048328,-0.026928995,0.09990216,0.09707022,-0.12102798,-0.08083601,-0.04741171
Q8TAQ2,0.08149458,-0.004883007,0.0866545,0.031901002,-0.045589842,0.10252245,-0.97368026,0.10960069,0.28521824,-0.027864626,-0.09636812,-0.007104823,0.21656092,0.13649379,-0.06676018,-0.014997949,-0.0104700625,-0.06088225,0.111333616,0.026615335,0.017135162,0.0945113,-0.06676316,-0.1584661,0.15980402,-0.030271232,0.124177046,-0.57336175,-0.05628063,-0.09352171,0.13966942,0.13650005,-0.03419857,0.09547095,0.006101646,0.16387014,-0.68442565,0.07062986,0.09887617,-0.211693,-0.034008946,0.07182595,0.08978428,0.030527882,-0.047476158,-0.06591343,-0.048409596,0.009832015,0.068879105,-0.029465042,-0.012084433,-0.1849459,0.029574735,0.066083364,-0.26621717,0.0952052,-0.80645376,0.11047497,-0.56471837,-0.0601238,-0.0993101,-0.23147184,0.07524008,0.066444,-0.12523781,0.053503968,-0.09568278,0.010835791,0.054495726,0.013791262,0.17468527,-0.050536767,-0.61094636,-0.0032902735,-0.06949553,0.28282198,0.0850867,-0.08244521,-0.037984796,0.038364545,0.041046463,-0.08576575,-0.06298596,-0.060604643,0.1575303,0.034859918,-0.17617583,-0.15855403,0.7674477,0.064503714,0.009909462,-0.46991435,-0.01141605,-0.07974718,0.070943035,0.017366681
Q14103,0.0684554,-0.007508059,0.0013671155,0.005034248,-0.016835561,0.104012564,0.105166964,0.07457786,-0.1052007,0.0038388257,0.104337186,0.013993496,-0.012617646,-0.0049370653,0.012838029,0.044233184,-0.03509025,0.0496017,0.010558447,-0.0013474558,0.030967252,-0.049079843,0.115683205,0.027394425,-0.06724267,0.035233352,0.022032732,0.087755874,-0.023124022,-0.032062065,0.16751936,0.06902041,-0.04514415,-0.099577196,-0.12169409,-0.02403128,-0.11931636,0.04922047,0.05214474,0.062374458,0.023429502,0.047141414,-1.8981541,-0.04201011,0.079981185,-0.009674374,-0.024423381,-0.01800638,0.0402066,-0.07328564,-0.100427836,-0.008306662,0.09691301,0.046374183,-0.10777619,-0.030988077,0.0953763,0.0871861,-0.06608394,0.122265756,-0.06360693,0.059442367,0.046268396,0.072836325,0.009402301,0.04810911,-0.043930598,-0.04282757,0.06376696,0.063173056,0.07132301,0.0012820866,-0.034003947,-0.045383234,-0.084924825,-0.096245915,0.037619583,0.04345216,-0.047831807,-0.024165813,-0.015342356,0.010416358,-0.08432299,-0.11015536,-0.15236203,-0.053413935,0.02006929,-0.07664389,-0.089636706,-0.08127589,-0.02904482,0.04065857,-0.013872578,-0.71746755,-0.14902145,-0.5535288
P42858,0.00754618,0.09456985,0.09908259,-0.033206552,0.041599162,0.012622111,-0.014492934,-0.0016025063,-0.050753962,-0.015219431,-0.08298676,-0.051559124,-0.0787126,-0.02769302,0.036790848,0.0020034637,0.028307768,0.03230209,-0.007717646,-0.045192238,0.025813883,-0.043771926,0.1371604,0.069537774,-0.020176275,-0.06786961,-0.07676525,0.019936271,-0.021102138,0.011149274,0.05376676,-0.02337952,0.10589803,0.009170795,-0.0090443855,-0.049847793,-0.036784664,-0.04356515,0.017505381,-0.0069428794,-0.007597105,-0.118350536,0.004421127,-0.020774785,0.0050978633,0.0089128865,0.013294193,-0.022386087,0.056803696,0.072757944,0.0759295,0.07920155,0.05036216,0.007932806,-0.038956866,-0.02183204,-0.097181536,-0.09645854,-0.08025688,0.030663665,-0.046997193,-0.07126128,-0.0049506873,-0.025999874,0.0646224,0.066497065,-0.054930534,0.015814073,0.006928188,-0.044737417,0.003440514,-0.014581843,-0.10772637,-0.08050171,-0.059177246,0.016295636,0.007373734,0.08144952,-0.09467307,0.017278908,-0.061058935,0.10519099,-0.122532226,0.047981467,0.1091402,0.041557264,0.029815149,0.13196965,0.1444504,-0.16485682,-0.026657026,-0.006594336,0.036971886,-0.050140876,-0.089886114,-0.025222732
P19784,0.0036025788,-0.006809623,0.016489716,0.004343912,-0.025824884,0.009476593,-0.019519487,0.038589615,0.024295742,0.010535799,0.00029705386,0.017587608,-0.012600795,0.008181136,-0.0009986706,0.0023459392,0.022140155,-0.01305606,-0.0020307663,-0.017714271,0.009330609,-0.0087761115,0.001737782,0.043397438,0.01437575,-0.037971474,0.025353517,-0.036470644,-0.021701794,0.022365684,-0.0019834212,0.014769607,0.007246916,-0.017724235,0.025565619,0.02396433,-0.0092218015,-0.038036406,0.0127046425,-0.0013068579,0.011906912,-0.012534699,-0.002753253,0.061190944,-0.0018772562,-0.012414436,-0.051723048,0.020156162,0.00972815,0.043005526,-0.013622872,0.015653195,-0.0012632965,-0.035423193,0.004093267,-0.009797135,0.055311844,-0.014801886,-0.002141792,0.055992234,0.0046571065,0.017462267,-0.027293364,0.019507397,0.003537389,0.027222907,0.012237567,-0.02332562,0.03441278,-0.017273985,0.01182791,0.015737887,-0.070080176,-0.0010392203,0.013789552,-0.015261728,0.008453112,0.039526552,-0.03529474,-0.037296638,0.024666801,-0.022517065,0.0106127625,-0.031783517,-0.033153977,-0.018996183,0.025205575,0.020876504,-0.01935042,-0.03417616,0.031949,-0.011179491,-0.003630361,0.0064561865,-0.019785658,-0.018128686
P18887,0.022408493,-0.9779882,0.10141687,-0.050629076,0.07591261,-0.05424795,0.060564335,0.07925407,0.03690892,-0.12289179,-0.11154123,-0.0953696,-0.060124382,-0.105970666,-0.029923722,0.050313327,-0.08163412,0.072188795,-0.28527638,-0.3211597,-1.1985548,-0.4248398,0.030012503,0.04591986,-0.048333872,0.059192725,0.024475928,0.100698985,0.001804314,0.06063888,0.14239872,0.18798685,-0.21003874,-0.016699748,0.1266481,0.09793338,-0.15758182,-0.21138035,0.3284182,-0.12994534,0.16138875,-0.41938075,0.17107286,-0.28641662,0.12877797,-0.0704102,-0.043345742,-0.028238013,-0.3132988,0.14068596,-0.08598358,-0.13867146,0.043127235,0.022466818,-0.106391504,0.20169899,-0.16870344,0.26926646,0.07980622,0.10561009,-0.37146938,-0.10193839,-0.51759875,-0.002722962,0.21905519,0.092402406,0.010281284,-0.08042591,-0.030659962,0.0034803092,-0.080928974,-0.17378141,-0.096614085,0.12846534,0.06282856,-0.17122324,-0.120593615,0.07328562,-0.009933665,0.19341904,0.15197967,0.07504735,0.2132738,0.16716768,0.036826767,0.12777628,-0.0978753,0.142338,0.41098347,0.0538088,-0.09967778,0.14575538,0.15046886,-0.18860549,-0.0020035706,0.15613985
Q15648,-0.14323707,0.54390264,0.046546858,0.069005564,0.19789545,0.042043593,-0.027562436,0.40481493,0.15013534,-0.04077856,-0.22837198,0.029870942,0.05771772,0.099143095,-0.061434947,-0.5021712,-0.03542007,0.020738684,0.11169843,-0.06720901,-0.023387605,-0.10998915,-0.11922246,-0.024617882,-0.20318767,0.0638281,0.3642921,0.14842403,0.1142998,0.11766814,-0.1603558,-0.09535816,-0.02179406,-0.044330146,-0.40732065,0.07125207,0.061487757,-0.27921844,-0.07531897,-0.101429686,0.17417601,0.08863361,-0.4307714,-0.089995235,0.7371617,-0.057571214,0.04456067,0.06375164,-0.08276116,0.07209546,-0.028700415,-0.24742591,-0.1402472,-0.022933807,0.14494154,0.12900767,-0.48975807,0.07525312,0.080750935,-0.14201012,-0.1041732,0.5362754,-0.38642126,-0.15209274,0.022805698,0.02364936,0.12645261,-0.05336663,-0.07909524,-0.26833707,0.39085144,0.035444688,0.030977454,-0.086868934,-0.038244873,-0.004160683,-0.10029482,-0.13539718,-0.30404034,0.041634414,-0.053271674,0.95500964,-0.29281926,-0.12435404,-0.16999398,0.22136526,-0.043839008,0.2453231,0.06164249,0.10354914,0.13149102,-0.016873622,0.12374425,-0.4563203,0.13832802,0.0026040254
